1400 200
做梦 -0.412713 -1.053944 -0.370268 -0.727620 0.275951 -1.725043 0.441105 0.747121 0.317460 -0.029072 0.552748 0.989883 0.424391 0.334331 1.498839 -0.941106 -0.386152 -0.358873 -0.824706 0.382556 0.166184 -0.557352 -0.176335 0.531553 0.305719 -0.866649 0.126848 -0.835200 -0.758505 0.375719 -0.531720 1.744614 -1.119356 1.924207 -0.989666 -0.474231 1.508442 -0.469280 1.116046 0.588287 0.419628 -0.885835 1.397597 0.988636 -0.082394 -0.729897 1.164153 -0.727297 1.432891 -0.699999 0.502888 -0.903179 0.849120 -0.798878 -0.982903 -0.358773 -0.088425 -1.329424 1.229216 0.090985 -0.334581 1.836255 1.166607 -0.276475 0.781498 0.968500 -0.489009 0.803355 -0.526437 -1.217177 0.699313 0.670680 1.868412 -0.443776 -1.039364 -1.622943 -0.424121 1.318504 -0.854338 -1.125706 -0.084426 -1.096324 0.046649 0.279770 -1.994403 -1.232719 -0.430044 0.772686 -0.978163 0.861326 -0.813250 0.359017 2.194089 0.804762 -1.590328 -0.025821 0.099313 2.445898 -0.457188 0.248987 1.426630 1.225905 -0.894621 -0.942181 0.139614 -0.417841 -1.137062 -2.003914 -0.658424 -0.134953 1.270070 -0.466420 -0.799011 -0.417250 0.245731 1.882576 -0.335508 -0.526464 0.078318 -0.920096 2.299707 -0.290957 -0.059980 -0.365145 0.828322 -0.593776 1.242280 1.396022 0.242998 -2.954969 -0.357697 0.055828 -0.790400 -0.296659 -1.403152 -0.160361 -0.425289 0.356737 0.645602 -0.130640 -0.758740 -0.607510 1.193628 -0.113871 0.491493 0.282290 0.979603 -0.270006 -0.484034 -0.406073 1.151314 0.297538 -0.336026 -0.360599 0.256562 0.468593 -1.068337 0.872675 0.847426 -1.543158 -0.309939 0.830693 1.011501 0.259789 -0.033439 -0.341803 -0.271847 -0.120142 -0.232216 0.724069 0.870755 -0.648885 -1.151171 -0.652643 -0.382033 -0.755428 0.701314 -0.055231 1.018027 0.444106 0.804295 1.101335 -0.365557 -0.254487 -0.439960 -1.254465 0.422273 -0.613796 -1.171578 -0.832321 0.382118 -0.559732 0.916532 -0.902663 0.350145 -0.637722 0.711563 -1.584374 -0.106648 -0.929003 
最后 0.469985 0.068904 0.447589 -1.132760 -0.364290 -0.276547 0.417889 0.156108 0.854450 -0.832738 -0.463353 0.858190 -0.074751 0.190857 0.415401 0.305547 0.332899 -0.980740 0.134719 0.820916 1.157277 -0.304672 -0.246584 -0.023473 -0.388386 0.656088 0.938728 2.050431 -0.740631 -1.340891 0.109554 -0.067730 1.849958 -0.197178 -1.157788 -0.699784 -0.894826 2.156584 -0.355183 -0.806148 1.673673 -0.391496 -0.099706 -1.144326 -0.327220 -1.612368 0.151137 -0.261767 0.615577 0.576978 -0.037200 0.380829 0.087882 0.042686 -1.059565 -0.062670 0.592209 -0.265705 0.040763 1.150784 -0.671049 -0.185711 1.576295 -0.842191 -0.315251 -1.848162 0.612457 0.842017 -0.134248 -0.914146 -1.648166 -1.123881 -0.270381 -0.001986 -0.321865 1.171668 0.763878 0.201122 -0.292312 -0.179503 -0.654660 0.277284 -0.779882 0.183847 -1.068007 0.224192 0.137813 -0.212216 -0.332111 1.641537 0.060618 0.015024 -0.621844 0.704089 -1.458298 -1.778871 0.635646 0.399623 0.376715 -1.474666 -0.604837 -0.071168 1.586785 -0.611926 0.098452 -0.581947 0.342242 0.210560 -1.028202 0.044350 0.263917 -1.154955 2.016696 0.547447 -0.935355 -0.139259 -0.036867 -0.478658 1.315609 -0.735910 0.535945 -0.865248 0.431738 0.120340 0.109254 0.725440 -0.884662 2.396350 -1.938694 -1.327573 -0.140279 -0.847034 1.400664 0.464424 0.015404 -1.643042 0.713140 -0.736792 -0.749373 -0.453514 0.080072 -0.284715 -2.053385 -0.790846 -0.133930 0.758892 -0.711097 0.953565 0.287367 -1.029738 0.491248 1.273347 0.635603 -1.873726 0.391793 -0.019302 -0.030709 0.978709 -2.006866 0.440867 1.247960 0.701786 -0.324409 0.912382 0.718011 0.735831 0.658286 -1.384717 -1.371443 0.089329 -0.289850 0.642948 -0.676720 -1.388129 1.105615 -1.054375 -0.486119 -0.222158 -0.325882 -0.861768 0.105912 -0.435917 0.331197 -1.486165 0.270557 0.144202 -1.003262 1.131261 0.890038 1.511146 -0.722830 -0.978217 -0.827222 0.482233 0.756166 0.177869 -1.141047 0.373895 -1.832562 -0.180728 
已婚 0.279179 -0.381275 -0.147404 -0.692229 0.237974 -1.010108 1.062168 0.881679 -0.321747 -1.352214 -0.708411 1.164899 0.460539 0.758832 -0.575214 0.586235 0.177403 0.304407 1.038417 -1.201104 0.405340 0.961895 0.165532 0.146199 -0.121955 -1.329988 1.142999 -0.943512 -1.538101 -0.358009 0.158497 0.656732 -2.437222 1.175235 -0.849488 -0.295302 0.849218 -2.353600 1.509438 0.444145 0.379712 0.507272 -1.154011 -0.334382 -0.607881 0.025529 -0.324340 -0.506736 0.457027 0.502307 0.094201 -0.041345 0.821214 -0.353857 0.525818 0.076045 -0.228651 -0.234695 0.292823 -1.185406 -0.195642 1.625574 0.503403 -1.123308 0.334128 -0.118066 0.765320 -0.096191 -0.505881 -0.010748 -0.265750 -0.708892 0.903546 0.172759 -0.276957 0.175371 0.506515 0.866683 -0.210299 -0.104050 -0.552364 -1.008447 -0.026785 0.469750 -0.723911 -1.506674 -0.851497 -0.129189 0.349729 0.989778 -1.126443 0.134605 -0.174120 -1.222771 -0.260893 0.447604 1.306805 -0.299767 -0.149641 0.796348 1.577801 -0.634048 -0.591550 0.776867 0.231110 0.653923 0.141888 -1.280684 -0.920204 0.444299 -1.674329 -0.312234 -0.382779 1.185035 -2.122063 -0.473054 -0.545523 0.260921 0.337013 -0.224450 0.484987 0.658408 0.906159 -0.452393 0.595239 -0.539954 0.475913 -0.189353 0.603188 0.921111 1.212663 -0.773532 0.430550 0.906047 -0.189372 -2.298242 -0.106056 0.911435 0.696351 -0.126899 0.071502 0.179670 -0.454605 -0.044316 -2.000322 -0.146938 0.076756 0.183042 -0.105922 -0.008751 -0.269771 1.107586 -0.377299 -0.737058 0.115987 -0.822779 0.119269 0.114195 0.877809 1.417302 -0.882578 0.635648 -0.115165 -0.571135 -1.218687 -0.115532 0.926483 -0.662049 0.552301 -0.281067 0.329929 -2.449815 -0.409752 -0.713323 -0.544785 -0.481394 -1.533150 -0.558486 -0.569262 1.866190 0.603395 0.060012 -0.606541 0.236381 0.382344 -1.051840 -0.450058 0.864566 0.233351 -0.602784 1.733301 -0.078671 0.536960 0.101027 0.037361 -0.882279 -0.401086 -1.904913 0.822025 1.768615 
偷懒 -0.459226 -0.213646 -0.683465 0.287262 1.192000 0.254087 0.176992 -0.189770 1.098459 0.662022 0.363897 0.397129 -1.231835 1.267507 -0.689168 -0.115654 -0.358169 0.417519 2.179652 0.554441 -0.597203 0.215676 0.116824 0.381759 0.972660 1.171650 -2.234359 -0.100866 -1.228905 -0.185385 -2.139338 -0.801753 -1.244153 0.335564 -0.310678 -0.183975 -0.600426 0.934969 -0.006716 -0.513760 0.208366 0.991940 1.151928 0.205510 -1.738612 -0.287397 -0.713849 0.186047 -0.095514 -0.229163 0.445796 0.164675 -0.391292 -0.624226 -0.632551 -0.322374 -0.342392 0.275720 -0.337126 -0.388179 -0.968348 -0.298660 0.105653 1.255076 -2.310298 -0.113320 -0.787440 -1.431140 -0.171085 0.031159 -1.293550 -1.559788 0.044180 0.931551 0.222415 1.121678 0.405215 0.992505 -0.501428 0.861055 -0.567200 0.465363 0.282852 0.017434 -0.070116 -0.342866 0.506921 1.111589 0.239637 0.445604 -0.121410 -0.385435 -0.928309 -1.391987 -0.521283 0.219343 0.393215 1.069219 -0.255980 0.211856 0.850382 -0.915200 0.597989 -0.359804 -1.042607 0.148980 -0.085681 -0.108007 0.068842 0.382971 -0.370564 -1.091183 -0.930610 -0.136398 -1.107647 1.296222 0.547220 -1.750441 -0.782357 1.570032 0.264356 -0.506225 0.339628 0.123063 0.478740 0.064983 -0.571871 0.133167 1.333651 0.935667 -0.191188 -1.087832 0.738561 -0.290867 0.394313 -0.985769 0.607008 0.013289 -0.070200 0.933687 0.245631 -1.066798 0.509514 -0.034918 0.131816 -0.316828 -0.157631 -0.549985 -1.111006 0.224302 -0.124822 0.545864 0.400900 -0.776735 0.980128 0.324691 -0.513992 -0.040420 -0.856892 0.028712 -1.546378 -1.746276 0.283829 0.871435 -0.101109 -0.332031 -1.548031 -0.455559 0.334899 -1.575823 -0.436779 0.771795 -0.366973 -0.744418 0.416067 -0.297296 -0.609110 0.309918 0.657728 -0.131680 0.409430 -0.739778 -1.185679 0.388623 0.168131 0.400729 0.458618 -0.497915 -0.437810 0.418509 0.402435 0.489652 -0.323930 0.507158 0.503483 -0.674333 0.473850 1.050890 0.530762 -0.535201 
懊悔 -1.627811 -0.214672 -2.098710 -0.129211 0.622518 -1.502703 -0.391024 0.477033 1.134565 0.265429 1.500396 0.441111 0.352558 -0.171167 0.062209 0.063725 -0.842160 -0.216126 1.503086 1.963419 0.383691 0.653687 1.008166 0.213043 0.593743 -0.441113 -1.578482 -1.065710 -1.825965 0.788682 -0.893708 -0.209981 -0.914214 1.910859 0.381871 0.061992 0.204996 -0.107247 0.420255 -0.117151 0.627713 -0.147869 -0.789441 1.342358 0.047864 -0.647544 0.968005 -0.283682 -0.481661 -0.877393 0.271609 0.201262 0.608504 -0.362211 -0.917956 0.012152 -1.392065 1.080613 0.717559 -0.579480 0.932614 -1.112037 0.793654 0.599939 -1.087076 0.545995 0.425711 -0.986458 0.094465 -1.160650 0.894921 -1.736234 -0.258988 0.242698 -1.459756 -1.134802 0.501723 -1.089052 -1.645519 -0.705130 -0.650911 0.286220 -0.061141 -0.773549 0.007908 -0.264080 -0.273534 0.450584 0.517213 -0.436529 0.335751 -0.816420 -0.359629 -1.459520 0.995897 1.399543 1.041965 1.023988 0.694567 0.139519 1.241673 -0.136405 0.199197 -0.005806 -0.018363 1.131598 -0.669102 -0.219214 -0.713595 -1.226052 -0.874146 0.375329 -0.920712 -0.151430 0.165435 -0.888853 0.305301 0.016018 -0.028042 0.737871 -0.117626 -0.438069 -0.386863 -0.009576 -0.340462 -0.650141 -0.711050 -0.061174 0.006615 -0.338002 -1.399846 0.843834 -1.139908 0.147447 0.016871 -0.051539 0.537856 0.109270 0.232787 0.764247 -1.258825 -0.306710 0.231090 0.129896 1.037024 0.840238 1.161839 -1.091416 -0.324245 -0.622472 0.440323 0.003130 0.096473 -0.090110 -0.092559 0.577913 -0.101128 -0.084979 -0.793126 -0.910446 -0.726539 0.051454 0.424903 1.100646 -0.261128 0.102967 -0.492269 -0.983641 -0.297841 -0.850515 0.100445 0.158418 -0.629417 0.789709 0.145346 0.319089 -0.711710 0.321585 0.054828 0.148344 0.373278 0.237734 0.502782 -0.017988 -1.183644 -0.827425 -0.632495 -0.229694 -1.163376 -0.499051 -0.061783 1.514378 -0.956261 -1.071106 -0.125782 -0.071647 -0.214895 -0.566169 1.531018 -0.299283 
最佳 -0.260487 0.392342 0.533014 0.138818 0.809763 0.819362 -0.201128 -0.583041 0.677491 0.402064 -0.874661 -0.164597 -1.320323 -0.311527 -0.526985 -0.378787 0.354840 0.502137 1.988546 -0.233867 -0.579440 -0.523647 -0.137748 -0.023826 0.493928 0.074037 -1.067999 0.061278 -0.247793 -0.102956 -1.835431 -0.310631 -0.087582 0.225855 1.241915 -0.341426 -0.268403 -0.229366 -0.187644 -0.537951 -0.395794 1.430857 0.189856 0.596018 0.200411 0.648679 0.078159 0.899090 -0.799194 -0.038984 1.103890 -0.066220 0.926704 0.002006 0.076340 -0.710616 -0.043323 1.595358 -0.803847 -0.425310 -0.507104 0.963308 -0.814427 0.346710 -0.779385 0.210092 -0.250066 -0.335352 -0.229171 0.209197 -0.034340 -0.976939 -0.227435 2.358817 0.149811 1.109212 1.057753 1.256271 0.089176 0.600150 0.106161 -1.200470 0.232159 0.075295 0.711213 0.782848 1.070482 0.575918 -0.391955 -0.059745 -0.152362 -0.665682 -1.161242 -0.741638 0.100766 0.648068 0.711794 0.487494 0.003147 0.817324 0.764719 -0.180704 -0.582338 -1.011885 -0.868920 -0.547409 -0.605886 -0.377244 1.189152 -0.304110 -0.337281 0.751724 -1.391171 -0.079223 -0.193839 0.867580 1.197842 -0.707294 -0.211553 -0.645163 -0.172800 1.530644 -0.751006 -0.918267 0.178331 0.663432 -0.323066 -0.245013 0.665900 0.184726 0.934297 -0.802378 -0.435287 0.271444 1.302548 -1.102307 -0.054748 0.478055 0.948333 0.880648 0.768974 -2.195793 1.787025 0.558675 0.562029 -0.029290 0.822708 -0.890302 -0.413401 0.658608 1.622515 -0.361572 -0.027236 0.062295 -0.514329 -0.280009 -0.018408 0.960285 -0.518643 0.493791 -1.301758 -0.877238 0.112241 -0.591390 -1.248618 0.140140 -0.055119 1.261864 -0.026165 -0.567253 1.330419 -0.004104 0.315309 0.501138 0.801055 -0.206615 -0.498917 0.416429 -0.474976 0.162087 -0.430544 0.421633 -1.040591 0.922326 0.447349 0.858552 0.434654 0.078870 0.229301 -0.139835 0.595077 0.483553 -0.186743 0.418712 0.487800 -0.376410 -0.426023 0.874649 0.118670 -0.949514 
颠倒 0.633897 -0.455685 -0.736401 0.897605 -0.237403 -0.331135 -0.929514 0.357884 0.255232 -0.079418 1.189457 -0.648119 0.359202 -0.163199 -0.705353 0.580899 -1.114072 -1.801923 -0.621995 -1.490412 -0.370177 0.510040 0.112498 1.479345 -0.338190 0.026423 0.855075 0.281730 0.886420 0.191140 0.081273 0.560991 -0.186217 -0.682660 -0.365950 0.984130 -0.178080 0.337476 -0.034502 0.910717 -0.015904 -0.539047 -0.024530 -0.584001 1.744492 0.987293 0.442108 -1.267956 0.886795 -0.138034 1.132645 -0.341758 -0.020297 0.194173 -0.566169 -0.145083 -0.101425 0.341118 -0.252122 0.625472 -0.633101 0.339104 -0.112412 -0.445951 -1.164690 0.597923 1.861578 -1.142346 -1.672190 0.271543 0.396183 0.035354 0.729068 -0.460707 -0.201360 0.808128 -0.467520 0.863927 -0.320161 -0.033076 0.169787 0.508366 -1.241729 -0.670984 -0.937542 0.107366 1.400765 0.725967 0.707084 -0.074318 0.454600 0.132094 0.414305 0.049558 -0.871071 -0.669117 0.419459 -0.024869 0.085751 -0.482707 0.661611 -0.948807 -0.681418 -0.558537 -0.972504 -0.713064 0.403098 0.500120 0.664667 -0.690838 -0.363831 0.004338 0.355275 -0.351412 0.841839 -0.010490 -0.163176 1.019224 0.738660 -0.373020 0.288951 -0.026121 -0.965340 0.291087 -0.877134 0.775705 -0.028871 -0.459607 0.476186 0.592916 -1.682671 1.228947 0.839349 0.733695 0.874277 -0.188084 -0.942747 1.121267 0.356172 -0.411414 -0.083213 -0.518868 0.288724 -0.660775 -1.429508 1.366893 1.134821 0.807291 1.662937 0.706277 1.264049 -0.243742 -0.829931 -0.372740 1.297718 -1.245360 0.416468 0.447360 0.406043 -0.632369 0.257466 -0.295468 1.544453 -1.046706 -1.181328 0.908780 -0.756301 -0.817866 2.445100 0.455221 -0.344725 -1.409882 0.638920 -0.120034 1.026311 0.275100 -0.372278 -0.437857 -0.811470 1.698255 -0.793908 1.420177 -0.099428 0.348828 -0.220969 -0.714623 -0.122513 -0.082305 -0.757856 -0.869105 1.790574 0.717670 -0.960464 -1.260102 0.434441 0.240115 0.125719 -1.425277 0.791459 -0.237569 
基于 -0.199008 1.156720 0.317414 0.519638 -0.971861 0.316578 -0.758473 -1.172617 -0.134370 -0.311288 -0.736163 -0.547482 -0.436178 -0.345457 -0.686237 0.462878 0.940464 0.197228 -0.394478 0.347898 -0.499288 0.311160 0.349793 -0.403193 0.657616 -0.829060 -2.034426 0.624209 0.549294 0.503940 -1.172924 -1.236087 0.846390 -0.782963 0.647399 0.176860 -2.460483 0.640322 -0.739325 0.148869 0.443748 0.032646 0.775715 0.796820 2.064131 0.872939 -0.980047 -0.405286 -2.832928 -0.478291 0.382621 0.392857 0.637580 -0.298879 -0.943484 -1.011348 0.000335 0.793162 -1.114651 0.510286 -0.318728 -2.117334 -0.900992 -0.188571 -1.454535 1.636913 -1.239153 -0.330914 -0.199171 1.065630 -0.398279 -0.430008 -0.251684 0.875404 0.714670 0.740066 -0.197870 0.445754 1.269984 -0.936341 0.192008 0.231694 0.141383 -0.360762 0.921541 2.673673 1.248079 -0.098114 -0.006184 -0.062027 0.214350 -0.956008 -2.024364 0.658110 1.036526 0.944124 -1.183854 -2.030933 -0.769664 3.046329 0.099577 0.106694 0.160540 -1.586560 -0.727694 -0.909265 0.365953 0.643011 0.174165 -0.008136 -0.691989 -1.628894 -0.497219 -0.755797 -1.424215 1.191780 0.885035 0.186999 -0.575114 -0.387583 -1.011105 0.445706 -0.638990 0.009229 0.435696 0.301716 -1.236166 0.684460 1.345944 0.458216 1.080140 -0.339917 0.731992 1.110429 0.342622 -0.790315 0.784181 -1.159570 -1.886268 -0.026983 1.143776 0.906774 0.723155 -0.000312 -0.080575 0.303431 -0.149975 -0.917849 0.276598 -0.268256 -0.034731 -0.115452 -0.282733 0.387361 -0.053419 -0.986383 1.667981 -0.278298 -1.455258 -0.365017 0.074420 -1.575684 -0.128518 -0.338404 -1.428771 -0.326287 0.395747 0.682554 0.546645 -1.835774 -0.126896 0.496322 0.597768 0.724318 1.447032 -0.182312 0.604401 0.366923 0.485417 0.419069 -0.894908 0.828423 0.066798 1.281527 1.446198 0.453022 1.725970 1.413661 -1.167997 -0.004182 0.767494 0.358672 -0.858741 -0.619960 0.990490 0.158402 2.641849 0.244239 0.003745 -0.287504 
期望 -0.392985 0.265125 0.276596 -0.199682 1.636875 0.778877 0.722802 -0.605020 0.911505 1.148672 0.156857 -0.964897 -1.209790 0.132666 0.104411 0.281518 0.441639 0.106537 0.560229 -0.165051 -0.736838 0.253995 -0.375967 1.063883 0.312374 0.918058 -1.545667 -0.325096 -0.798411 0.283568 -0.656945 -0.855923 0.236232 -0.347198 1.012492 0.604922 0.140237 0.552746 -0.221256 -1.020394 0.428206 0.535156 0.164626 1.166332 -0.899145 0.072654 0.395435 0.078826 -0.336021 -0.285444 -0.123509 -0.375697 0.025300 0.758267 0.003695 -0.575130 -0.044907 1.541701 0.199992 -0.512938 0.324469 0.576401 -0.844450 0.733848 -0.671612 -0.228898 0.266763 0.503113 0.407924 0.436240 -0.332698 -1.486450 -0.702401 1.162543 0.375380 0.963758 -0.025349 0.137588 0.483543 -0.852220 -0.228487 0.714057 1.090449 -0.577510 0.289381 0.772817 0.059955 0.121883 0.905842 -0.852050 -0.242136 0.032801 -0.216794 -0.867685 0.008766 0.907119 0.380624 0.719973 -0.091697 0.462284 -0.251206 -0.274197 -0.051612 -0.502918 -0.635127 0.640233 -0.808223 0.221224 -0.432020 0.234790 0.236226 0.320067 -0.624701 0.625915 0.610440 0.238398 0.890633 -0.829349 -0.167345 1.524392 -0.162588 0.097442 -0.338716 -0.509752 -0.507965 0.900767 -0.800323 -0.212147 0.434085 0.189058 0.189671 -0.311193 0.044704 -0.497338 1.742341 0.481590 0.869091 -1.339084 -0.726534 0.788795 0.180543 -0.674884 1.076318 1.592072 0.608227 -0.010704 0.198125 -1.402567 -1.226623 0.223798 0.815578 -1.018036 0.236475 0.314162 -0.311490 0.573358 -0.570715 0.820296 -0.996201 -0.620065 -1.019190 -0.235354 -0.184773 0.249193 -0.363503 -1.076539 -0.636219 0.371723 0.053910 -0.247986 -0.016262 -0.013535 0.109831 1.418923 0.566075 0.186703 -0.157799 -0.042902 0.130355 -0.507828 -0.218447 -0.229991 0.393554 0.302124 -1.295642 0.959132 -0.638746 -0.566927 0.140825 -0.639319 0.415580 -0.493203 -0.058176 -0.500783 -0.398360 1.408596 0.520008 0.887496 -1.438436 -1.259911 
定向 0.600122 0.011567 0.282721 0.028340 -1.559362 -0.266450 -0.566396 0.537066 0.314408 -0.167241 2.066164 0.597668 0.808681 0.592282 0.448448 0.612137 -0.713358 0.161288 -0.102810 0.143544 0.379808 -0.125012 -0.534863 -0.995939 -0.284666 0.866627 -0.488954 0.222542 0.805444 -0.876180 0.649104 1.126559 1.122199 0.262572 -0.315200 0.741907 -0.807067 0.981038 1.094556 -0.465466 0.746250 0.186828 -0.970740 -1.160535 0.406433 -0.462062 0.679676 -1.844915 1.917792 0.095762 -1.084066 1.275707 -0.169525 -0.704036 1.547643 0.073934 -1.285782 0.073093 0.380694 0.770749 0.071966 -1.460292 -1.049967 -0.430708 0.026307 0.137669 -0.088227 0.135974 -0.256608 0.044055 -0.809280 -0.155123 -1.084100 -0.971554 -0.659525 -0.827841 0.234783 0.689268 -0.016139 -0.093602 0.867318 -0.082371 -0.172936 -0.866067 -1.855475 -0.751509 -0.501954 0.195661 0.515522 -1.620018 -1.239660 0.419846 0.498616 -0.326910 -0.143084 -0.527412 -0.902380 -0.520499 -0.333172 -1.704427 -0.391709 -0.506119 -0.351785 -1.191969 -0.276423 0.858547 -0.572591 0.279994 -0.198658 -0.046631 1.350844 -1.774878 1.779329 0.659316 0.475177 -0.253165 -0.834560 -0.094387 0.514983 0.073230 0.207006 -0.657392 0.560560 -0.537857 -1.633426 0.135264 1.352493 0.707832 -1.088019 -0.089760 -1.201195 1.052125 0.501462 -0.954872 0.722414 0.954626 -0.201089 1.046075 -2.302305 -1.044483 -1.230576 -0.450356 -0.043516 -0.271208 -1.235990 1.596244 0.590050 0.364814 -0.714150 0.746400 -0.026813 0.728882 -0.523139 1.053237 0.103018 -0.851326 0.226152 0.490253 -0.115218 0.714622 0.845831 1.064350 0.783657 -0.058039 1.281586 0.494592 -0.104925 -0.747142 0.369600 1.037901 -0.579295 0.736636 0.642147 0.112662 1.524953 0.259879 -0.391648 -0.338404 -0.283671 -1.076962 -2.647913 -0.257941 1.141634 -2.092351 -0.328757 -0.378534 -1.753248 -0.354092 0.041332 -0.857150 1.585270 1.111910 -0.734016 -1.702386 0.816215 0.769724 -0.166709 -0.345674 0.375384 -0.212072 
昏迷 -0.721380 -0.205088 0.577395 0.337940 1.231535 -0.151904 1.062901 0.540012 -0.263276 0.330361 -1.231427 0.670116 -1.799493 0.481700 0.126044 -0.122650 0.356070 0.956324 -0.128989 0.826054 1.166254 1.234796 -0.511592 0.251906 1.138477 0.379071 -1.833394 0.464546 -0.345614 -0.364652 -1.285945 0.621557 -1.871120 1.510774 0.192362 -2.327725 -0.018928 -0.353464 0.457120 0.978471 0.235936 -0.076195 -0.196702 0.686342 -0.220701 -0.817894 -0.606272 0.234890 -0.187157 -1.321253 0.421131 0.369559 -0.079571 -0.934991 0.154354 -1.000469 -0.531853 -0.556485 -1.344612 -1.086244 0.960607 -0.931775 0.691928 0.923949 -1.713537 -0.133834 -0.147091 0.718834 -0.814260 -1.817689 -0.381795 0.710144 -0.006091 0.777853 0.015203 -0.725368 0.314524 0.306529 1.293815 -0.471287 0.441935 0.589735 -0.060341 0.712383 -0.173572 -0.387474 -0.633710 0.631568 -0.615780 -0.080922 -1.023127 0.467453 -0.744459 -1.015505 -0.535757 1.246070 0.070914 0.555776 -0.312997 1.010882 0.793457 0.044594 0.253569 0.225343 -1.247415 -0.070350 -0.895395 -1.160031 0.035291 0.691645 -1.350475 0.080798 -0.696292 -0.139474 -1.863470 0.134260 0.909998 -0.831496 0.189546 -0.156957 0.332944 1.716742 -0.003666 0.753990 0.801017 -0.807492 -0.206637 -0.070929 0.335805 0.064984 0.060034 -0.382472 -0.939801 -0.862115 0.227728 -1.493670 0.538362 0.456874 0.402290 0.209219 0.194710 -0.076980 0.148149 0.105003 -1.807399 -0.609293 0.383785 -0.834830 -1.344203 0.246512 1.236259 -1.409260 -0.772034 -0.075446 -0.131199 0.595775 -0.360599 1.467962 0.374076 -0.020924 -0.294837 -0.874708 0.544836 0.004315 -0.167735 -0.038978 0.468779 0.124025 -0.690809 0.319130 -0.253001 0.100535 -0.012226 -1.199811 -0.832007 -0.593034 -1.141608 0.133314 -1.028633 0.449312 0.888756 -1.399295 -1.036340 0.527848 0.317580 1.041341 1.056479 -0.330504 -0.467311 0.335318 -0.358071 -0.485828 1.515328 0.610431 0.847921 0.525423 -1.083474 -1.047373 1.494458 -0.940712 
圆 0.448190 1.794742 0.203045 -0.496065 0.967863 -1.000533 0.685322 0.824941 0.333002 -0.826042 -0.195038 0.797388 -1.006847 0.035366 -0.152626 0.436780 0.240869 1.023977 0.962274 0.044387 -0.958504 -1.064327 1.088546 -0.722439 0.469875 0.780055 -1.796791 1.985432 0.437431 2.687427 -0.756617 1.672746 0.632934 -0.411473 -0.294543 -0.382092 0.720463 -0.493180 -1.016764 0.358093 1.259903 1.093193 -0.003902 -0.410302 -0.244651 -0.679380 0.085203 0.042702 -0.433119 -0.801096 -0.134009 0.198179 1.070349 1.756482 0.193803 -0.832902 -1.096613 -0.152107 0.241751 0.139206 2.371172 0.640249 -2.018926 0.584526 1.033043 0.094773 -0.175054 1.102679 0.271210 -0.065874 2.174928 -1.303676 -0.018321 0.520227 0.484767 -0.796494 -0.379671 -0.541813 -0.054524 0.366717 0.647448 -0.824895 -0.227236 -0.282196 1.352861 0.401818 -0.395848 1.959172 -1.126895 1.077801 -1.698320 0.130688 0.128878 -0.194901 -1.132115 -0.227402 0.076906 0.322354 0.473822 0.663869 0.417257 3.282071 -0.269776 -0.389372 0.194729 0.842485 -0.472797 -0.597352 0.713417 -0.222033 0.338051 0.226475 0.244203 0.396523 -0.624669 1.404731 1.299095 0.300048 -0.424169 -0.554709 0.030698 0.741649 -1.790936 3.638933 0.779684 1.064652 -0.332428 1.223883 -0.415620 0.237238 0.082765 -2.312735 0.775834 1.913683 -0.955744 -0.540071 -0.315269 -0.183833 0.267886 5.514890 -0.562823 -0.739911 -0.830143 0.127814 1.458142 -0.923020 0.590552 -0.981962 -0.566413 -1.882468 0.298377 -0.375942 -0.764621 -3.752281 -1.262294 0.436407 0.088281 0.237309 1.588072 0.883451 -1.197263 0.604085 -0.691819 1.288894 -0.697852 0.652656 1.828587 1.153160 1.997901 0.264001 0.649673 -0.044090 -0.128954 0.613043 -1.150644 -1.765921 0.797926 -1.457465 0.731116 -1.454485 1.591931 -1.429899 -0.515465 0.612929 0.772588 2.411539 -0.320910 0.845990 0.521163 0.018757 -0.213326 0.198664 0.434381 0.257325 -0.024438 -0.964459 -0.536429 -0.645050 0.334225 -1.870252 
流浪 0.163920 -0.889320 1.182521 -0.931874 -1.361037 1.657449 -0.634398 -0.764655 0.494415 1.099592 0.205927 -0.671653 0.773058 -0.535467 0.245484 -0.058321 -0.602844 0.442859 0.089038 1.798621 -0.768228 -0.906869 0.055668 -1.391823 0.048444 0.964469 -0.764380 0.825528 -0.765024 -1.029305 -0.759881 0.691558 0.277767 1.077452 0.022004 0.345054 0.406498 0.765477 0.559488 -1.015144 -0.316759 1.215361 -1.227798 -0.686240 -0.247403 0.417461 0.543447 -0.377294 0.597190 0.293085 -1.247494 0.990951 -0.188519 0.993921 0.607232 1.424421 0.566295 0.909101 0.843244 0.530240 -0.885358 -1.195454 0.082425 -0.154455 1.464275 -0.142920 -1.290201 0.285596 1.039238 1.413658 -0.273564 0.460603 -0.064955 -1.752327 -1.037683 -0.911742 0.450896 -2.487663 -1.196055 -0.107022 -0.139696 0.467047 0.205627 0.315397 0.488705 -0.819105 -0.061656 -0.798188 -1.060545 0.110050 -0.864929 -0.360217 -0.903950 -0.810603 0.610309 0.116697 -0.878892 0.328613 0.633334 0.346452 -1.047231 0.414090 -0.265183 0.197768 -0.230806 2.166829 -0.477862 1.391033 -0.844818 0.510864 1.116721 -1.938577 0.075000 -0.028158 0.143766 0.040700 0.080361 1.312971 -0.019941 0.532113 -0.443320 0.176585 0.363994 -0.662383 -0.621612 -0.075195 0.190904 0.211285 0.496076 -0.355231 -0.771073 -0.241655 1.255195 -0.486970 -0.758026 -0.192181 1.222267 -0.249340 -0.439871 -0.910527 0.141391 -0.960357 -1.246292 -0.569406 0.572411 -0.855279 -0.207460 -0.991905 -0.623436 -0.086303 0.290071 0.091183 -0.931878 0.381371 -0.132387 -1.271088 -0.847376 0.223260 -1.025141 0.988761 -1.912021 0.737921 0.574934 1.101491 1.037180 -0.865631 1.022799 -0.227637 -0.521604 -0.100205 0.517454 1.089484 0.404495 -0.764988 1.715286 -0.551251 0.147982 -1.397730 0.206022 -1.944525 -0.797989 -0.050085 -0.617840 -0.060446 0.213639 -0.416151 -0.392587 -0.764593 1.660786 0.750191 -0.795515 1.081587 0.614343 -0.827278 0.494052 0.834578 0.824008 0.228012 0.326183 -0.691808 
纷乱 -1.847062 -1.025719 -0.503578 -0.700546 0.950214 -0.409704 -0.236764 1.142835 -0.155308 0.119603 1.243827 -0.591399 -0.595183 0.560276 0.416014 0.326271 0.026476 0.422934 -0.363363 0.090925 -0.006507 0.833124 -0.824366 -0.404635 0.233259 0.803683 -0.568282 0.169893 -1.157862 -0.861619 -2.165814 0.389232 0.365124 1.006994 0.374734 -0.254900 0.245672 0.045670 0.346431 0.592483 -1.357703 0.973601 -1.411226 -0.664041 0.779352 -0.578279 0.893659 0.297425 -0.002588 -2.498814 0.121026 0.432874 1.479269 0.325502 0.441350 0.079485 -1.547273 0.517858 -0.248636 0.233298 0.771987 0.811645 1.595083 1.594871 -0.360051 0.029326 0.145553 -0.048024 -0.360113 -1.560024 1.321236 0.434015 -0.561149 0.406158 -0.811469 -1.459548 -0.640245 -0.121900 0.121324 -0.588154 0.182251 -0.252789 -0.798491 -1.300805 -0.366353 0.288388 0.404574 1.137837 0.477563 -0.732572 -1.104665 0.122384 -1.150979 -1.122756 -1.036584 0.429395 -0.213533 0.416846 -0.046213 0.093729 0.014863 0.996401 -0.646645 -0.536086 -0.843535 -0.155707 -0.997288 -0.242689 1.419556 -1.283017 -0.872552 -0.333662 -1.607344 -0.466397 0.473033 0.177895 1.172090 0.155586 -0.338366 -0.200932 0.284689 1.933844 0.434339 -0.229293 -0.264895 0.615943 -0.002937 0.372373 -0.325894 0.224236 -0.301186 -0.236610 -0.694196 -0.606438 -0.952685 0.028462 0.433307 0.977091 0.817164 0.845182 -1.275236 -1.209459 -0.035859 0.637683 0.569787 -0.095999 1.352406 -2.136928 -0.656837 -0.961170 1.836323 -1.092106 -0.557833 -0.015397 -1.711825 0.271181 -0.471009 0.949412 1.063323 0.695915 -0.418755 1.227386 0.251786 0.105234 -0.024112 0.261881 1.171107 0.172446 -1.161332 0.732844 0.500700 0.770271 -0.155169 -0.616771 0.863102 -0.646819 0.565559 0.540392 0.293205 -0.563461 0.240801 0.576113 0.106824 -1.037442 0.103234 0.144537 -0.262166 -0.408296 0.463359 -0.097182 -0.023779 0.186533 1.215409 -0.670969 0.585944 -0.604850 -0.168616 -1.648143 1.146683 -2.520524 
特定 -1.107946 -0.400154 0.550968 2.172411 -0.265052 0.326313 -1.056310 0.642177 -0.116036 -0.855825 -0.729477 -0.230572 0.782386 -0.816380 -0.608948 -0.026343 -0.491251 -0.264082 -0.056948 0.539852 0.082958 0.071847 -0.113448 -0.134651 -1.424968 -0.474531 0.647085 0.467038 0.779197 -0.030293 0.783086 0.305227 0.685451 -0.206610 -0.225467 0.023287 -0.629992 0.244401 -0.082553 -0.512436 -1.193949 -0.888081 -0.706170 -0.304388 0.332324 1.123313 -0.107637 0.005458 -0.054246 -0.793279 0.254512 1.291702 0.093889 -0.019977 1.105484 0.258866 0.401577 -0.784668 -1.216029 0.257932 -0.313041 -1.747754 0.890337 0.570337 -0.426154 -0.609080 -1.816510 -0.245743 0.457659 -0.356487 0.807108 1.201337 -0.242750 -0.854870 0.288932 -0.845032 0.727390 0.132242 -0.104880 1.132154 0.634650 -0.044670 0.237519 0.452939 0.171250 0.021274 1.196273 0.133881 -0.561845 0.098238 0.611160 0.107108 -1.384667 0.082844 0.670383 -0.624929 -0.888754 -0.979095 1.041208 -0.017732 -0.722472 0.341952 0.614645 -0.395271 0.656290 -0.272572 0.825536 0.795464 -0.406213 -0.330765 -0.206345 -0.074461 0.288495 -0.751720 1.222282 -0.213918 -0.258022 0.760065 1.056001 -0.229018 -0.822640 1.088719 0.372198 0.986121 -0.572058 -0.174933 1.049143 -0.193416 0.247440 0.274930 -0.291023 0.661054 -0.290359 0.392407 -0.974624 0.639807 -0.282865 0.424447 -0.006511 -0.033235 -0.020847 0.460326 -0.289834 -0.837420 0.453077 -0.455298 -1.080125 0.897646 0.262734 -0.008105 -0.110796 -1.163103 -0.706908 1.321790 -0.424849 -0.597217 0.397290 -0.590982 0.764030 0.346182 0.643137 -0.394552 -0.307087 0.366161 -0.614613 0.111530 0.633109 -0.415963 -0.791605 0.806114 -0.009788 1.396566 0.439128 0.392491 0.884389 -1.126356 -1.336585 0.866778 -0.721026 0.121184 0.476769 -0.358707 0.738114 1.200394 0.719472 0.121971 1.071904 0.412671 0.284466 0.246894 -0.180085 1.122370 -0.096613 -0.277202 0.035762 -0.130503 -1.019395 0.235810 0.743698 0.725202 
死 3.238678 -0.231476 0.255483 0.368270 0.767594 -0.251249 0.593496 -0.405096 0.323899 -0.794840 -0.157844 0.819958 -0.625827 0.266799 -0.020922 -0.255492 0.300247 0.578509 0.493207 0.855470 0.282440 0.644759 0.213061 -1.809496 0.417098 0.421527 -0.913252 0.360080 -0.179538 -0.514781 -0.598228 0.188720 -0.466458 1.254318 -0.357037 -1.213367 -0.276244 -0.248905 0.016115 0.441251 0.333365 0.090605 -0.500320 -0.710429 -0.554271 -1.734733 -0.307744 -0.426470 -0.918311 -0.079081 0.528825 0.673730 0.190877 -0.676916 0.130895 -1.331050 -0.812063 -1.050986 -0.321064 -0.503107 0.856291 -0.593172 0.254315 0.059336 -0.212692 0.225615 -1.126974 0.217672 -0.201691 -0.210802 -0.691234 -0.086422 0.536644 0.656203 -0.529298 -1.458351 0.143655 0.422340 -0.006104 0.816152 -0.166260 0.278920 0.521051 0.965002 0.222690 0.005001 -0.906500 0.936390 -1.013864 0.293578 -0.562028 -0.484764 -0.955258 -0.727389 0.078670 0.613425 0.149851 -0.000871 0.767865 1.197465 0.950600 0.149180 0.138798 0.237050 -0.640750 0.535175 -0.903468 0.456345 -0.307643 0.206431 -0.037019 -0.549870 -0.003091 -0.062866 -0.429472 0.471649 -0.369276 -0.785265 -0.627198 0.822969 -0.880230 0.615254 0.246211 -0.022610 0.937764 -0.848101 -0.156823 -0.306246 -0.222713 -0.084275 0.572736 -1.081957 0.179629 0.467420 -1.069398 -1.425321 0.081581 -0.130273 -0.532424 0.823880 -0.126705 0.549809 -0.929847 0.418515 0.337107 -1.148273 -0.394246 -0.539891 -0.554076 -0.747369 -0.728238 -0.108161 -0.437366 -0.055026 0.110216 0.444382 -0.160511 -0.002218 -0.381626 0.711385 -0.186691 -0.418539 -0.397380 0.283859 -0.338547 -1.020849 0.987970 0.890440 -0.938913 -0.901793 0.287149 0.158707 0.249212 -0.629167 0.516354 -0.410709 0.006416 -0.536671 0.398366 -0.491042 0.550134 -0.465680 -1.281955 0.388475 0.206196 4.253973 0.266763 0.629586 -0.026923 0.114984 -0.174661 0.854769 0.486904 0.949420 0.391726 -1.480824 0.230039 -0.128604 0.211043 -0.319073 
歹 -0.521676 -0.734281 0.056270 0.513505 -0.271717 -0.621794 1.074550 0.631393 -0.975173 0.074147 0.972639 -0.434880 -0.922204 0.134372 1.294574 -0.810927 0.601590 0.239693 -0.565352 -1.174900 -1.187244 -0.527502 -0.122313 0.300256 0.952590 0.402361 -0.374752 0.273348 -0.201768 0.951421 0.482128 -0.026710 -0.161297 0.236364 0.677916 -0.186220 0.885760 -0.711460 0.936916 1.374540 -0.293861 0.245788 1.122954 0.345558 -0.891549 -0.822056 -1.142256 -0.037414 0.179361 -0.706003 -1.685926 -0.925010 -1.214955 -0.222809 2.156519 0.427738 0.313273 -0.650385 -0.242313 0.475295 1.007700 0.589030 -0.367540 1.455043 0.333034 0.452708 -0.317430 0.944537 1.432638 -0.631125 0.112198 1.161578 -0.320929 0.636492 1.159741 -0.443364 -0.014059 0.410556 0.635046 -0.512981 0.580925 -0.814739 0.539910 -0.815593 1.207194 -0.185329 -0.795429 -0.232459 -0.117462 -1.045289 -0.883109 0.225596 1.381465 -0.457362 -0.765065 0.123392 0.514485 -0.115927 0.667229 0.188368 0.106475 1.584715 0.435804 0.852703 0.881012 -0.014397 -0.212949 -0.377582 0.436580 -0.525680 -0.208615 0.911054 -0.643597 -0.536237 0.561435 0.945913 -0.162358 0.291797 -1.217360 0.574758 0.207353 0.913986 -0.617315 0.223336 0.760273 0.231046 1.711804 0.416662 -0.226269 0.801925 -0.056493 1.143449 -0.253158 -1.034050 -0.201617 1.282846 0.092350 -0.007473 0.496242 0.682175 -0.572729 0.137772 0.951051 0.953586 1.328130 -1.058076 0.659198 0.059369 -0.849544 -0.358873 -0.787527 -1.098012 -0.452787 0.736661 -0.051718 1.139846 0.110160 0.349302 1.033653 -0.735667 2.473101 -0.730522 -1.115309 0.794939 -0.219192 -0.078990 -0.832641 0.228472 -0.831421 0.641271 0.009572 -0.250235 1.188763 0.198471 -0.868825 1.166408 1.221013 -0.829623 -0.284783 -0.517773 0.841174 0.756301 0.842706 -0.066387 -1.047162 0.339412 0.040977 0.174886 0.299329 -0.442319 -0.706843 0.715636 1.330157 -0.640350 -0.494178 -0.243442 -0.539659 0.535105 -0.345554 -0.384645 
合理 -0.459418 -0.416661 -0.472126 1.501144 1.016164 -1.161136 0.155239 1.976101 0.399706 0.789649 -0.284831 0.713164 -1.348663 -0.796632 -0.246597 -0.394193 -1.955984 -0.014444 0.977973 -1.342761 0.058021 -0.475082 0.013783 2.286486 -0.013880 0.619516 -0.001830 1.767360 1.753284 0.556351 1.442715 -0.217142 -0.570601 -0.858346 0.683475 -0.482630 -0.362847 1.134944 0.010149 1.698628 0.212950 -0.716101 0.148441 -0.643452 0.273721 -0.172294 0.325419 -1.397824 -0.085519 -1.223859 0.377594 -0.545883 -1.488979 0.250651 -1.433406 -1.120172 0.414460 -1.297193 0.898992 0.724091 0.404171 0.910019 0.280188 0.675052 0.525316 1.527850 -0.636067 -0.873407 -0.274692 0.461410 -0.357623 -0.129203 0.657845 0.717823 0.658529 0.873698 0.713984 0.925043 0.170729 -0.398909 0.445511 2.124807 0.129449 0.776215 0.388611 1.325688 -0.209128 1.563958 0.454036 -1.067080 1.323653 -0.330563 0.914411 -0.166092 0.276663 -1.397645 0.269701 0.264097 -0.116162 0.577854 0.236755 -0.565261 -0.951957 0.613193 -0.888528 0.583476 -0.494928 -0.052552 0.582820 -0.690223 -0.197714 0.764917 0.583155 -1.135896 1.802716 0.154425 1.374098 -1.289229 0.011335 1.152515 -0.741820 0.158927 -1.971732 1.087323 0.466856 -0.301297 0.276988 0.328918 0.455697 0.558276 -2.510710 0.704219 0.529119 0.265536 0.757648 -0.105761 -0.461624 0.038199 0.660048 -0.215769 -0.145196 0.358319 0.095335 0.842332 -0.831835 0.725377 -0.339928 0.500441 2.256165 0.551289 -0.890904 -1.887449 -0.415697 1.177027 -0.054060 -0.078135 0.450973 -0.084261 0.487816 -1.063309 1.871075 -1.042052 1.982467 -0.858870 -0.906868 0.122896 -1.744854 -1.067197 0.465319 0.462089 -0.244534 0.092684 0.165117 0.134569 0.097587 -0.186938 -1.123132 0.466203 -0.393246 0.808387 0.586700 0.930704 0.826600 1.787339 -0.961417 0.066339 -0.281466 0.201455 -1.740199 -0.913398 0.128564 0.735811 -1.505320 -0.627865 -0.270038 -0.485626 -1.075511 -0.827929 -0.525736 -0.389156 
难看 -0.122198 -0.377265 -1.938860 -0.218648 -1.261705 -0.298363 -0.372781 1.002277 1.189520 -0.170389 1.734201 1.005431 0.488643 0.238834 -0.254066 -1.046568 -0.062593 -0.449375 1.061692 0.107017 0.089213 -0.232602 -0.319227 -1.221732 -0.199318 -0.416354 -1.461292 -0.476480 -0.089920 0.418411 -0.738845 -0.298013 1.010272 0.643413 1.060857 1.192952 -0.638118 -0.161769 1.454740 0.754091 0.469641 -1.090621 -1.816615 0.367016 1.527815 -1.061079 0.757322 -0.335434 -0.408968 0.678401 -0.724141 1.610760 0.906146 -1.567017 -0.667477 -0.600326 -0.969373 0.579799 0.420407 0.873024 -0.093066 -1.198095 -1.008404 -0.111481 0.516197 1.334735 -2.010333 -0.059267 1.298048 -0.545763 -0.335638 0.018098 -0.640636 -0.400719 -1.206799 -1.255795 0.637643 -1.185782 -1.858406 0.247705 0.380767 0.198441 -0.554232 -0.071439 -0.637496 -0.256159 -0.238585 0.654393 0.323287 1.150664 -0.245958 -0.990084 0.135696 -0.378633 0.716979 0.396373 0.490803 1.238146 -0.115859 0.665451 0.553673 0.240166 0.765721 0.185868 0.142276 1.332718 -0.620825 0.911546 -0.292005 -1.346751 1.308118 -1.512676 -0.762978 0.134328 1.104144 -0.864969 -0.230022 -0.078406 -0.585990 0.289034 -0.829361 0.021518 0.953047 -0.693297 -0.071301 -1.083070 2.294647 0.103941 -1.291068 0.345711 -0.646233 2.181921 -0.125560 -0.362356 -0.080903 -0.585285 -0.376110 0.096881 -0.480666 0.906652 -0.835445 0.252413 0.179831 1.460970 1.277763 0.861552 0.828188 -0.869845 0.690151 0.194553 -0.729474 -0.154289 -0.768711 -0.169660 -0.567534 -0.073119 0.401804 -0.404252 -0.328344 -0.457978 -0.557405 -1.115183 1.158014 0.379111 1.050610 -1.337777 0.535766 0.485135 0.515092 -1.085313 0.622131 1.134433 0.264529 -0.755721 1.155248 0.555534 0.228389 0.882363 1.596889 -0.476147 -0.903403 0.306617 -0.909986 -1.624542 -0.909799 -1.064750 0.544449 0.917346 -1.358575 0.309234 -0.427914 1.743197 0.988057 -0.504574 -0.339710 -0.268479 0.049598 -1.137990 0.283784 -0.137876 
飞行器 0.554947 0.727442 -0.284795 0.255991 -0.649916 -0.269742 -1.064277 -0.537776 0.455099 -0.750373 -0.052263 -0.671115 0.708906 -0.070476 -0.333420 -0.025810 0.075916 -0.583547 -0.127959 -0.745476 -0.483154 -0.351521 0.522719 -0.099856 -0.221164 -0.673180 0.657713 -0.203786 0.674601 0.563408 1.122028 -0.514059 0.942013 -1.531695 -0.695305 0.637291 0.257874 0.638662 0.449289 -0.346388 -0.065760 -0.168685 -0.166748 0.798765 0.008436 0.541102 0.261037 0.505475 -0.235659 0.567751 -0.741362 0.158943 -0.549308 1.465548 -0.627494 0.816950 0.827075 0.728273 1.611104 0.936300 0.114448 -0.700594 -0.716567 0.069165 0.902438 -0.346084 0.376011 0.058179 1.023234 -0.067418 1.215902 0.470075 -0.230960 -0.569483 0.040737 0.169254 -0.277091 -0.878006 0.112479 -0.098570 0.923536 0.457117 -0.528504 0.592086 -0.063151 0.582606 0.038496 -0.340479 0.164879 -0.615077 0.111002 -0.611654 0.726899 0.876114 0.393550 -0.369327 -0.710453 -0.686865 -0.251964 -0.544537 -0.782663 0.634187 -0.925949 0.338722 0.785411 0.902803 0.166886 0.794281 0.240025 -0.668672 1.849846 -0.108374 0.789218 0.120453 1.382888 0.064965 0.457068 0.439927 0.272598 -0.469011 -0.841897 -1.671977 -0.483032 0.068800 -1.279598 0.135489 0.277388 0.336170 -0.271401 0.180210 -0.631248 0.423274 0.655350 0.374683 0.730983 2.009572 -0.609248 -0.210815 -0.325517 -0.914512 -0.266760 0.327738 1.225269 0.010222 0.309269 0.027541 -0.404593 -0.498262 0.794948 -1.061969 -1.303710 0.828788 -0.105669 0.792039 0.024751 0.549885 0.388653 -1.777348 0.127447 -0.573138 0.522004 0.558875 0.230783 0.828537 0.658440 0.053383 -0.328861 -0.580539 0.419423 1.058564 -0.725822 0.420391 -1.349127 0.832516 -0.470605 0.156729 1.033093 -0.483317 0.132238 0.344913 -0.903024 0.671749 1.449109 -0.234707 -0.175146 -1.030306 -0.951757 0.063779 0.547465 -0.822335 -0.434423 -0.836938 -1.481031 -0.949094 -1.209759 0.238468 0.312399 0.502678 -0.464822 0.332517 
歪 -0.306637 -0.713831 0.359109 1.363170 0.428598 -0.972176 1.696636 0.504442 1.076355 1.580375 0.969741 0.044891 -2.702731 0.561604 -0.208766 -0.555902 -1.302420 0.225877 0.188599 -1.277934 1.464584 1.441018 -0.237794 0.637607 -0.530343 0.152548 -0.838321 1.135105 0.484552 -0.240182 0.333818 -0.269547 -0.718678 0.244645 0.197854 -0.864628 -0.291008 -0.532830 -0.682984 1.155349 -0.427394 -1.493856 0.765446 -1.405270 -0.831758 -1.659122 -0.800754 -0.091881 0.677476 -1.776886 -0.604455 -1.169053 -0.392729 0.202796 0.920587 -1.630376 -0.472275 -0.138199 -0.249351 -0.480484 0.112630 1.040555 0.047687 1.972095 -0.751655 0.625490 0.475381 1.440207 1.271586 -1.816902 -0.480788 -0.244769 0.225966 1.375189 0.482391 -0.133195 -0.060911 0.747522 -0.738543 -0.153777 0.720624 0.383620 -0.987629 -0.688042 -0.991641 0.320031 -0.865813 0.537792 1.023088 0.170243 -0.549091 0.975733 0.825372 0.009380 -0.706055 -1.211440 0.141594 1.015073 -0.395843 -0.295109 0.598201 -0.991850 0.149786 0.955987 -1.142667 0.421047 0.279404 0.506953 0.189513 0.835209 -0.843379 0.205194 -0.429107 0.494436 -0.400717 0.735623 0.263302 -1.648592 -1.661000 1.014785 -0.021020 0.040931 0.508164 0.410617 0.568745 -1.092794 0.496675 -0.004141 0.751817 1.893779 -0.627244 0.438394 -0.393828 -1.247123 -0.300317 0.094658 -0.613882 0.026932 -0.302910 -0.268198 -0.614658 0.395615 -0.029638 1.832119 -0.290034 -0.021935 0.388372 -0.776973 -0.130448 0.792804 0.419100 -1.845965 -0.075169 0.820141 -0.713434 0.717712 0.185157 1.790796 0.748221 -1.328152 0.457772 -0.295936 1.011223 0.194669 0.253622 -0.475162 -0.514795 -0.465264 -0.523406 0.542310 0.007962 -0.018499 1.657563 -1.088162 -0.192561 1.269955 -0.782442 -0.328175 -0.127485 -1.387447 0.470599 -1.232312 -0.306732 -0.876576 -1.040594 0.840997 -0.058731 0.858269 0.000286 -0.093994 0.435792 0.389310 1.108634 0.639029 -0.458762 -0.680122 0.472358 -0.984678 -0.855728 -0.472930 
思想 -0.422155 -0.760355 1.102899 -0.383321 0.483978 -0.667055 0.674546 0.642971 0.004638 0.280026 -0.129345 0.658624 -0.224662 -0.011318 1.610158 -0.601510 1.150528 0.038534 0.311392 -0.042418 0.242389 -0.182714 -0.388126 0.333529 2.510881 0.053241 -0.303504 1.159118 -0.440396 -1.009669 -0.958847 -0.645297 -0.203812 1.351328 0.756636 -0.870596 -0.128153 0.038460 0.455328 0.655869 0.743432 0.017747 0.165186 -0.569912 -0.518119 -1.232406 -0.013698 -0.578125 -0.356805 -0.412979 -0.108840 -0.705288 -0.021245 -1.943236 0.299194 -0.958973 -0.657361 -0.847306 -0.499742 -0.633873 0.139480 0.698445 0.937598 0.633660 0.138244 0.814288 -0.852251 0.604214 -1.113287 0.637607 -0.212832 0.308249 0.314220 0.413905 -0.130061 0.064450 -0.059770 0.560045 0.173348 -1.277344 -0.522408 0.042489 -0.030774 -0.664181 -0.607387 0.357744 -0.864967 0.027451 -0.172931 -0.304676 -0.414220 -0.122633 0.197527 -0.967318 -0.953944 1.082372 1.226415 0.993240 1.006508 1.421625 0.591691 1.101621 0.015041 0.115537 -0.513512 0.722420 -0.056474 -0.542928 0.005215 0.957723 -0.584186 -0.833121 -0.962847 0.071346 -0.633947 1.111120 -1.119759 -0.371296 -0.284791 1.193610 0.965597 0.943745 -0.089969 -0.769018 1.719274 0.447215 -0.055016 0.902222 0.415619 -0.664990 -0.094580 -0.296887 0.221749 0.069365 0.040727 -2.052898 0.305683 -0.259550 0.218583 0.772214 -0.324609 -0.113226 0.128559 0.615996 0.363144 -0.261487 1.336981 -0.406651 -1.054903 0.198754 0.371156 0.146948 -1.064112 -0.473731 0.018401 -0.040745 -1.053361 2.005576 -0.446488 0.151445 -0.169457 -0.365211 0.072564 -0.174432 -0.120380 0.516666 0.250283 0.424606 0.357188 -0.647276 0.253574 -1.316794 0.492247 -0.764078 -0.910238 -0.958897 0.476494 -0.327019 0.566856 -0.561986 1.338411 0.553360 -0.799121 0.379046 -0.325729 0.396156 0.435865 -0.130476 -0.330429 -0.549560 -1.032526 0.926476 1.564634 0.306150 0.573943 -0.147096 0.184608 -1.257200 -0.565190 -1.160616 
废物 0.361664 -0.078962 -0.943873 0.170830 0.143430 0.492460 -0.797752 -0.549534 -0.163629 -1.163574 -0.089306 -1.415450 1.690890 0.038704 -1.445306 -0.512099 -0.133277 -1.967500 0.192793 -0.624729 0.469670 0.230517 1.134307 0.296356 -0.628770 -0.836997 0.799026 -0.357477 1.016773 1.321807 -0.236766 -0.331266 0.420557 -1.621517 -1.151895 0.596569 -0.833021 0.443935 -0.101570 0.536918 0.531242 -0.614963 0.123321 0.682341 -0.523497 0.827494 -0.495371 0.071202 -1.521495 1.119863 1.416018 0.126355 0.255311 0.220994 -1.648811 0.209197 -0.001481 0.384943 0.726795 1.336121 0.050946 0.216731 -0.763093 -0.172369 -0.712772 -0.526238 0.433999 -0.967712 -0.554893 0.291892 -0.315108 -0.086666 0.335018 -0.769239 -0.060210 0.588946 -0.668692 0.414207 0.743357 0.518062 0.125530 0.515157 -0.635756 -0.044221 0.373398 0.027329 1.310249 0.114294 -0.182678 0.740011 1.148517 0.226293 -0.139450 1.188274 -0.252048 -0.692428 -0.373229 -0.695650 0.217858 -0.660621 -0.428332 -0.866703 0.645034 -0.122487 0.544161 -1.774040 0.733417 1.726186 -0.345946 -0.486747 -0.872850 -0.490851 0.481737 -0.505220 -0.079895 0.487545 0.112261 0.476739 1.084976 -0.541400 -0.469560 -0.831409 -0.167870 0.072690 -0.484794 0.924088 -1.034468 -0.384393 -0.115291 -0.432807 -1.199897 1.299446 0.273500 0.613904 -0.302223 0.218463 0.698880 -0.889574 -0.035571 -1.067952 -0.531576 1.449497 -0.437099 -1.469597 0.372338 0.252596 -0.684314 1.102299 1.446745 0.035439 -0.272698 0.397843 0.200051 -0.216580 0.305267 0.227359 0.358023 -1.014646 -1.141185 0.259044 -0.321194 -0.203029 -0.965779 0.331847 -0.027582 0.471205 -0.372734 -1.133330 1.318484 -1.043943 -0.667191 0.471158 -0.647879 0.804119 0.766984 0.058860 0.102277 0.471292 0.395181 1.395071 0.125670 0.925698 -0.125446 -0.016176 0.519805 -0.218090 0.398193 0.352259 -1.011475 0.676874 0.136220 -1.783791 0.006561 0.301980 -0.690046 0.059933 0.280121 -0.530366 -0.066215 0.122603 
正 0.087611 0.908390 0.444245 -1.821383 -0.175672 0.388694 -0.462943 0.373796 -0.901269 0.042876 -0.481458 0.511515 2.238701 -0.435300 -0.672511 -0.566651 -0.165618 -0.461064 -0.638253 1.733346 -0.195874 -0.838749 0.629277 0.186450 -0.479533 -0.254577 0.182135 -1.163620 -1.473034 -1.176996 0.432889 0.636651 0.567815 0.653379 -0.075390 1.353699 1.057622 -0.237487 -0.215884 -2.594656 0.009464 1.538387 -2.178715 0.492807 1.381856 2.478651 1.222889 -0.808863 -1.485564 0.643841 -0.649759 0.995703 0.266449 0.926601 -0.859064 1.737308 0.819391 1.378068 1.278871 0.711578 0.102668 1.047197 -0.729032 -0.373651 1.147551 0.244501 -0.076724 -0.785363 -1.340924 1.393415 0.356076 -1.267522 0.667677 -1.700925 -0.685199 -1.195432 0.442442 -0.636945 -0.383438 -1.177604 -2.008334 -0.161326 -0.972340 1.174775 -0.657636 -0.293230 -0.020423 0.066653 0.129501 0.223014 -0.939903 -0.178336 0.421966 0.254893 -0.358259 -0.675170 0.992225 0.713917 1.122807 -0.756978 -0.282419 0.238201 -0.856233 -0.844493 0.609911 1.500587 -0.005806 -0.306098 -1.165971 0.594377 0.746280 -0.413704 0.867650 0.804191 -0.137213 -0.802727 0.782699 0.721525 0.254198 -0.784914 -0.002747 -0.973393 -0.130188 -2.144445 -1.873131 0.497030 0.154549 0.539884 -0.487534 -1.579245 -1.057719 -0.721396 -0.554865 -0.044982 0.117771 -0.873630 -0.389734 0.265388 -0.605896 -0.423397 0.177664 -0.761311 -0.623396 0.581167 0.997438 1.249480 -0.186933 1.451905 0.179734 0.699890 -0.480958 0.154011 0.079285 0.049467 -0.098847 -0.491353 -0.829611 -0.692662 -1.367107 -0.477325 -2.227123 0.828725 0.048152 0.473617 0.432166 -0.333236 -0.363224 -0.904247 -0.027540 -1.094978 0.665104 -0.233174 -1.219465 0.669053 0.324887 -0.789682 0.126181 -0.841653 1.951836 -0.311857 -0.782522 -0.135020 0.370286 0.253147 1.692597 -0.497904 -0.021305 0.071136 0.055446 -1.168081 -1.186860 -1.516032 -0.934840 -2.055140 0.726281 1.248899 0.846504 0.652335 0.101130 -0.017886 
记录 0.060291 -0.864027 -0.531369 0.242226 -1.117687 -0.658723 -0.188342 -0.051115 0.748526 0.302798 0.509286 0.033064 0.085007 -0.232214 0.881462 -0.187772 -0.160993 0.411498 -0.210803 0.191066 0.270033 -0.499125 -1.131877 -0.257097 -0.186796 0.014944 -0.672078 0.413508 0.115258 -0.161151 0.236201 -0.687527 1.300641 0.755892 -0.129210 -0.052087 0.019645 0.675541 -0.109049 -0.081179 -0.530646 -0.958552 -0.606740 0.081784 0.409052 0.729842 0.520285 -0.941782 0.152469 -0.005920 -2.073696 0.421994 -0.685992 -0.133426 0.271867 1.253024 -0.114026 -0.738350 -0.188593 -0.572169 -0.580497 -2.302562 0.961298 0.199112 0.077750 0.542727 -2.079795 -0.326106 1.198384 0.133613 0.299562 1.132598 -0.530488 -0.919107 0.337887 -0.903242 -0.165518 -1.068102 -0.949335 -0.212560 0.387245 0.942492 0.228948 -0.413163 -0.034452 0.488585 0.310981 -0.924533 -0.350922 0.852315 0.333334 -1.483789 0.455726 -0.334982 0.441937 0.408535 -0.673032 0.117851 0.533477 0.629679 0.695110 0.658627 -0.269875 0.983221 -0.809488 1.090888 0.205080 1.269130 -0.462092 0.264324 0.560791 -1.297128 -0.707106 -0.582640 1.665191 -0.915570 -0.506512 0.936565 0.253754 0.905257 -0.355319 0.262217 -0.710634 0.348370 0.222374 -0.920268 1.652595 0.199324 0.413505 0.576676 -0.791038 1.193999 0.576328 -0.128942 -0.454305 -0.020011 -0.034465 0.407800 -0.136217 1.093112 -0.096649 0.427842 -0.410688 0.172606 0.906651 0.280868 0.098925 -1.030357 -0.197262 -0.233777 -0.610130 -0.253019 -1.744647 -0.046703 -0.674640 -1.478979 0.193735 0.010989 -0.272136 -0.176543 0.530645 -0.487420 1.258032 0.171877 0.314908 -0.734984 -0.783876 -0.181416 -0.205069 -0.206536 0.225840 0.492252 0.181274 -0.960942 0.649507 -0.035562 -0.592615 0.023216 -0.232448 -1.461059 -0.409416 0.268680 0.703327 -0.521749 -0.325066 -0.739688 0.467390 0.016139 0.187964 0.315638 -0.188196 1.108994 0.285218 -1.673855 0.589277 0.284059 1.128360 -0.022481 0.009747 0.421220 
停做 -0.559276 -0.962260 -0.718284 -0.565108 -0.163289 0.454428 -0.479887 0.046417 -0.390597 0.142015 0.259576 0.488949 1.047779 -0.618318 -0.445260 -0.398407 -0.067900 -2.527168 0.076976 0.021428 -0.804808 -0.073874 0.420718 0.659034 -1.087091 -1.352462 0.832652 -1.286023 -0.279573 -0.182992 0.282876 0.007127 0.115207 -0.440759 -0.005375 0.789339 -0.040116 -0.237283 0.228795 -0.198066 -0.806178 -0.259895 0.040626 1.054136 0.030804 2.409126 0.098210 -0.645509 -0.023961 0.644968 0.249680 0.464530 0.359650 0.012585 -0.047172 1.483312 0.180060 0.526165 -0.433697 0.290376 0.767585 -0.357942 -0.399855 -0.816598 0.031199 -0.044802 0.040986 -1.707968 -0.141932 0.870289 0.215798 0.033661 0.644224 -0.794937 -0.710831 0.972084 -0.966169 0.635922 -1.355906 0.085543 -0.526000 1.453518 0.009642 0.438088 -1.133379 -0.749760 0.695434 -0.757241 -0.455123 1.109674 1.882768 -0.006525 -0.080260 0.456693 0.066086 0.252235 -0.111115 0.038354 -0.065922 0.281315 -0.508653 0.411367 -0.361745 -0.645550 -0.326514 0.353678 0.172860 0.226520 -1.699137 0.859453 -0.511737 -0.578633 -0.493372 -0.590448 0.207659 -0.136029 -0.663586 0.655324 0.217232 0.163320 -0.464618 0.035727 -0.836943 -1.106933 -1.585127 0.953932 0.710980 -0.157641 -0.137343 0.902230 -1.512253 0.359837 0.186424 0.807337 0.341090 0.621765 0.370265 0.375258 0.168366 0.669875 -0.078203 1.194754 0.450966 -1.315446 -0.002440 0.291326 -1.093850 1.099702 0.221620 0.357417 0.031600 0.386170 -0.109866 0.097084 0.563561 -0.452991 0.848684 -1.073542 -0.523219 0.230297 -0.534045 0.165596 0.813323 -0.276900 0.751017 0.330880 -1.269166 -0.442253 1.242370 -1.079631 -0.420377 -0.060590 -1.417681 0.596849 0.444617 0.359383 -0.794615 0.114220 0.367424 1.436036 -0.853479 0.748501 0.154491 0.388384 1.758228 -0.452295 0.348896 -0.362274 -0.128628 0.267831 -0.584346 -0.818503 -0.933325 -0.230789 -0.563899 0.011606 0.477111 0.308983 -0.193932 0.050787 
胆量 0.034560 0.032332 -0.739541 1.070010 0.543604 -0.704004 0.292442 0.644492 1.118368 -1.286088 0.008135 0.070075 -0.070217 -0.523228 -1.491321 0.190754 0.013341 0.483454 2.091838 -0.837288 0.265368 0.316735 1.444183 -0.229500 0.245336 1.083276 -0.263369 1.041807 0.280542 0.067116 1.068963 -0.253535 -0.892313 0.553339 0.189662 -0.970881 -0.123281 -0.465098 -0.045292 0.757125 0.172676 0.639603 -0.494693 0.002433 0.467685 -1.065724 0.461457 -0.182571 -1.685879 -0.699478 0.185280 0.339693 0.305590 0.206251 -0.444444 -0.742634 -1.530631 0.002986 0.324573 -0.688421 0.426810 0.610004 -1.147529 0.297932 -0.274040 0.513731 -0.153983 0.206043 -0.390249 -0.129387 0.798181 -0.671615 0.808464 0.716342 -0.170936 -1.099875 0.099382 0.983036 1.000285 -0.407233 0.654796 -0.512172 -0.635108 -0.041369 0.102662 0.364631 -1.469523 1.036649 0.043259 -1.757852 -0.268714 -0.607318 0.252798 -1.233217 0.024430 0.932725 0.463638 -0.292948 1.039655 -1.100459 1.478427 0.137797 -1.312901 -0.792893 -0.155847 0.118710 -0.218166 -0.146698 0.838692 -1.035268 -0.144147 -0.544602 0.618729 0.466376 -0.017043 0.899292 0.278198 -1.280884 -0.208134 0.359168 -0.523534 -0.494108 -0.438022 0.214656 0.654620 0.008224 -0.794882 0.399925 0.892440 0.770134 0.819408 -0.050826 0.095355 0.617496 0.376180 -0.915863 -1.431469 -0.104612 -0.102187 -0.960273 -1.733015 0.520496 0.267097 1.047738 -1.097322 0.682780 1.842302 -0.485379 0.230822 0.809986 -1.615568 0.105151 -0.163742 0.987392 -0.742587 -0.059310 0.919173 0.927710 0.312815 -0.024424 0.352529 -0.755062 -0.203631 -0.074224 -1.163579 0.228642 0.544755 -0.372312 0.654910 -0.423578 -0.221265 -0.133227 0.655939 0.723485 -0.321098 -0.945633 0.268378 -0.146621 -0.100871 1.250720 0.334777 1.684751 0.977287 0.185325 -0.750507 0.366148 0.028579 1.000841 -1.169250 -1.668716 -0.159366 0.612563 0.320665 -0.013079 0.136465 -0.087290 -0.031151 -1.732337 0.415009 -0.507145 
天象 -0.380338 0.787838 0.450146 -0.667261 0.688797 1.626688 -0.389303 -0.216572 0.459094 -0.690288 -0.911995 0.078241 0.442262 -0.648921 -0.865718 -0.451854 0.701427 -1.211695 -0.447335 0.917431 -0.271267 -0.263889 0.495262 0.383139 1.098247 -0.438119 0.315833 -0.470122 -0.132247 -0.403903 -0.819632 1.405533 -0.135038 -0.307784 0.231539 1.216411 -1.389965 1.298132 -0.346534 -0.436338 0.028176 -0.831032 -0.130931 0.058792 0.958067 1.180898 0.373141 -0.198539 0.459021 -0.775202 1.882783 0.787294 1.699874 -0.613160 -1.356579 -0.699921 -0.162856 0.709679 -1.143551 0.413213 -0.686193 0.098367 0.321515 -1.118798 -0.549198 -0.033542 0.180060 -0.629591 -1.737100 -0.597449 -0.287434 -0.633955 0.612764 0.567860 -0.743389 1.144903 -0.159405 1.423033 -0.376210 0.694418 -1.275645 0.234659 -1.102861 0.776049 -0.477353 0.430911 1.192968 1.318795 0.260903 0.917717 -0.133730 0.359800 -0.944133 0.767786 -0.747248 -0.189924 0.126289 0.442455 -0.051982 0.207742 -0.127982 -0.779062 0.652704 -1.875762 -0.615875 -1.105322 -0.216666 -0.927045 0.266829 0.073091 -0.122141 -0.300945 -0.311861 -0.532979 -0.682489 -0.315861 0.971255 -0.106936 0.900783 -1.214966 0.188091 0.955328 -0.100225 -1.292113 -0.051250 0.936247 -0.801846 -0.219034 -0.175774 -1.498183 -0.268934 -0.856862 -0.357220 0.334577 -0.435550 -1.261905 1.732447 0.009267 -1.011110 0.315773 0.856875 -0.828007 0.026283 -0.805583 -0.670525 1.479035 -0.772887 0.652754 -0.388156 0.553802 1.353810 -0.259675 0.686983 -1.345455 0.508641 0.138322 -0.255770 0.356636 -1.020178 -0.033339 -1.446576 1.092407 0.512593 -1.516835 -0.359347 0.654162 0.577443 0.108722 -0.187124 -0.182618 0.751468 0.449101 -0.556551 0.174684 0.942235 -1.196150 -0.330128 -0.084938 -0.424874 1.373110 -1.041450 -0.089859 -1.021946 -0.047787 2.274984 -0.093966 1.027139 -0.938699 -0.160573 0.301386 -0.140964 -1.161500 -1.279950 0.160353 0.917912 0.226430 -0.721971 -0.656026 -0.248843 -0.464286 
空间 1.825781 0.023907 -0.341336 0.510875 -1.764797 -0.103244 0.358702 1.616168 -1.988037 -0.252352 0.325260 -0.389007 0.726218 1.079575 0.237605 0.233001 -0.386861 -0.232569 0.680433 -2.012235 -0.285379 0.682108 -0.063377 -0.194882 0.683159 0.999018 0.441272 0.993400 -0.335914 -0.246039 0.876624 -0.156918 -0.375187 -1.187691 -0.765352 -0.311162 -1.002627 0.205399 1.048719 1.974039 1.350487 0.641098 0.271735 -2.156182 0.527486 -0.486712 -0.943297 -1.278291 -0.213020 1.723203 -0.267217 -1.364942 -1.895950 -0.568442 0.089759 0.229075 -0.735121 -1.192317 0.335607 0.698502 0.630759 0.864967 -1.438791 -1.160632 1.052689 1.423221 0.454702 -0.406091 -0.835786 1.439261 -0.708161 -0.066728 -0.534066 -1.217510 -0.680328 0.189739 0.174853 0.678943 0.626326 -0.578682 0.471101 0.603119 0.173516 0.857046 0.220374 -0.391294 -1.670497 -0.514426 -0.582634 -0.569302 -0.119219 -0.807794 0.302096 -0.811197 0.247556 -0.036560 0.960479 -0.392871 -0.784482 -1.758653 -0.126874 -0.339813 -1.170410 0.641280 -0.305181 0.569336 -0.970801 0.316273 0.840210 -1.785764 -0.495841 -0.591883 0.901219 0.381858 0.303549 0.933988 -0.529106 -0.405255 -0.157011 -0.417664 -0.586653 0.144869 -0.018232 -0.423342 1.478977 -0.796868 0.377242 -0.139388 -0.329252 1.028096 0.082842 1.021618 1.467012 0.100216 0.781519 0.626244 0.643791 0.547584 -1.249362 -1.073796 -0.596173 1.064455 -0.442749 -1.029065 -0.837334 0.505561 0.977772 0.924325 0.066324 0.498763 -1.009948 0.879025 0.823612 0.437097 0.033330 -1.112798 1.567844 -0.367458 -0.218431 0.190318 2.876005 0.579378 -0.355015 -1.377826 1.373945 1.047889 -0.812443 -0.833796 1.694493 0.504066 0.313789 0.243267 1.605647 -0.708681 0.025357 0.019318 0.802616 -0.907086 -0.466589 0.812930 -1.763963 -0.491458 0.463513 -0.863156 0.321284 -0.348760 -1.464141 0.102866 -0.391964 -0.532846 0.008121 -0.566329 -0.550201 0.065542 0.927401 -1.076564 -0.227095 -0.567658 -0.065745 0.489303 
疏远 -0.653289 0.779107 -1.431088 0.218582 0.129736 -0.048545 -1.994330 0.523762 0.338733 -1.491600 -0.516760 -0.028466 0.270372 -0.301106 -1.690225 0.315279 1.101133 -0.573205 -0.064453 0.536418 0.465383 -0.518336 1.591751 1.048809 -1.284137 -0.669941 -0.131148 -0.598957 -0.989061 0.487346 0.147970 0.478219 1.236098 -0.647656 -0.925711 -0.115913 -0.750489 0.876772 -3.068761 -0.516741 -0.119222 -1.425372 0.698862 0.346818 -1.058292 -0.166200 0.013545 0.270358 -0.134106 0.276540 0.955374 0.295949 0.685378 -0.257085 -2.496064 0.119061 -0.163254 -0.544080 -0.440929 0.628170 -1.492906 -0.132217 0.480873 -0.480570 -0.025450 1.219820 0.684437 -1.368736 -0.561909 0.631543 0.070660 -0.041935 -0.823952 -0.847772 -1.733589 0.188577 1.178285 -1.381998 -1.501370 -0.548797 0.105205 1.441050 1.260427 3.292975 -0.225500 -0.463725 0.079823 -0.275916 -0.128135 0.779806 -0.195787 0.259820 -1.318992 1.091690 0.498163 0.004442 0.439716 1.679118 1.404071 1.112298 -1.559400 -1.265939 1.515964 -0.636627 0.597668 -0.379558 -0.774394 0.063323 0.020807 -0.697864 -0.015738 -1.146623 -1.126177 0.051779 -0.808947 -1.423006 -0.580203 -0.401756 0.568637 0.553164 -0.847494 0.813134 -0.206304 -0.393575 -0.031267 -0.489422 -0.777187 0.347315 0.109925 -0.319362 1.416605 -0.882317 -0.381820 -0.556462 -1.768400 -0.540033 0.731455 -0.741355 -0.614953 -0.070837 0.158967 0.389337 -1.302640 -0.130603 0.498903 -0.436104 -0.221581 -0.238630 0.219261 0.275403 1.263924 -0.779492 1.460979 1.422700 0.117008 0.111678 0.449321 0.490922 0.953658 -0.510283 0.994247 -1.147892 0.037774 1.003084 0.517390 -0.699765 0.383692 0.966686 0.247400 -0.509553 -1.247610 -0.926635 -0.347808 1.664173 1.112709 -0.597565 0.401650 0.536538 -0.163961 1.793493 -0.232819 0.122252 1.428681 0.036689 0.324966 0.854066 -0.891895 -0.196754 -2.839588 -0.901531 -1.158123 -0.246967 -1.916163 -0.946839 1.642839 -1.403916 0.850130 -1.947408 0.701183 0.781997 
惊奇 0.579402 0.972386 0.622698 -0.631026 -0.154674 0.198768 1.487558 -0.393847 0.151708 -0.796152 -0.527260 0.023997 0.605667 0.330691 0.395309 1.830030 0.970381 0.724742 0.783560 0.244900 -0.119151 0.362479 0.184033 0.429901 0.459767 -0.046677 0.327724 -0.406162 -1.092566 0.667576 1.056128 1.448294 -1.226959 -0.022851 -0.848533 -0.605730 -1.345213 -0.172126 -0.685077 -0.869214 0.619080 0.406220 0.210020 -0.081485 -1.047728 -0.456842 -0.248430 -0.465265 0.699386 0.905361 0.539201 -0.994575 0.864259 0.142157 -0.142310 -0.659235 -0.037888 0.676152 -0.826221 -1.353275 -0.523297 -0.226860 -0.389861 -1.506439 -0.027067 -1.155733 0.769838 0.599457 -0.301276 0.948981 -0.132588 -1.221271 0.534541 -1.497364 -0.791230 0.581095 0.069611 -0.085122 0.528989 0.148250 -0.881907 -0.958663 -0.121418 0.434786 -0.153732 -0.566061 0.452968 -0.374426 -0.140157 -0.598678 1.037596 0.610743 -0.241247 -1.343006 0.308375 0.105756 -0.745122 -2.069808 0.570259 -1.053231 0.202973 -1.612783 -0.406040 -0.720213 0.945728 0.086671 -0.014762 1.071889 -0.946157 0.824991 0.101292 0.354815 1.331941 1.300432 -1.630754 -0.392741 -1.310677 0.635741 -0.448121 0.335555 0.645439 -1.833294 1.262386 0.193245 -0.358469 -0.177946 -2.445612 0.931239 -0.206349 -0.810157 2.002091 -1.026292 0.701154 1.370326 -0.621063 -0.368611 -0.652718 -0.744063 -0.833947 -0.411298 0.698592 0.289665 -1.092556 -1.801509 -2.220451 0.266911 -0.457006 0.980325 -0.359797 0.390035 -0.165231 2.075378 0.482932 -0.361888 1.579595 -0.671573 0.266454 0.135057 -1.925408 1.159003 -0.591422 0.516995 -2.352821 -0.083855 -0.517724 0.479721 0.295073 -0.762809 -0.001530 0.257172 -0.245299 -0.226249 -0.398426 0.546523 -0.408798 -0.850221 0.275425 -0.270641 0.233940 0.518038 -1.320597 -0.552873 0.336523 0.376852 -0.638020 0.525383 -1.020328 -0.762968 0.582697 -0.638855 1.237729 0.513361 -0.395241 0.294455 -0.301585 -0.335115 -0.360125 0.001539 -0.925824 1.213543 
味道 -2.139330 0.036237 -3.659261 -0.659184 0.929709 1.221324 -0.629896 -0.050429 0.552717 1.141535 -0.839867 -2.871972 -1.238520 -1.466751 0.450529 0.035672 0.660220 0.017889 1.327577 -7.093791 -2.108844 -0.506790 -0.062680 1.021762 0.343723 0.034957 -0.783149 -0.555561 -2.029125 -0.424662 0.193840 1.559986 -1.110469 0.893536 1.015245 0.354400 0.351472 -0.107660 0.205958 -0.898961 -0.802903 2.216953 -1.128539 1.209988 -0.089600 0.710226 0.113738 -0.422820 0.725549 -0.936324 -0.330774 0.300654 1.382139 0.862492 0.397707 0.229257 1.139989 0.210536 0.536265 0.692309 0.243810 0.465705 -1.072786 0.318793 0.247903 -4.306102 0.394583 0.270902 0.457998 0.607424 -0.093391 -1.226650 0.301338 1.663173 -2.355016 0.506955 1.409291 -0.365218 -0.855874 -0.287636 -0.586132 -0.686608 1.034959 1.361425 0.160485 0.072273 0.503492 0.542801 -0.064141 -0.905657 0.698902 -0.969003 0.331801 -1.797809 0.576913 0.660046 1.304057 0.014787 0.699374 -0.033480 0.692634 0.577371 -1.094903 -1.041032 -0.135867 2.132578 -1.055073 -1.162371 0.284897 0.758452 -0.485123 1.911121 -0.608692 -0.573243 0.054906 -0.736061 0.191547 -0.404523 -0.593851 0.461336 -0.720339 -0.736666 -1.127954 -1.027358 -1.163531 0.642428 -0.563980 0.528529 0.258621 -0.963010 -0.855831 -1.935181 -0.559331 0.134956 0.066364 -0.707974 -0.031478 -1.045416 -1.301206 0.505969 0.949809 -1.854324 0.339113 0.274291 -0.215495 -0.266446 -0.772474 -0.829360 -1.198713 0.296085 0.888304 -0.953515 0.504080 1.447527 -0.282176 -0.565108 0.697791 0.407586 -0.429967 -1.250647 -1.311379 -0.154206 -0.907016 0.569478 -0.230829 0.055090 -0.541074 -4.903852 -1.347690 -0.050270 0.653743 -0.692213 -0.828704 0.508700 -0.603616 0.055590 -0.051268 -0.206398 -0.313054 0.072462 -1.019457 -0.178237 -0.465944 0.711067 0.934940 -0.253353 0.273733 -0.671998 0.465409 -1.717874 -0.772844 0.578132 -1.187612 -0.147289 0.892678 -0.368931 -0.514479 1.381982 -0.765791 -0.965993 
规划 -1.447418 0.404138 1.595548 -0.851613 0.101849 0.575767 0.158709 0.758507 -0.153743 1.244481 -3.721297 -0.752018 0.399254 -0.298905 0.635829 0.770551 0.287029 -0.582833 1.610857 -2.333172 -0.614888 -0.301467 -0.388953 1.205916 0.563125 0.287682 -1.268091 0.131882 -1.041733 -0.858745 0.141104 -0.399684 -1.089090 0.462005 1.378060 0.303424 -0.390317 1.041329 0.238111 -1.618418 0.937910 0.545528 -0.276638 0.539073 -0.089690 -1.274330 -1.176866 -0.065477 6.018789 -1.438071 0.256787 -0.580760 -0.352558 -0.800697 -0.038000 0.745289 -2.058452 1.832730 1.235012 0.640123 0.152353 -0.798203 0.959470 1.061596 -1.607708 2.062166 -0.812257 -0.033309 -0.403519 -0.637439 -0.674507 -0.931946 -1.639961 0.584880 -1.419881 1.266368 1.153149 -1.118859 -0.175912 0.980669 -1.663170 -1.694477 0.180994 -0.093341 -0.230385 0.075351 -0.562179 -0.999811 0.638876 5.458640 1.316961 -1.446357 -0.816243 -1.511035 0.199279 2.988070 1.039203 0.291944 0.257319 -0.408668 1.091069 -1.330161 0.406833 -0.938521 -0.147409 -0.719620 -0.311295 0.247100 1.272454 -1.353266 -0.719838 0.258299 -0.022153 -5.070315 0.531573 -0.208541 -0.361804 0.224207 0.414738 -0.713490 -1.173901 -1.236280 1.778708 0.961726 0.584406 -0.154605 -2.146070 0.593822 -0.223613 -1.183664 -0.853083 0.581901 -1.172789 -0.164412 1.180989 1.526535 0.898318 -4.554746 -0.511422 -0.360978 3.724592 6.060524 -0.693895 -0.129125 1.062544 0.440498 1.998167 -1.905936 -1.323742 0.580243 1.024948 -0.091377 1.293719 0.470547 -0.544260 1.356792 -0.327656 0.320941 -0.986784 4.267700 1.052370 1.303674 -0.660550 1.109527 0.393861 0.321683 -0.650932 2.705653 0.617622 0.965524 0.674012 0.761922 0.570421 1.476259 -1.384516 -0.380186 0.517226 -0.013086 -0.882913 -0.442620 1.532327 -0.330919 0.798274 0.277903 -0.464627 0.284372 -0.040475 0.641587 0.173630 -0.821502 0.846892 -0.346093 -0.900265 -0.038606 -0.524979 0.053725 0.249065 0.561405 0.330639 -1.776482 
离婚 0.294805 -1.019245 -1.944318 -0.934786 -0.411428 -0.400429 -0.901381 1.066381 -0.624309 0.495630 1.624740 -0.150300 0.965359 0.353907 1.127763 -0.265742 -0.095105 -1.120017 -0.787834 -0.361938 0.163265 -0.249011 -0.283880 0.039179 -0.709585 -0.164748 1.589368 -0.402971 -1.919979 -0.546494 -0.636437 0.845482 -0.042533 0.746356 -0.099706 0.997257 1.189220 0.127729 0.034506 0.164646 0.393137 -0.941749 -0.993192 0.728911 -0.162843 -0.134292 -0.654183 -0.509083 1.103174 0.891881 -0.927110 -1.378049 -0.787111 -0.811078 1.256007 1.959513 -1.145694 -0.189147 1.319707 2.079926 0.491874 1.378723 0.028421 -0.720795 1.075818 -0.033806 0.997099 -0.297948 -0.592141 -0.377385 0.484540 0.261527 -1.205311 -0.101121 0.297395 0.250207 0.274175 -0.407480 0.876233 -0.040405 1.195183 0.775931 0.201491 0.722139 -1.094397 -0.775960 -1.324449 -0.854739 -0.278142 -0.878722 -0.685164 -1.617140 0.501847 -0.346093 -0.598108 0.564026 1.026388 1.137818 -0.687511 -0.554092 -1.098962 1.685861 -0.315172 0.679304 1.118371 0.834275 -1.451140 -1.030561 0.337787 -1.371966 0.038880 0.015137 -2.009964 0.652785 0.318139 1.003857 -0.524717 0.260634 0.203003 -1.022228 0.243943 -0.171667 -1.047626 0.324246 -0.514076 0.859042 1.307188 -1.375556 -1.352012 0.406152 -0.438001 1.242363 0.116429 0.521793 1.126082 1.183860 1.016433 1.385859 0.040367 -0.933116 -0.502565 -0.623270 0.819099 -0.078175 0.761186 -0.872288 1.331951 -0.765161 -0.232280 -0.991139 0.685232 0.759783 0.620338 -0.241131 -0.149817 -0.185493 -0.730971 -0.169887 1.055107 -0.009243 0.966937 1.332891 0.712643 -0.060565 1.998126 0.116641 -1.042375 0.320403 1.161526 0.948080 0.002448 -1.334777 0.493666 -0.612166 -0.820432 0.281432 0.948503 0.067964 0.121171 1.279647 -0.629101 0.783515 0.042860 -1.018990 -0.507823 -0.309790 -0.426080 -0.738714 -0.242312 -1.164005 -0.206153 -0.907356 -0.037440 -0.640834 -0.849837 0.189547 0.881682 -2.004728 0.809301 -0.709250 
交 -0.730665 -0.323556 0.251303 -0.584223 1.664361 -0.292949 0.486908 0.779842 0.804739 -0.899537 -0.081553 -0.406754 -1.447316 0.353652 -0.177537 -0.060368 -0.484429 1.432195 0.169703 0.910622 1.434948 -0.004804 0.453501 -0.026183 -0.960128 0.490813 -1.199280 -0.133373 -1.130585 -0.482075 -1.198039 1.496910 -1.025585 0.784285 0.449728 0.628182 0.990806 -0.428835 -0.071886 0.516339 -0.087302 -0.391128 -1.318998 0.038628 -0.802579 -1.008479 1.343111 -0.733607 0.065375 -1.231933 0.982139 0.822613 0.536710 -0.483290 -0.635537 -0.475967 -2.169484 -0.975565 1.335227 -0.540674 1.129095 0.186869 0.454048 1.370670 -0.780294 -0.249094 -0.055057 0.017104 -0.043809 -1.297989 0.378396 -1.037617 0.000398 -0.959704 -1.754172 -2.114533 0.888389 -0.707402 -0.530192 -0.290852 -0.352422 0.167785 0.386769 0.780250 -0.833211 -0.572075 0.036290 0.760286 0.233889 -0.238073 -0.255144 0.338286 -0.370822 -1.122265 -0.637673 -0.282586 0.288925 0.453946 0.027330 0.049695 0.295445 0.621124 -0.978580 -0.012112 -0.068084 -0.603024 -1.349046 0.542580 -0.174282 -0.683055 -0.730752 0.813721 -0.561022 -0.498033 -0.016110 -0.706714 0.032378 -0.938042 0.430018 -0.150229 -0.038649 1.645279 -0.166839 0.308556 0.019175 0.078022 0.386334 -0.113551 -0.444726 -0.669098 -0.055457 -0.510728 -1.380111 -0.815298 -1.073665 -1.350734 -0.433048 2.095401 0.503272 0.323424 -1.169926 0.144237 -0.295248 0.915273 0.287807 0.355191 0.931279 -0.958456 0.488548 0.538290 0.802527 -0.535423 0.747588 0.117036 -0.372886 0.865953 -0.287882 0.965039 1.097182 0.479911 -0.112913 0.353472 0.262051 0.423547 -0.627362 -0.237784 0.061028 0.120600 -1.399915 0.412320 -0.147697 -0.758065 -0.746447 -0.530953 0.942140 -0.250142 -0.599225 1.292454 -0.591330 0.569982 1.388546 -0.625787 -0.069237 -0.809664 -0.963263 -0.331327 -2.186512 -0.411557 -0.860577 -0.755954 0.133931 -1.109418 1.583137 -1.129406 1.319116 -0.654433 -0.460508 -1.785553 0.968966 -0.541444 
票证 0.353332 0.360204 0.184725 -1.243315 -1.063086 0.816206 1.147062 -0.137616 -0.598622 0.269979 -0.516364 0.232049 0.049953 0.451154 0.278341 -0.243041 -0.094806 0.331026 0.680895 -0.501337 -0.072910 -0.201452 0.323031 -0.409569 0.295639 0.079157 -0.036636 -0.090220 -0.915997 0.180032 0.660916 0.724899 -0.707882 -0.091548 -0.047353 -0.474991 0.006488 -0.402670 -0.864181 0.011911 1.059273 0.909724 0.355041 -0.226407 -1.419991 -1.297893 -0.101840 0.900360 -0.630801 -0.429479 -0.303359 -1.538379 -0.212502 -0.785115 0.590065 -0.108842 1.115378 0.810283 0.690918 0.399557 -0.538982 2.737301 -1.567940 0.332499 1.031488 0.533842 1.823752 1.982239 0.138268 -0.509620 -1.972309 -0.993390 1.331256 1.003001 -0.067983 0.625463 0.588655 0.408671 -0.479968 -0.809151 -0.115578 0.228596 -0.345290 0.600347 -0.265506 -1.276439 -0.007172 0.840405 0.994415 -0.711817 -1.226479 0.451350 0.951887 0.443879 -0.920817 -1.366268 0.973435 0.978744 0.043661 -1.256493 0.172095 -0.778453 0.914282 0.179474 -0.059711 0.182580 -0.629193 -0.824727 0.454596 0.269938 -0.045968 0.241730 0.133987 1.029896 -0.914958 0.663832 1.001374 -1.301183 -1.236455 -0.146536 0.914660 -0.928801 -0.394725 -0.476794 -0.019161 0.000124 -0.890931 0.287958 -0.160161 -0.847058 -0.150284 -1.286222 -0.145805 -0.923071 0.570642 -0.024583 -0.406743 0.103604 0.585005 -0.657392 1.072099 -0.485716 -0.092084 0.649006 -0.238128 -0.270218 -0.032771 0.280515 -0.453601 0.389941 -0.178205 0.298232 1.262715 0.999983 1.145838 1.253110 -0.688766 1.199077 -0.469602 -1.540679 0.012968 0.382102 0.204853 -0.083977 0.698072 -0.274489 0.744097 0.389443 0.348128 0.063645 -0.273128 -0.529998 0.869439 0.555574 -0.486062 0.763088 1.736129 -0.544546 0.037250 -0.582584 0.519922 -0.554733 -0.188724 -0.643483 0.443560 0.565178 -0.811501 -0.020391 -0.894335 -0.400918 -1.105131 -0.582839 -0.088146 1.166121 0.330683 -1.415289 -0.193156 -0.669762 -0.843508 -0.785657 
排泄 0.195187 0.598705 -0.935828 -2.087831 2.029665 -0.286915 0.016079 0.273990 1.041739 -0.232205 0.807309 0.795324 -0.298668 0.452206 0.133995 -0.713334 0.147366 0.160677 0.658930 0.243634 -0.672965 0.046632 0.941818 0.384434 0.616075 -0.645505 -0.576514 -0.352911 0.637005 0.010505 -0.979417 -0.648962 -0.572532 -0.386523 0.849883 0.442913 -0.018176 -0.281635 -0.035394 -0.365222 1.952385 0.118086 -0.418161 0.185516 -1.221191 -0.599068 0.726199 0.073922 -0.399125 0.625021 0.845311 -1.111934 0.811919 -0.383219 -1.554045 -1.387430 -0.776912 1.064822 1.335095 -0.089807 0.645754 1.599987 0.070712 0.115265 -0.512093 -0.297191 1.330736 -0.502855 -0.574517 0.125206 -0.429372 -2.564012 -0.013450 0.255782 -0.250952 0.718007 -0.335709 0.412945 0.111361 -0.265439 -0.083149 0.261121 -0.875209 0.173098 -0.173151 0.060372 0.050624 0.042622 0.984242 0.234894 0.086219 0.256532 0.792353 0.162029 -0.439544 1.262390 1.114786 0.476796 -0.179356 0.772368 0.874035 -0.909540 -0.687081 -0.171380 0.004674 -0.045465 -0.142602 -0.510256 -1.027834 0.947446 -0.125100 -0.150328 -0.266902 0.592464 -2.397006 0.638207 -0.731720 -0.930607 -0.962068 0.981909 0.420868 -1.421750 -0.624112 -0.825337 -0.294100 0.438839 -1.293976 1.179571 0.072786 -0.500873 0.231509 -1.416828 -0.138409 0.122437 -0.575078 -1.141728 -0.281780 -1.492983 0.184820 0.631258 -0.244722 0.113503 0.354181 0.182141 0.112241 0.473213 -0.876748 0.070573 0.310292 0.722340 0.305717 1.092303 1.349457 -1.569166 -0.076920 0.407789 -0.110769 0.677454 -1.054024 -0.310655 -2.152180 -1.060196 -0.208914 0.018083 0.235968 -0.022525 -0.771803 0.247838 1.391592 -0.976341 -0.653950 -0.889809 -1.685050 0.498477 -1.073227 0.589907 0.130156 0.639902 1.378180 0.642065 -0.445706 0.759519 -1.396473 -0.700472 -0.770672 0.540493 -0.214374 -0.102208 -1.251487 -0.062079 0.744329 -0.283805 0.357646 1.102053 -0.112607 -0.243713 0.340719 0.215408 -0.573028 0.031469 
诽谤 -0.340824 -0.450447 1.117980 -0.856939 0.389980 -0.296912 1.092203 0.992565 0.503147 -0.655322 -1.201549 -0.045298 -0.139302 -0.022390 -1.242429 1.448310 1.074983 0.798068 -0.124388 0.670899 0.240842 1.157190 0.789851 -0.404768 -0.875697 0.355564 -0.880386 0.698214 0.026262 -1.462622 0.549006 0.687462 -1.290882 -0.045268 -0.706051 0.178019 -1.063568 -0.140388 -1.143269 -0.359018 1.159893 0.029885 -0.026231 -0.272513 -0.634843 -1.084538 0.187934 -0.232019 -1.458043 -0.177183 1.382000 0.417819 0.528746 -0.200401 -1.328754 -0.979911 -1.036378 -1.323018 0.382140 0.076964 -0.289315 -1.704860 0.333014 0.004338 0.269280 0.423033 -1.001643 -0.401427 -0.708677 0.312422 -1.158124 -0.955275 -0.487305 -0.928147 -1.583190 -0.943010 0.593980 -0.604079 -0.518432 0.003555 -0.221145 0.614896 -0.279998 1.712874 -0.212398 0.297705 -0.063337 -0.242150 -0.085020 -0.102032 -0.278168 0.507837 -1.440159 0.359619 -0.140246 -0.105901 0.706089 1.057679 -0.149800 2.604053 1.468333 -0.976236 -0.367683 -0.969174 -0.002578 0.362176 -1.198377 -0.349043 -1.690909 -0.098071 -0.672536 -0.927301 -0.319797 0.545845 -1.893898 0.329365 -0.220679 0.524384 0.969694 -0.199966 -1.099218 -0.927535 0.183648 -1.070127 0.895211 -0.917490 -0.654248 -0.007975 0.057366 -0.947148 0.475899 -0.708080 -0.529702 0.702831 -0.400908 -2.191885 0.599666 -1.679083 0.542960 -0.403016 -0.731027 -0.079951 -0.836265 0.198092 -1.134319 -1.340138 -0.243310 -0.624732 -1.125761 -0.323524 0.360774 1.164412 -0.136571 0.185800 0.270999 0.452033 0.980842 -0.876407 0.285543 -0.148139 -0.139072 0.495749 -0.549535 -0.390284 -1.308348 -0.527657 1.431602 -1.015122 -0.197226 -0.678416 -2.229265 -0.249076 -1.333936 0.390830 -0.239717 -1.217686 1.054984 -0.960400 0.215919 -0.886275 0.344429 -0.496209 0.175779 0.594583 -0.837985 -0.593663 -0.643710 1.840933 -0.535793 0.553909 0.277902 -0.119883 -0.220535 -0.256858 0.797516 -1.282581 0.234263 -1.945546 0.594250 0.992385 
场面 -0.257718 -0.370371 1.118656 1.165075 -0.870334 1.121276 -0.469816 0.197272 -0.862049 0.472649 -1.750448 -0.608051 -1.383923 0.872316 -0.179424 0.400928 1.138257 0.487353 -1.100261 0.836897 -0.775750 -0.081414 -0.272267 0.443665 1.113400 -0.028918 -1.051815 0.586774 -0.477220 -0.081385 -0.348975 1.501199 0.624385 0.261404 -0.045120 -1.051910 -0.902731 1.096855 -0.691328 1.575345 0.113828 0.344405 0.929804 -0.287737 0.236765 -0.258632 -0.312747 -0.014604 -0.226648 0.003222 -1.124028 0.935071 -0.278718 0.871489 0.200469 -0.482968 0.684304 0.343129 -1.883340 0.695440 -0.158315 -0.642274 -0.081710 -0.510423 0.554936 0.549349 -1.207208 1.297966 -0.121497 -1.049712 -1.108994 1.288555 -1.138113 0.760338 0.817234 0.110664 0.127104 0.472805 -0.175120 0.284899 1.362956 0.782107 0.911765 1.834679 1.101906 0.322593 -0.805569 1.312515 -1.139118 0.112196 -1.406616 -0.292247 -0.718325 -0.012491 -0.465845 -0.769958 0.290188 1.196543 -0.627476 0.609449 -0.969810 0.450658 0.982187 -0.006304 -0.382117 0.432920 -0.518230 -1.210427 0.903828 -0.821929 -0.414088 -0.232524 -1.195845 -1.036233 -0.561070 -0.597029 1.879630 0.748745 -0.525977 -0.150122 0.114742 2.323363 0.324640 -0.449458 0.581480 -0.372402 -0.260153 -0.625638 0.062616 0.249454 0.221769 0.408368 0.726654 0.433086 -0.219735 -0.737651 1.767957 -0.570718 -0.346071 -0.319434 0.740062 -0.651282 -0.107288 0.061225 -0.804525 -0.342594 0.076822 -0.199241 -2.163201 -0.920487 0.569954 -0.803940 -0.129572 -0.048567 0.106828 0.530744 0.043730 -0.067753 0.302447 0.047931 1.151465 0.135367 -0.750162 0.569446 0.449469 0.418326 0.466923 1.077328 -0.003912 -0.157940 0.046382 1.382017 1.871748 -0.521930 -0.835314 -0.807175 0.837932 -1.736006 0.056147 -0.856089 -0.223553 0.014726 -0.587630 0.056026 1.182856 0.634534 -0.033245 -0.001540 0.162952 -0.415115 -2.029821 -1.400905 0.569106 -0.424245 1.061101 -0.333047 -1.499847 0.351552 0.455784 -0.486910 
翻译 -0.526895 0.921034 -0.946491 -0.420506 -0.051921 0.385360 0.419757 -1.361342 0.718063 -0.871553 0.819386 0.398493 -0.709504 0.342311 0.012868 -1.272227 0.267899 -0.292895 0.605867 -0.385523 0.888945 -0.046105 -0.058515 -0.988405 -0.668403 -0.551500 -0.871155 -1.137167 -0.427033 -0.139048 -2.079463 -0.657297 0.833012 -0.275914 -0.901688 -0.452336 -0.000825 -0.618958 -0.114394 0.522001 0.136550 -0.529345 0.541823 -0.611141 -1.783566 -0.655237 0.073404 2.153922 0.108852 -0.139957 0.324738 0.691988 0.004536 -0.821786 0.579812 -0.620190 -0.431367 -0.112146 0.069335 -0.723906 0.579499 0.987319 -0.597065 0.913559 -0.324869 -0.609434 -0.200310 0.997896 0.232367 -1.649351 0.377988 0.264898 1.422595 0.737488 0.300152 -0.345633 -0.667979 -0.502237 -0.527920 0.875263 0.758207 0.687586 0.303406 0.806156 0.601755 -0.649081 0.009648 -0.060105 -0.543621 0.928278 -0.115152 0.263525 -0.065051 0.871145 -0.360989 0.515504 -1.533744 1.086962 0.283387 -0.159583 -0.473172 1.049069 1.647218 0.131449 -0.154293 -1.357703 -0.159692 0.733268 1.002652 -1.463222 0.636949 0.350088 -0.533484 -0.182894 -0.684299 0.043606 0.789437 -1.438035 -1.359165 -0.795722 0.345770 1.667014 0.619664 0.725603 -0.073222 0.054670 0.916943 -0.028990 -0.377207 0.092490 0.793539 -1.305992 -0.963120 -0.239173 -0.142796 0.883420 0.302896 1.688967 0.013504 0.389585 0.081396 0.419853 0.052730 -0.123683 0.884304 -0.852566 -0.533862 -1.533519 0.141886 -0.355138 0.308068 0.222191 0.854191 0.086687 0.438772 1.703149 -0.954737 0.899091 0.649467 0.404263 0.047441 -0.541967 0.196800 0.095610 1.156016 0.073083 1.358897 0.456831 -1.388628 -0.928194 0.190244 1.050286 -0.932648 -0.495717 0.571088 0.566743 0.274410 0.691180 -0.032856 -0.083264 0.316610 -0.863832 -0.301379 -1.168229 0.684520 1.877735 -0.034026 -0.388494 0.045876 0.830383 -1.003297 -0.446549 0.896641 1.935401 -0.464891 -0.977471 0.108788 0.200592 0.802194 -0.350507 
人 -2.382493 -0.458432 -0.168709 -0.425156 0.009397 -0.057746 -0.107337 0.337043 -0.124755 0.546486 0.045421 -0.098671 0.526065 -0.255538 0.366591 -1.134488 -0.223270 0.107821 0.370176 1.278713 -0.396293 0.574673 0.005536 -0.741160 0.732560 -0.130371 -0.033992 0.240923 -0.198748 0.546395 0.731205 -0.279101 0.151432 0.133111 0.239471 -0.491459 0.591153 0.012478 0.511874 0.257431 -0.319090 -0.219866 -0.440877 0.300242 -0.098186 0.452673 0.068116 -0.284770 0.245668 -0.121904 -0.127811 0.255718 0.054345 -4.764390 -0.197658 -0.114420 0.652646 0.189017 0.434150 -0.099993 0.251406 0.787491 0.082584 -0.127694 0.119390 0.855623 -0.931951 0.325712 -0.147738 -0.354556 -0.426440 0.513226 -0.036743 -0.057752 0.030037 0.199076 -0.525647 0.356373 -0.058799 -0.455794 0.886800 0.354315 -0.320517 -0.033771 -0.345609 -0.379104 -0.028371 0.451668 -0.125806 -0.162629 -0.100345 0.267897 0.517173 -0.454379 -0.476319 0.734678 -0.418779 -0.122827 -0.322109 0.045919 0.445826 0.300365 -0.146808 0.559540 0.332172 -0.300286 0.114013 0.542120 0.218204 0.096897 0.495779 0.238487 -0.269402 0.725578 -0.393521 -0.095746 -0.090728 -0.244232 -0.357316 -0.310862 -1.277821 0.130255 -0.402808 -0.236269 -0.179153 -0.000865 -1.776825 -0.327702 -0.190387 -0.006780 0.023439 0.041942 0.732077 0.184922 -0.134356 -0.215743 -0.020290 -0.388538 -0.206937 -0.587076 0.201729 -0.116842 -8.188002 -0.087767 -0.602160 0.196362 -0.310008 -0.193222 0.185291 -0.616918 0.218500 -0.475516 0.000611 -0.069187 -0.364872 0.207964 -0.024823 -0.347734 -0.318409 -0.069964 -0.581259 0.532995 -0.057693 -0.564991 0.042388 1.202672 -1.629237 -5.298342 0.528600 0.345637 0.104329 0.217369 0.255696 -0.161873 -0.407998 -0.107354 0.374808 0.007649 0.628983 0.385233 -0.412666 -0.434718 0.163123 0.503768 -0.131677 0.039573 -0.317549 -0.068052 -0.366809 -0.383860 0.039816 -0.247143 -0.164222 0.059753 0.556301 0.122956 -0.211691 0.207978 0.411244 -0.430783 
僻 -0.115953 0.504685 -0.225638 -1.294215 0.335159 -0.255237 -0.765318 1.270749 0.470946 0.691222 -0.204031 0.076910 1.190965 0.250371 0.697869 1.476992 0.499847 0.354178 0.095898 0.278847 0.651453 0.387106 0.069417 1.151371 -0.138171 0.961463 0.178248 -0.853375 -0.963523 0.544966 0.140409 -0.502755 0.200558 -0.652194 0.802098 0.790814 -0.803052 -0.485893 -0.197019 -0.333562 1.718522 0.027430 -0.983949 0.670164 1.020156 0.818260 0.623337 1.418389 -0.335051 -0.945985 1.018695 -0.513896 0.750369 -0.554508 -0.386641 0.830880 -0.811374 0.362836 -1.376018 -0.198813 0.243137 -1.593040 0.919470 0.286560 0.093339 -0.061030 -0.570712 -0.876108 -0.367749 -0.308033 1.422422 -1.015607 -1.307912 -1.450849 0.020621 1.178986 -0.495625 -1.563464 -0.614794 -0.674241 -1.759537 -0.142715 -1.342594 -0.191353 -0.864891 0.635894 1.297361 0.456590 1.398384 -0.273589 0.211768 0.209882 -0.787964 1.070352 -0.669806 0.611995 0.520358 0.885240 1.463514 0.448225 1.050663 0.135558 -1.989644 -1.949828 -0.389487 0.501727 1.570578 1.250582 0.372446 -0.711082 0.071156 -0.789997 0.076465 0.589494 0.178310 -0.328231 -0.772864 1.746313 1.570911 -0.475820 -1.497449 -1.809720 0.258465 0.196395 -1.459733 -1.094868 -1.205813 0.536518 1.104163 -0.985636 -0.699466 1.673966 -1.746269 -0.039369 -1.159503 0.448462 -0.260304 0.306746 1.398661 1.686183 -0.076690 0.256137 -0.715389 0.801991 0.443401 -0.586652 -0.944390 0.060765 0.002334 -0.376125 0.607631 0.187892 -0.077788 0.038310 -0.639011 -1.002509 0.836864 0.076794 -0.199656 -2.773796 -0.953504 -1.447134 0.297353 -0.806832 0.087937 -1.719680 0.198235 -0.717885 1.203564 0.853934 -0.416185 -0.166211 -1.726657 1.463873 -0.908422 -0.758233 -0.000416 0.211645 1.257138 -0.290250 -0.527195 -0.555583 0.702876 0.212581 -1.735947 -1.422524 0.694694 -0.471601 -0.365875 2.065380 0.684395 -0.148470 -0.342623 0.045850 -1.343012 0.779209 0.654671 -0.622138 -0.978478 0.741615 
生理学 0.440174 1.151690 -1.166332 0.167689 -0.292641 -0.389453 0.105574 0.025524 2.116544 -0.201638 1.228238 -0.886770 -0.237729 1.377902 -0.287594 -1.276317 0.620260 -1.102806 0.721074 -0.158533 -0.667169 -0.967068 0.544396 -0.133791 -0.494291 0.253682 0.021338 0.605952 0.337665 -0.717636 -1.259812 0.564736 -0.025491 1.083066 -0.739620 0.455242 0.050591 0.247432 0.756977 -0.368395 -0.939390 -0.349653 0.813545 1.927559 -0.616537 0.040313 -1.227475 0.810523 -0.612490 1.148475 0.869369 0.091705 0.339342 0.501170 -0.064310 -0.686573 -1.648322 0.752642 0.184548 0.603644 -0.970588 -0.099273 0.527644 -0.429276 -1.382190 -1.901294 -0.611775 -0.157666 0.690191 -0.587123 -2.750892 -1.890849 -1.470428 1.108955 -0.302940 0.394766 -0.528621 -0.341651 1.767211 0.844085 0.341701 -1.167857 0.831532 -0.349811 0.873953 0.838993 0.682152 -2.580782 -0.441500 0.548709 -0.744349 -0.782530 -0.692632 0.562585 0.332752 0.154974 -0.828212 -0.734198 -1.910995 1.592332 0.064650 -0.212388 1.881693 -0.396392 1.124643 -0.278750 -0.055207 0.580363 0.377056 0.046975 0.261163 -1.094198 0.241717 -0.401144 -0.288944 0.537826 0.142712 0.253242 0.556449 0.005271 -0.402078 -0.019166 1.623305 1.243815 1.167712 1.728431 0.738518 1.016329 0.094369 -1.280755 0.111120 0.188552 0.842967 -0.393524 -0.632272 -0.889260 -0.503564 -1.797118 -0.944217 -0.284088 -0.494627 -1.226149 0.223315 -0.428365 1.004267 0.840419 -0.056769 -1.099390 0.652811 -0.838021 0.632642 1.359013 0.047393 -2.009517 0.385683 -0.628022 -0.239092 -1.791363 -1.484821 2.248575 -0.369162 0.153233 -0.031066 1.907908 0.681068 0.007455 0.901024 0.309660 -1.092345 -0.528982 0.486418 -0.033698 -0.357421 -1.288274 1.278225 0.682318 -1.160898 1.503295 -0.661219 -0.161547 -0.297128 0.724635 -0.225183 -0.954977 0.325904 0.689508 -0.346998 1.113959 1.776723 0.950645 0.166076 0.027292 1.822135 -0.511971 -0.946950 -0.037587 0.427468 0.892977 0.620535 0.474844 
簿册 -0.116755 0.157140 0.203700 1.433631 -0.490473 -0.328088 -0.576244 -0.008625 0.125521 -0.018611 0.110350 -0.501255 -0.084605 0.043575 0.299441 0.802346 -0.640825 -0.163132 -0.199114 0.264247 -0.317519 0.900007 1.060919 -0.754937 -0.705404 0.057073 0.227834 0.963099 -1.082511 -1.102634 1.369341 -0.036714 -0.045657 -0.454871 -0.982113 -0.866625 0.001534 -0.678800 -0.231465 -0.065859 -1.450155 0.550736 0.923570 -1.066096 -0.678561 0.025187 0.292684 0.439582 -0.443883 0.827452 -0.639416 -0.128617 -1.608443 1.569779 0.540976 0.173777 0.317811 0.696653 -0.062205 -0.320002 0.418777 -0.246551 -0.691258 0.146712 1.282837 -0.347278 0.018143 0.578656 1.615005 0.925443 0.473442 -0.599496 0.137960 0.430761 -0.400243 -1.597100 -0.203709 -1.038617 0.409343 0.045113 1.281400 -0.345259 1.097466 0.744407 0.231789 -0.392109 -1.226089 -0.141475 -1.185436 -0.412860 -0.536031 -0.068045 -0.510229 -0.047507 0.972936 -0.384883 0.021722 -0.375688 0.616825 -1.008985 0.616491 0.703044 -0.100399 1.077187 0.832169 0.631685 -0.193414 1.350971 0.327497 -0.088808 0.262170 -0.758491 0.528018 0.267881 -0.056247 0.653125 -0.520359 0.335521 -1.319842 1.243149 -0.210880 -0.152496 0.215733 0.681934 1.186039 -1.280969 0.046400 -0.534756 -0.267035 1.653609 -0.517856 -0.815719 1.108910 1.191400 0.219918 1.273058 -0.189966 -0.559842 0.172780 -1.003900 0.588342 0.699033 -0.755722 -1.064075 -0.251336 -1.225948 0.246401 -1.335354 -0.528351 -0.961642 -1.334997 0.133021 -0.095135 1.498867 -0.002787 -0.875134 -0.264786 -0.685818 0.360676 1.652033 1.112906 0.080229 -0.982309 2.572245 0.859098 -0.004743 1.079222 0.036576 -0.035687 1.078240 -1.117396 0.626979 0.536523 0.446112 -0.422796 -0.227503 1.151584 -1.751278 0.419860 -2.291493 1.029253 -0.348349 -0.278787 0.652479 -0.263985 -0.295086 -0.830116 0.715120 2.237354 0.182216 -0.365879 0.779270 0.608928 0.495748 -0.492248 -1.349747 0.664765 0.141283 -0.460521 0.041651 
非洲 -0.956672 -0.789383 -1.207161 0.574823 0.667788 -1.492618 0.296902 0.518664 0.858591 -0.736560 0.236721 -0.928897 0.532001 -0.716791 -0.882492 -0.806088 -0.370181 0.308627 1.126757 -0.342087 0.717649 -0.103665 0.231140 0.874416 -0.560023 -0.165686 -0.118083 -0.546224 -0.430996 -0.939232 0.300647 -1.341845 -0.425050 0.875394 -0.516700 -0.245556 0.788460 -0.392492 0.123565 -0.705398 0.900634 0.077893 0.356441 0.423093 0.114986 -0.545459 1.857714 1.177267 -1.410797 -1.534425 -0.365587 0.592271 0.091389 0.194714 -0.276810 -0.064521 -0.536856 0.861682 0.010728 -1.970476 -0.792213 -0.836958 -0.577184 0.952092 -0.124312 0.001933 0.665334 0.309596 -0.302896 -0.311284 1.776166 -0.178832 0.590425 -0.902519 0.927470 -0.970213 -0.701403 -1.578867 -0.725877 -0.733827 -0.796735 -0.948640 -2.423019 0.547076 -0.109915 0.497375 -1.457722 0.499278 -0.530276 -1.106122 -0.138762 -0.483764 0.794410 -0.590797 0.029113 -0.091310 0.275316 0.804387 1.837767 -0.355393 1.994358 1.127086 -1.719641 -0.058917 -0.535966 1.106396 -1.082042 -0.255096 0.188390 -0.691590 1.016077 -1.559924 -0.418265 0.727442 -0.059946 1.061269 -0.032406 -0.414777 -0.854462 0.192680 -0.641860 0.171540 -0.823958 0.125153 -0.311727 0.402427 1.805876 -0.268724 0.506824 1.386671 -0.959850 -0.491567 -0.491007 0.963034 -0.080974 -0.443453 -1.133716 1.370336 1.294351 0.418988 -1.264028 0.487632 -0.399399 1.772296 0.460366 -0.050996 1.759297 -0.586289 -0.133368 -0.842855 -1.547514 0.161039 -1.875435 0.541216 -0.075295 1.024763 0.241275 1.061039 0.215316 -1.177423 -0.300452 -1.697046 1.093156 0.212010 0.453819 0.172924 -0.280880 -0.252176 0.455583 0.435736 0.215060 -2.635775 -0.222758 -0.067936 -0.451002 0.140413 -0.247151 -1.337121 0.507995 0.326135 0.639737 2.181146 1.380142 0.039557 0.331906 -0.251856 0.193201 0.686342 -0.583439 -0.693032 -0.531202 0.590494 0.353616 -0.461552 -0.319105 0.828944 1.242253 -1.283439 0.553360 -0.813566 
包扎 -0.523731 -0.520193 -0.458628 0.355552 0.944166 -1.258112 -0.730693 2.166800 1.308614 -2.499003 0.222471 0.122413 -0.191001 -0.809996 -1.908931 0.035244 -0.124072 0.754937 1.662117 -1.204835 0.369180 -0.451848 0.539193 1.000315 -1.052087 0.028385 0.000657 0.816690 1.215062 -0.707266 0.985373 -0.344459 0.376630 -0.145505 -0.301940 0.580433 -0.321129 0.718170 -0.079876 0.496156 0.980967 0.243262 -1.043789 -0.128060 0.786175 -0.191581 1.590952 -0.249036 -0.930056 -0.422736 0.503188 -0.073862 0.560630 0.827661 -1.070645 -0.098891 -0.784752 -0.340077 1.290966 0.436273 -0.612638 -0.498631 0.562351 0.913859 0.028507 -0.360028 -0.147847 -1.183614 0.032400 -1.326035 1.652700 -0.620477 -1.600210 -1.079762 -0.296107 -0.459923 0.528427 -0.672043 1.075762 0.011327 0.277832 -0.429364 -1.945019 0.191812 0.170971 1.232100 -0.024894 0.593047 0.302773 -1.268084 0.015284 -1.030971 0.040412 -0.204066 -0.109821 0.051461 1.019654 -1.022349 0.402183 0.158634 0.836978 0.693668 -1.843682 -0.644048 0.008727 0.481645 -0.094588 0.281272 1.023952 -0.822665 0.094863 -0.258882 0.129231 -0.721859 0.673392 0.755581 0.213365 0.331564 1.253626 -0.719825 -0.732716 -0.260319 -0.705149 0.064661 -0.050938 0.420018 0.223090 1.640171 -0.204440 0.102490 -0.009266 0.144914 0.239669 0.631692 -0.456125 -0.641393 -1.279057 -0.117423 0.484478 -0.366821 -1.701067 -0.564184 -0.083594 1.178305 -0.782658 0.970433 0.464447 -0.182155 0.864671 -0.463354 -0.565163 0.587069 -0.991368 0.501006 -0.228941 -0.295258 0.836152 -0.275154 0.513714 0.031341 0.026336 -1.145486 0.311861 -0.026426 -0.691660 0.303577 -0.337876 -0.515778 0.175047 1.393693 -0.796138 -0.875620 -1.149682 0.581031 -0.055925 -1.066583 -0.277124 0.276120 -0.676488 0.923439 -0.009884 2.597581 2.232278 0.562744 -0.838496 -0.823344 -0.322364 0.059542 -0.418332 -0.299686 0.357235 0.338143 -0.536947 -1.377658 -0.372758 0.402775 -0.633630 -1.775890 0.688141 -0.495335 
悲哀 -0.812880 -0.440504 -0.468274 -0.045572 0.870930 -2.037256 0.108063 0.800488 0.546038 -1.725553 0.187306 0.492277 0.338982 -0.708875 -0.966559 -0.148224 -0.857815 0.734583 1.132630 -0.108969 0.430663 -0.664503 0.091237 0.589363 -0.458936 0.300340 0.584714 -0.135767 0.744953 -0.588433 -0.135865 0.026971 -0.019817 0.323502 0.180679 0.222932 1.328524 0.307990 0.981651 -0.543581 0.771342 0.440962 -1.302579 -0.267545 0.009617 -0.139138 0.742220 0.118320 -0.799495 -1.206198 0.378359 0.097591 0.440204 0.829486 0.353149 0.086410 -1.266725 -0.508155 0.768576 -1.102914 1.124223 0.004680 0.782283 1.144622 0.605782 -1.084565 -0.471435 -1.108347 0.446325 -0.871764 2.806299 -0.916379 0.304186 -0.419600 -0.512763 -1.088483 -0.338521 0.590805 0.390910 -0.767427 0.065670 -0.231515 -0.804425 -0.444462 -0.793048 1.255123 -0.223888 0.173243 0.026797 -1.339582 1.149192 -0.342949 0.243736 -1.482888 -0.172108 0.740097 -0.103350 -0.431048 1.519815 0.065091 0.031720 1.633582 -2.711979 -1.429246 0.079925 0.800351 -1.065773 0.926963 -0.004550 0.021317 0.075588 -0.015502 0.674903 0.038248 0.686546 1.010978 -0.143109 -0.721763 0.463311 0.619599 -0.719208 -0.165967 -0.829343 0.161944 -0.334848 0.549951 0.393766 2.040917 0.062398 0.286652 0.270364 -0.095077 -0.265062 0.012710 -1.349424 0.103007 -1.227798 0.614988 -0.011876 0.429198 -1.252988 0.287920 0.627316 0.924904 1.154038 0.135594 0.520571 -0.427283 0.508667 -0.109422 -0.649381 0.403239 -0.037189 0.439297 -0.669247 0.167818 0.115302 0.473073 0.126888 0.432192 0.327219 -0.552290 -0.140823 -0.073743 -0.689625 0.056445 -0.211919 0.010398 0.192995 0.467015 0.351004 -0.243501 -0.928191 0.552235 -0.470128 -0.677969 -0.995280 0.878043 -0.693580 0.856399 0.306490 1.246871 1.646792 0.299168 -0.605712 -0.104509 -1.105273 -0.088135 -0.153677 -0.285903 -0.332010 0.660149 0.291373 -0.819346 -0.681618 0.145160 -0.190347 -0.623865 0.219667 -0.873556 
外交 -0.967243 0.386159 0.540151 0.180350 -0.320007 2.606713 -1.113055 -1.579400 -0.666630 -0.786017 0.240621 -0.121736 -0.324534 -0.015019 0.583604 -0.016118 0.963207 -0.048054 -1.271029 -0.550775 -1.509070 -0.538307 -1.210033 -0.545912 -0.339658 -1.303623 0.754548 -1.737060 -0.530163 -0.025953 0.611190 1.297221 0.327286 0.356382 -1.183384 1.054545 -0.177997 0.142005 0.296639 0.136201 -1.448084 -0.672429 -0.654813 -0.275895 -0.797045 1.052395 0.365844 -0.471336 1.680023 0.898854 -1.008463 0.473138 -0.571797 0.949326 0.839407 0.786115 0.854423 1.496489 -0.161498 0.267084 -0.537226 -0.950458 -0.168388 -0.568705 -0.727154 0.471998 0.508198 0.890530 0.780201 0.425064 0.541895 1.448700 0.753720 -0.376874 -0.176089 -1.148329 -0.375270 -0.883887 0.152858 0.981521 0.706565 0.020770 0.614475 0.609058 -0.261940 -1.100222 0.253647 -0.056229 -0.472350 0.960816 -0.661588 -0.283777 -0.924255 0.513265 -0.012218 -1.075145 -0.438155 0.535242 0.146983 -0.324909 -0.577571 0.036144 0.970620 0.531421 -0.203379 0.811269 -0.647658 0.496891 0.720411 0.083762 0.562509 0.440562 -1.966450 -0.045566 0.785497 -0.883697 0.720194 1.659550 -0.486931 -0.437877 0.064296 1.672771 0.115456 0.075681 -1.070141 0.706908 1.701697 -1.524981 -0.202155 0.012303 -0.411685 -0.980567 0.781762 0.297528 1.298011 0.889532 0.644835 1.706121 -0.024013 0.186969 1.280535 -0.881980 -0.110407 -0.449595 -0.320652 -1.055112 -0.878201 -1.629383 -0.817930 -0.505271 0.823990 -0.646809 -0.365014 0.439876 0.797748 -0.679390 -1.594981 0.199888 0.551220 1.117475 0.415168 0.693882 0.568193 1.211121 1.097556 -0.949481 1.088823 -0.808202 -1.163225 0.458726 0.567403 1.477895 1.159053 -0.507334 1.024187 -0.334652 1.267460 -0.408386 -0.907291 0.139621 -0.525295 0.355108 0.071613 -0.115253 2.186272 0.061883 0.301261 -0.971606 1.468031 -0.831323 -0.780120 -0.131071 -0.546659 0.070467 0.244858 0.500176 -0.187061 0.385265 0.175260 0.209493 
有利 0.738240 -0.112341 -1.179798 0.681709 -1.086211 -0.331829 -0.715420 0.749027 1.690036 -0.373706 0.754653 0.131960 0.118100 0.433484 -0.949207 0.046888 -0.954860 -0.562404 0.258152 0.232602 0.560945 1.010220 -0.787312 0.081582 0.029584 0.415685 -0.787351 0.216755 0.443090 -0.952713 -1.802641 -0.638368 0.588990 -0.188458 0.732511 0.044772 -0.984825 1.355221 1.131857 0.525655 0.174262 -0.638354 -0.730897 -1.231627 0.222281 -0.954119 -0.295655 -0.415374 0.082039 -0.593875 -0.784687 0.924066 0.188042 -0.611118 0.003554 -0.490615 -1.168205 -0.530168 0.941962 0.072024 -0.096993 -2.038186 0.097739 1.084596 -0.123445 0.135152 -1.004416 -0.710549 0.289911 -0.485912 0.236423 -0.098943 -0.609109 -0.858569 0.446383 -0.920462 0.157230 -1.093619 -0.568435 0.137258 -0.458453 0.867758 -1.170986 -1.426466 -0.280109 0.855144 0.719336 0.149700 -0.796018 0.407701 1.081152 -0.680599 -0.237180 -0.074770 -0.252786 0.613184 -0.303637 1.219303 -0.167602 0.425075 -0.103971 -0.504936 -0.341054 -0.280158 0.149741 0.058415 1.711226 1.894245 0.472401 -1.052858 0.298034 -0.848093 1.241565 -0.897796 0.654255 0.038161 -0.201636 -0.076828 -0.032218 0.308200 -0.968051 0.917525 1.276724 0.734100 0.776092 -1.149945 0.512290 1.157064 0.304259 0.551492 -0.288799 1.495474 0.992477 0.324625 -0.989937 -0.027223 0.093071 -0.029585 -1.887346 -0.260976 0.107410 1.294734 -1.190011 0.096365 0.501657 1.186128 -0.377757 -0.698163 1.394011 0.531266 -1.008515 -0.205570 0.357547 -1.073902 0.597025 -1.565732 -0.219732 -0.083760 -1.382785 0.565812 -0.133492 -0.854013 0.080862 0.786906 0.343198 -0.476039 0.622271 -1.469883 -0.126991 -0.875710 -0.974817 1.125141 1.155104 -1.475215 0.586355 -0.095776 -0.483943 0.919100 0.703722 -0.373771 0.748581 0.208207 0.497914 -0.707025 -0.981268 -0.342347 0.319340 0.269512 -0.392353 1.714154 0.078959 1.265736 0.508915 -0.511406 -0.031313 -0.280407 1.019368 -0.194161 -0.305716 -0.928825 
比率 -0.052253 0.811534 0.303300 0.488269 -0.598803 1.074570 -0.205993 -0.256611 0.236762 0.370850 0.384730 0.218889 0.729836 0.308690 -0.313327 -0.123937 -0.141400 -0.180235 -0.069254 1.210637 0.164674 -0.219988 0.798937 -0.844563 -1.528811 0.096283 -0.607586 -1.902323 -1.383625 0.298357 -1.240942 1.267778 -0.722501 1.029750 -0.781538 0.188506 0.940630 -0.853392 0.886027 -0.284825 -0.571624 0.876797 -0.027694 1.642559 -0.594629 0.957389 0.041145 -0.258914 0.621095 0.501344 0.299345 0.871342 -0.747895 0.589209 0.526957 0.751485 -0.052858 0.870266 1.292132 -0.438993 1.065175 -0.212214 -1.387420 -0.249681 0.361308 -0.801725 0.832438 0.188936 0.737726 -0.146251 -0.221818 -0.344579 0.176977 -0.346686 -0.847605 -1.537288 -0.408782 -0.944434 -0.280983 0.561141 0.573790 -0.317550 0.999913 1.108038 -0.696701 -1.152248 -0.254219 -0.830238 -1.010298 0.075432 -0.128208 0.393660 -0.238486 -0.644134 0.872509 0.611935 -0.514925 -0.465586 -0.674976 -0.843963 -0.925874 0.538360 0.290544 0.674439 1.254109 0.452303 -0.406698 -0.193403 -1.107746 0.746113 -0.189741 0.630184 -0.377980 -0.464120 -0.429605 -1.167756 -0.443969 0.619223 -0.717659 -0.785131 0.168196 0.404929 0.106486 0.099540 -0.883245 0.493940 0.321855 -0.209093 -0.126052 -0.392681 -0.604076 -0.373373 -0.305755 -0.025079 -0.147383 1.420049 -0.635126 1.664892 0.031090 -0.594410 0.518425 -0.608200 0.059847 -1.773162 -0.627039 0.352554 0.352793 0.146739 -0.371832 -0.641575 0.622335 -0.133556 0.617134 0.076141 1.144739 0.121765 -0.359554 -1.607253 -0.335168 1.439026 -0.551241 0.637711 -1.149574 1.377392 1.016540 0.785293 -0.206418 0.354992 -0.690537 -0.305302 -0.540690 0.495347 0.271404 -1.198261 -0.050181 0.453795 0.175611 0.331005 -0.257914 0.122531 -0.306773 0.028163 -0.608261 -0.424970 0.898446 -0.054051 -1.289312 0.421196 1.557044 0.106197 0.218558 -0.596280 0.146627 -0.564151 -0.324659 -0.215884 -0.174729 0.442320 2.049185 -0.100440 
亲疏 -0.840946 0.113172 -0.340402 -0.707474 1.225468 -0.644937 -0.107719 0.720070 1.695397 0.978939 1.740483 0.736797 -0.824141 -0.393434 0.494179 -0.638153 -1.056468 -0.266770 -0.005187 0.623761 0.898370 -0.412771 -0.130989 -0.027281 -1.387082 -0.018635 -0.729249 0.142724 0.563144 -0.944038 -0.409709 -0.846670 0.541907 0.542540 1.022290 1.304980 0.842882 -0.421351 -0.676462 -0.862535 -0.349692 -0.195882 -1.472185 0.667637 0.614172 0.898230 1.062069 -0.525400 0.208071 -0.830484 -0.510799 -0.160091 -0.362537 -0.871964 0.327593 -0.070203 -0.888645 0.460490 1.265358 0.520816 0.248763 -1.243992 1.182867 1.966736 -2.032225 -0.148588 -0.272573 -0.575526 -0.364954 -1.400577 -0.528380 -1.297528 -0.434800 -0.548422 0.021010 -0.804387 0.295740 -1.290540 0.484589 0.733470 -0.364742 -0.857505 -0.956786 -1.333095 -1.101312 0.193795 0.541966 -1.225130 1.277197 -0.442881 -0.333509 -0.072822 0.223673 0.379193 -0.552933 0.427082 0.749115 -0.353463 -0.922691 0.932276 1.793685 0.377044 0.368947 0.762268 0.509766 0.729275 0.303235 0.036184 -0.222463 1.358603 0.026937 -1.068624 -1.140695 0.370041 0.111489 -0.405617 -0.368739 -0.026036 0.578324 0.332760 -0.608074 -1.106597 0.117349 1.275177 0.101203 0.253694 1.318414 0.424071 0.691213 0.141135 -2.094378 0.074524 -0.748167 0.255678 0.301638 -0.992937 -1.013271 0.577581 0.637496 0.820182 -1.177513 -0.567997 0.607845 0.881337 0.333983 0.952318 0.361410 -0.504834 1.138293 0.630148 -0.244459 -0.258563 -0.670614 -0.536006 -0.284358 -0.307807 -0.612052 -0.551738 0.365194 -0.533061 -1.642925 -0.580271 1.398884 1.617429 1.478502 -0.641000 -0.675293 -0.040955 -0.555224 0.801185 -0.527721 -1.340898 -1.140021 -0.067062 0.450031 0.169620 -1.490912 0.914646 -0.720162 -0.906753 0.982128 0.657024 -0.383424 -0.111135 -0.958116 -1.508016 0.418391 0.332329 0.464159 0.482613 1.718652 1.137839 0.993631 -0.347520 -0.452134 0.815746 0.611814 0.141692 0.713592 -0.242424 
普通 -0.143228 0.768526 0.000326 -0.200734 1.419994 2.042111 -2.224371 -0.621921 0.780432 0.681531 -0.029251 -0.722770 -0.388265 -0.592987 0.579913 0.097345 -0.810271 -0.570788 -0.941140 0.203326 -0.299955 0.228983 -0.653825 -0.127922 -0.587513 0.400475 -0.010184 -0.774190 -0.269564 0.404239 0.105843 0.151118 -1.685073 -1.030231 -0.296183 0.873208 0.629894 1.009948 -0.726205 -0.551632 -0.715820 -0.113496 -0.960384 -0.482761 0.623250 1.162791 1.584755 -0.610459 0.267808 -0.173370 -0.895439 0.057267 -0.393663 -0.019748 -0.071965 1.284021 1.012355 1.988421 0.299524 0.555173 -0.438811 0.132256 -1.193649 -0.322698 0.253628 0.926392 0.585597 1.230976 0.093080 -1.646886 -0.589699 0.539304 -0.308132 -0.587563 -0.324465 1.033618 0.076022 -0.492265 0.146765 0.357663 0.500014 1.139116 -0.270213 1.783571 -0.247981 -0.786882 0.269729 -0.517365 0.657258 0.448668 -1.102981 -0.371833 -1.011449 0.142217 1.163642 -0.370935 0.088390 0.292968 -1.031596 -0.551533 -0.602432 -0.279372 1.077016 0.270870 3.242327 0.660891 -1.167312 0.645187 1.763911 0.127042 0.644663 -1.190440 -0.663897 1.199424 0.694924 -1.263439 0.716544 0.958922 -0.346392 -0.181623 -0.718490 -0.403769 0.262351 -0.555795 -0.205859 0.475720 -0.228691 -1.886068 0.245106 0.564616 -2.002360 -0.562608 1.096621 0.226470 1.062003 2.276888 0.007706 -1.935122 -0.416920 -0.395119 0.680697 -0.344350 0.092863 -0.860106 -0.075420 1.116553 -0.613818 -0.920771 0.374607 -0.477152 1.270809 -1.122302 -1.546232 1.244229 -0.267384 -0.685731 -0.527496 0.423568 -0.860007 0.418628 -0.182310 0.880196 1.342471 0.144737 1.029125 -0.520799 0.227021 -0.515713 -0.203669 2.256562 1.234848 0.544155 0.299184 0.741340 -0.314755 -0.582267 -0.161134 -0.022053 -0.458357 -0.421430 -1.018064 -0.088276 -0.240102 0.708602 1.104904 -0.204029 -0.548471 -1.359807 0.582821 -1.365141 -0.036147 -0.394329 -0.725240 -0.427166 0.931048 0.335363 0.476359 1.061948 -0.163749 -0.925781 
