105769 200
</s> 0.000565 0.000444 -0.000356 -0.000276 -0.000377 0.000999 0.001839 -0.000937 0.000015 0.000076 0.001511 0.000720 -0.000787 0.001559 -0.000470 0.000843 0.000216 0.001040 0.000784 -0.000107 -0.001505 0.000530 0.000343 0.001650 0.000275 0.000431 -0.000658 -0.001930 0.000837 0.001249 -0.002102 -0.000931 -0.001184 -0.001338 0.001013 -0.000902 -0.001206 -0.000908 0.000448 -0.001033 -0.001118 -0.000122 0.000480 -0.001188 0.000984 0.000482 0.000614 0.000650 -0.002076 0.000045 0.000158 0.001628 -0.000009 0.000398 0.000589 0.001940 -0.000877 -0.001172 0.001109 -0.000435 0.001607 -0.000542 -0.000954 -0.001252 0.000144 -0.000127 0.001385 -0.000988 -0.000444 -0.001040 0.001291 0.000473 -0.000556 0.000511 0.000538 0.000751 0.000166 -0.000048 -0.000050 -0.000017 -0.000677 -0.000265 0.000719 0.000760 -0.000020 0.000909 -0.000590 0.001241 -0.000675 0.000718 -0.000857 -0.000216 -0.000804 -0.001986 0.000000 0.000883 0.000443 -0.000283 -0.002264 -0.001967 0.000829 -0.000447 0.001912 0.000248 0.000575 0.001528 -0.000322 0.001738 -0.001483 -0.001111 0.000958 0.000123 0.000006 -0.001909 -0.000800 -0.000987 -0.000698 -0.000864 0.000049 0.001069 0.000739 0.000162 0.000001 0.000370 0.000270 -0.000519 -0.001053 0.000762 -0.000382 -0.001352 0.001349 0.000550 0.001133 0.001731 -0.000917 0.000792 -0.000452 -0.001995 0.002104 -0.000748 0.002430 -0.000395 0.000399 -0.001981 0.000091 -0.000298 0.001916 0.002342 0.000155 -0.000636 0.000832 -0.000773 0.000941 -0.001285 -0.001730 -0.001857 -0.000828 0.001800 0.000606 -0.002261 -0.000966 -0.000402 -0.000469 0.000602 -0.000279 0.001576 -0.000535 -0.000487 0.001258 0.000980 -0.000853 0.000846 -0.000480 0.000041 -0.001518 -0.001191 -0.000637 -0.000315 -0.000200 0.000259 -0.002082 -0.000189 -0.000947 -0.001809 -0.000209 0.000512 0.001671 -0.000025 0.000023 -0.000185 0.000144 0.000520 0.001406 -0.000308 -0.000027 -0.001712 -0.000066 0.000190 -0.000702 0.001738 
的 0.267237 0.104685 0.189172 0.062837 0.190911 -0.150725 0.322098 -0.416996 0.094893 0.453234 -0.410350 0.283330 0.078829 0.258889 -0.275298 -0.049953 0.314731 0.263292 0.208983 0.470093 -0.024596 -0.077300 -0.134915 0.079931 -0.369429 -0.386276 -0.249820 -0.342497 0.148891 0.211611 0.184562 0.107789 -0.044304 -0.005957 -0.006931 -0.056152 -0.050520 0.092033 -0.004140 0.188320 -0.113272 0.374051 0.244596 0.048017 -0.052675 -0.122765 -0.144519 0.086652 -0.101694 0.065308 -0.021150 0.112637 -0.207038 0.067081 -0.018029 -0.058754 0.275406 0.095232 0.279384 -0.066588 0.430995 0.143200 -0.025376 -0.004218 -0.287981 0.074237 0.140430 0.002737 0.032107 -0.001217 -0.062060 -0.102271 -0.239355 0.185355 -0.150557 0.366117 0.196324 0.244382 -0.379622 -0.240069 0.093951 -0.321965 -0.123143 -0.106459 0.044808 -0.195993 0.108019 0.226927 0.128163 0.177674 0.061667 -0.030281 0.218358 -0.168556 -0.180288 0.033974 0.009193 -0.128982 -0.173575 0.089959 0.332476 -0.042958 0.046874 0.359529 -0.029788 -0.107846 0.105180 -0.260551 0.052109 0.095030 0.066888 -0.276390 -0.130084 0.232430 -0.057159 -0.081346 -0.054752 -0.020784 -0.253070 -0.031573 0.044439 -0.033825 0.204820 -0.209792 0.002085 -0.199872 0.111307 -0.081348 -0.091252 0.071009 0.047924 0.065923 0.024844 -0.034265 -0.217518 0.004652 -0.043873 0.195802 -0.293351 -0.128374 -0.129218 0.182234 0.267499 0.046306 0.027223 -0.095398 -0.099965 0.003866 0.106265 0.277907 -0.058897 0.195193 -0.246313 -0.345615 -0.040807 -0.221268 0.418523 -0.254879 0.084620 0.251159 0.193020 0.025162 0.184946 0.163908 0.002964 0.114923 -0.130284 1.383046 -0.155857 0.244263 -0.023614 0.143724 0.432626 -0.000719 -0.068769 -0.311431 0.101836 0.005484 0.177666 -0.056991 0.345160 0.061393 0.120494 -0.013198 -0.118488 0.121710 -0.084018 0.128416 -0.207358 -0.029813 -0.125936 -0.263303 -0.578087 0.234615 -0.339208 0.267544 0.109876 -0.020567 -0.053996 -0.069297 
了 2.053550 0.118084 -0.147970 -0.035372 0.039936 0.092849 0.432360 -0.172128 0.294482 0.050653 0.023701 0.192719 -0.366010 -0.181086 0.257036 -0.133345 0.783889 -0.588886 -0.004917 0.195566 0.212821 0.177435 0.158104 0.023941 0.407187 -0.163551 -0.153867 -0.070785 -0.043090 -0.010439 0.107906 0.100430 0.044508 0.199599 0.149202 0.058491 0.041958 -0.089753 -0.023401 -0.185270 0.236140 0.189204 -0.113329 0.050631 0.040956 -0.373007 0.051536 -0.247170 0.016387 -0.343267 -0.122536 -0.087765 -0.262196 -0.158571 0.318784 0.405831 -0.044042 -0.007333 -0.134229 -0.109619 -0.149387 -0.052616 0.008222 -0.038602 -0.038563 0.108374 -0.253159 -0.282652 -0.124473 0.115770 -0.121825 -0.230299 -0.015796 0.178283 -0.017336 0.116904 0.013403 -0.107926 -0.108157 0.012942 0.185115 -0.018892 0.024848 0.056751 -0.159391 0.138772 0.021008 -0.333941 -0.451289 0.459412 -0.108278 0.043492 -0.024949 -0.156163 0.125240 -0.159286 -0.056795 -0.187662 -0.143763 -0.098380 0.071614 0.187726 0.070781 0.090299 0.132443 -0.137936 -0.274793 -0.046627 -0.016018 0.084366 0.080188 -0.045537 -0.161694 -0.267119 -0.231739 -0.070889 0.159651 0.052619 0.231956 0.045037 -0.008842 0.132815 -0.064574 -0.041854 0.118313 -0.056700 -0.019286 -0.267455 0.109321 -0.123327 -0.296979 0.412132 0.018762 0.146915 0.041315 -0.038774 0.256823 0.181995 -0.166356 0.168202 -0.167811 0.012865 0.265739 0.028163 -0.189306 0.021118 0.069447 -0.019383 0.142246 0.242588 -0.027032 -0.488883 0.046692 0.086663 0.173741 0.249318 0.328900 -0.131868 0.189493 0.206677 -0.079604 0.316132 -0.117248 0.132896 0.182767 -0.212839 0.081342 1.627061 0.310711 -0.044006 0.207703 0.058403 0.234494 -0.016904 0.136551 -0.136007 0.014044 0.058403 0.394438 -0.119393 -0.125601 0.053453 -0.233888 -0.166265 0.021311 0.155787 -0.139487 -0.026844 0.098011 0.086272 0.099191 0.069071 -0.152417 -0.013543 0.015839 -0.040454 -0.305505 0.239058 0.105124 -0.280417 
是 0.674739 0.160599 0.845872 -0.240007 -0.327503 0.010760 0.182127 -0.188933 0.119043 -0.013124 -0.220043 0.416135 -0.269370 -0.271987 -0.338861 -0.004123 -0.102831 0.063920 0.461854 0.426476 -0.179899 -0.072027 -0.056695 0.198828 0.080542 0.274870 0.156193 -0.195415 0.040137 0.022892 0.277913 -0.010746 -0.163113 -0.019475 -0.433123 -0.519395 0.147654 0.061514 0.147128 0.040262 -0.191708 0.124473 0.109349 -0.344846 0.151715 -0.358265 0.402496 0.243853 0.084648 -0.018823 0.205570 0.087989 -0.254883 -0.004742 -0.082616 -0.120151 0.123850 -0.332174 -0.124333 0.303519 0.028127 0.153402 0.067663 -0.418564 -0.191925 -0.042720 0.282718 -0.031472 0.204757 0.429729 -0.022141 0.117232 -0.277991 -0.084458 -0.363436 -0.002525 -0.266643 -0.127252 0.155108 0.118274 -0.083256 -0.090383 -0.068334 -0.136828 0.017575 0.113524 0.184663 0.144652 0.016494 0.080386 -0.108140 -0.054481 -0.239426 -0.297556 -0.050098 -0.075822 -0.199931 -0.121522 0.070217 0.414867 -0.015342 0.230733 0.093223 -0.119310 0.193958 -0.256687 -0.107606 0.173231 0.105951 -0.017582 -0.124317 -0.339977 -0.088258 -0.204800 0.101433 -0.160874 0.083501 -0.203678 -0.253752 0.039583 0.230524 -0.212774 0.073723 -0.229110 0.207349 -0.043961 -0.480964 0.041801 -0.151967 0.371306 0.247617 0.097500 -0.091186 -0.099086 0.285613 0.052256 0.034650 -0.175021 0.152579 0.079848 0.058639 0.262742 -0.001137 -0.310749 0.154409 0.171908 -0.006979 -0.012988 -0.029230 0.341720 0.124997 -0.082824 -0.054632 -0.041666 0.070957 -0.104967 -0.290755 0.140576 0.059766 0.122726 -0.363114 0.281913 0.422940 -0.362964 0.269636 0.259093 -0.100486 0.788391 0.056436 0.102031 -0.204377 -0.179742 0.250175 0.224236 0.263328 -0.130481 0.236628 0.142570 -0.094023 -0.024076 -0.222959 0.159169 -0.070373 0.150715 -0.399849 0.210230 -0.055133 0.089134 -0.188064 -0.036898 -0.372115 -0.098993 -0.098372 0.325744 0.222938 0.189772 -0.185188 -0.111035 0.081250 -0.106349 
在 0.597701 0.278106 -0.258203 -0.122498 0.124615 -0.118993 0.496944 -0.188226 0.504599 -0.116370 0.034731 0.313062 0.031264 -0.038798 -0.018232 -0.149756 0.573667 -0.299043 -0.254633 0.162906 -0.058282 -0.161238 -0.220458 0.125079 -0.367779 0.082224 -0.489297 -0.224866 0.096765 0.038151 0.117309 0.143030 0.042767 -0.080812 0.016356 -0.062665 0.110636 -0.065835 -0.216468 -0.015858 -0.101511 -0.087088 -0.026209 0.193076 -0.300886 0.238756 -0.132472 0.038742 -0.187838 0.263225 -0.041100 0.057116 0.077302 -0.436004 -0.003534 -0.013441 0.076136 0.031822 0.457423 0.069569 -0.331356 -0.139889 -0.113312 0.076556 0.196170 0.081652 -0.064016 0.000402 -0.264746 -0.091225 -0.162898 -0.393427 -0.017765 0.064680 -0.119754 -0.059527 0.056232 0.264803 -0.426159 -0.029133 -0.170799 0.022161 -0.181348 0.040774 0.158515 0.066810 -0.141433 -0.236713 0.245235 0.139890 -0.079795 -0.009413 0.053090 0.095644 0.159727 0.200344 0.120734 -0.075484 -0.252756 0.009832 0.341391 -0.135248 0.040789 0.165816 -0.019530 0.172890 -0.269106 0.084458 0.115042 -0.108010 -0.024506 -0.051764 0.173367 0.286455 0.015934 0.058207 0.106858 0.038605 -0.178245 -0.026535 0.202470 -0.004541 -0.019104 0.139168 -0.238232 0.000689 -0.178220 -0.245685 0.168354 -0.143568 -0.138626 0.079510 0.199169 0.282439 -0.303431 0.082668 0.158776 0.033997 -0.147567 -0.464348 0.230683 -0.089603 0.132647 0.064338 0.520293 0.057854 0.021283 0.172218 0.137301 -0.221844 0.089569 -0.076056 0.100230 -0.288048 0.050404 0.127613 0.076754 0.008698 0.119344 0.053784 0.112894 -0.262456 -0.134153 0.016279 0.033577 0.166510 0.176171 1.303159 -0.208817 -0.043792 -0.077470 0.190690 -0.275765 0.359062 -0.245325 -0.035644 0.096345 0.138917 0.169862 0.129721 0.061714 0.028354 0.062251 -0.191272 0.152896 0.062659 0.180285 0.062157 0.124594 -0.238093 -0.232434 -0.259646 -0.381002 0.116493 -0.208853 -0.291885 -0.031278 0.194763 -0.086293 0.083765 
我 2.783767 -0.150761 0.579555 0.009103 -0.316912 -0.035647 0.441697 0.072443 0.569589 -0.589180 -0.224139 0.685075 -0.664906 -0.070341 0.370491 0.042357 0.292408 -0.252824 0.403078 0.557526 -0.189762 -0.219531 -0.026650 0.030142 0.010048 -0.151001 -0.114889 0.008459 -0.297371 0.357297 0.083488 -0.080070 0.218730 -0.023668 0.164022 -0.508483 -0.289898 0.077102 0.523006 -0.095178 -0.122689 -0.030816 0.215863 -0.391448 -0.197001 -0.170116 0.213690 -0.331164 -0.239482 -0.059291 -0.061282 0.221491 -0.308212 -0.345356 0.101086 0.061578 -0.073432 -0.096977 -0.307907 -0.215040 -0.504354 0.262174 0.075965 -0.033608 -0.131044 -0.302328 0.087352 -0.093401 0.121997 0.166890 -0.199200 0.030574 0.184258 -0.118884 -0.096207 -0.251590 -0.398002 -0.304005 -0.248061 0.389068 0.191425 0.182870 -0.161498 -0.265828 0.043703 0.114856 -0.040386 0.010520 -0.300577 0.016013 -0.041789 -0.268039 -0.098585 0.050604 0.243866 0.066380 -0.230659 0.199786 0.203887 0.144310 0.448451 0.431220 -0.059732 -0.047668 -0.204862 -0.181619 -0.213933 -0.279685 -0.179227 0.022799 -0.080574 0.028230 0.101219 -0.046072 0.025618 -0.143966 0.043603 -0.163488 0.028436 -0.177497 0.066445 -0.025628 0.317394 -0.104810 0.097736 0.045988 -0.156614 0.006180 -0.244664 -0.280220 -0.192140 0.134059 -0.111017 -0.221910 0.000200 -0.255091 0.029907 0.178556 0.079406 -0.179088 -0.198935 0.038946 0.034631 -0.180113 -0.122849 0.216906 0.218830 0.180886 0.154778 0.345990 -0.002279 -0.376462 0.254534 0.352552 -0.041100 0.039693 -0.001840 -0.477893 0.266790 -0.104826 -0.170394 0.279942 -0.270376 0.061233 -0.009311 -0.008274 0.152158 1.296496 0.025457 -0.284920 0.026623 -0.179265 0.008787 0.414152 0.221702 0.330784 0.111388 -0.081324 0.454538 -0.041134 0.007912 0.219273 0.069212 0.243346 -0.143549 0.157547 -0.164057 -0.097488 -0.131332 0.123238 0.120583 -0.014874 0.236158 -0.013940 0.090188 -0.367246 0.340336 0.192996 0.345962 0.031860 
不 1.784866 0.655495 0.767536 -0.149237 -0.295891 0.165348 0.304153 0.068089 0.370511 0.067015 0.150943 0.178030 -0.098568 -0.024431 0.113030 0.032588 0.219923 0.160342 0.215528 0.442530 -0.312914 0.039990 0.236945 -0.546480 0.131029 -0.013571 0.264960 0.102349 -0.324517 0.035136 -0.271475 0.204594 0.108719 -0.315466 -0.052801 -0.220555 0.049687 0.272820 0.079805 -0.027779 -0.092251 0.014347 0.278045 -0.015791 0.154377 -0.011082 0.303574 -0.184766 -0.220623 -0.299420 -0.136552 0.082681 -0.110778 -0.183790 -0.190062 -0.291170 -0.121223 -0.085917 0.093128 0.378959 0.026114 0.338329 -0.072633 -0.038251 -0.218636 -0.178227 0.099864 -0.042863 -0.075793 0.150759 0.171171 -0.035588 0.097444 0.002275 -0.197706 0.143343 -0.040333 -0.133771 0.091960 0.371797 0.014872 0.282433 0.056343 0.056067 -0.187603 -0.245545 0.038864 -0.078732 -0.320769 -0.187989 0.396384 -0.086084 -0.017558 -0.222380 -0.146070 -0.234202 -0.283133 0.082964 -0.269839 0.041609 -0.206708 0.157823 -0.035974 -0.093498 0.199519 -0.005006 0.011951 -0.271424 -0.051250 0.124259 0.031591 -0.154902 0.181811 -0.006711 0.049552 0.221136 0.353312 0.332796 -0.372609 0.094602 0.395203 0.103840 -0.068832 0.151963 -0.155998 -0.123353 -0.278499 -0.043829 -0.103746 -0.099988 -0.220693 -0.156685 0.309965 0.012245 0.226743 0.073035 0.110865 0.223747 0.262444 -0.062032 -0.094553 0.036371 0.117327 -0.327458 0.277422 0.217715 -0.054947 0.194252 -0.071668 0.211851 0.290701 -0.452078 0.252995 0.135503 0.083748 0.005918 0.209108 -0.135853 0.133886 0.460532 0.311265 0.155097 -0.063284 0.273199 0.190115 0.113851 0.049734 1.231389 0.442351 0.045378 0.152824 0.369671 -0.042427 0.157515 0.191823 -0.253301 0.077138 -0.222174 -0.028279 -0.140265 -0.226710 -0.251815 0.077730 0.305903 -0.439523 -0.045960 -0.355120 -0.024963 -0.002343 -0.130591 0.150991 -0.025287 0.357762 -0.218211 0.059948 0.027348 0.012651 -0.020719 0.289446 -0.231059 
一 1.369116 0.020680 -0.201442 0.093912 -0.010571 -0.331008 0.236954 -0.202451 -0.039716 0.542726 -0.352392 0.287718 -0.148139 -0.029696 -0.035482 0.100629 0.642049 -0.269824 -0.046058 0.218458 -0.190754 0.109058 -0.084585 0.051719 0.391004 -0.239604 -0.333078 -0.175116 -0.515286 -0.012564 0.179721 0.129076 0.240886 -0.155432 0.252448 0.011282 -0.203717 -0.094225 -0.170959 0.086180 0.049115 0.356366 0.021430 -0.088770 0.385886 0.024248 0.190463 -0.158889 -0.159214 0.203973 -0.086496 -0.363925 0.063532 -0.019342 0.022281 -0.137265 0.027495 0.102306 -0.251065 0.046199 -0.017866 0.281844 -0.308829 -0.125895 -0.235599 0.261547 -0.164557 0.069223 0.229125 -0.201996 -0.050370 0.179037 -0.163980 0.057945 -0.208361 0.181776 -0.110693 0.419373 0.312027 -0.144215 -0.195510 0.482156 0.092334 -0.137141 -0.144996 -0.195416 0.013726 -0.412211 0.189224 0.151583 -0.197664 -0.114642 0.239886 -0.096271 -0.301798 0.226245 -0.227216 0.235415 -0.208266 0.255388 -0.238537 0.019625 0.135242 0.065444 -0.047808 -0.011019 0.017102 -0.232913 -0.089839 0.010883 -0.253414 0.028312 0.059468 0.056574 -0.298068 -0.227461 -0.190084 0.200347 0.194865 -0.212691 -0.164060 -0.133278 -0.101296 0.096780 -0.001548 0.181320 -0.188723 -0.036919 -0.166750 0.304256 0.438518 -0.094710 -0.155884 -0.077864 0.020598 0.156336 -0.048941 0.141181 0.246426 -0.241161 -0.157512 0.205689 0.450544 -0.261360 -0.304526 0.050584 0.094156 -0.073383 -0.216178 0.145198 -0.131126 -0.497944 0.017593 0.202854 0.134202 0.200797 0.395155 -0.043813 -0.254726 -0.178231 -0.050299 -0.001520 0.212028 0.206559 0.018004 -0.002849 -0.189218 1.363572 0.310341 0.080132 -0.074101 -0.141540 0.203941 0.144053 -0.048361 0.058601 -0.113077 -0.388434 -0.186981 0.178021 0.092020 0.006054 0.161435 0.009962 -0.276630 -0.032775 0.056497 0.081422 -0.375356 -0.226424 -0.107579 -0.280789 -0.490350 -0.172493 -0.015028 -0.172822 0.296833 0.209037 0.107437 -0.064904 
他 3.104142 -0.165204 0.133815 -0.250691 -0.330003 -0.124193 0.373895 -0.001236 0.660339 -0.035100 -0.088917 0.439996 -0.142869 -0.252312 -0.092330 -0.319157 0.489332 -0.054481 0.341777 0.093291 -0.411908 -0.199640 -0.064925 -0.156222 0.056419 -0.194176 -0.299771 -0.274510 0.254936 0.019732 -0.098337 -0.048413 -0.063646 0.066705 -0.084770 -0.109450 -0.023716 -0.274747 0.090155 -0.175202 0.218242 -0.215547 0.114501 -0.011904 0.120828 -0.027685 0.283329 -0.022414 -0.235492 0.106671 0.081792 -0.270055 -0.184319 -0.226898 0.381181 -0.232318 0.011345 -0.136593 0.106486 -0.066768 -0.275175 -0.167595 0.356232 0.088882 -0.184188 0.024248 -0.130881 0.202224 0.221493 0.057565 -0.085708 0.174656 0.094089 0.055040 0.101189 0.125676 -0.223503 -0.030662 -0.002717 0.234829 0.139199 0.399016 -0.054207 -0.008913 0.151327 -0.376498 -0.087383 0.075482 -0.010725 0.070363 0.199954 0.175929 -0.287856 0.130506 0.307419 0.015494 0.007769 0.097062 0.211583 0.215103 -0.067377 -0.135494 -0.200536 0.110350 0.081922 0.147734 -0.243592 0.043388 0.130560 -0.015228 -0.119807 0.099888 -0.073349 0.160953 -0.272238 -0.107571 0.347273 -0.018924 0.095742 -0.176468 -0.124574 0.129200 0.150087 -0.212557 -0.022193 -0.129067 -0.054676 -0.057453 -0.087259 -0.323320 -0.036973 -0.065012 -0.141605 -0.062901 -0.049772 0.221372 0.206054 0.160933 0.014667 -0.206737 0.130384 -0.020435 0.097550 0.096629 0.066850 0.019171 0.206692 0.132177 0.078227 0.302640 0.122627 -0.200252 0.302327 0.027763 -0.104158 0.107257 0.363057 -0.324330 -0.010685 0.225566 -0.039546 -0.042114 0.108397 0.183483 -0.429039 -0.207277 -0.087264 1.791130 0.285116 -0.124113 -0.007724 -0.114521 -0.095703 -0.040587 -0.130937 0.153902 0.011388 0.037695 0.243502 0.156057 -0.058070 -0.115898 0.319585 0.022046 -0.001253 0.172062 0.094244 -0.047635 0.158659 -0.099903 -0.021163 -0.131618 -0.049418 -0.194251 0.005228 -0.116328 0.501168 0.284914 0.078640 -0.128089 
和 -0.623886 -0.100286 0.273050 -0.428961 -0.048905 0.089632 -0.167016 -0.099516 0.105542 0.230136 0.441490 0.583765 0.002987 -0.317451 -0.201157 -0.386025 -0.210790 -0.496292 -0.193630 0.870203 -0.018291 0.140852 0.092765 0.032564 -0.115700 0.019261 -0.289428 -0.278071 -0.008881 -0.004539 0.054530 0.044188 0.295433 0.087900 0.111919 -0.451405 -0.035017 0.388620 -0.100727 0.394568 -0.047637 0.098225 0.388238 -0.175990 -0.229236 0.078533 0.106705 -0.146073 0.237248 0.106895 -0.008107 0.111187 -0.336342 0.052537 -0.109507 0.348988 0.054159 0.115290 -0.050700 -0.110555 0.060587 -0.170325 -0.144996 -0.165050 -0.383687 -0.245485 -0.114502 0.093799 0.060972 -0.374122 0.042386 0.051190 0.088369 0.000666 -0.165439 -0.221950 0.045901 -0.131854 0.040661 0.002654 0.125068 -0.148756 0.051874 0.073915 0.074193 -0.105010 -0.010577 0.082191 0.106432 0.091148 -0.055535 -0.408247 -0.050262 -0.174029 -0.101819 -0.086025 -0.205230 0.005895 -0.090184 -0.240493 0.284980 0.044306 0.045148 -0.208955 -0.174430 0.005472 0.009838 -0.222923 -0.073917 -0.131849 0.278718 0.176538 -0.061842 -0.007851 0.015495 0.467963 0.082247 0.053434 0.157324 0.074136 0.161367 -0.014162 0.303441 0.015323 0.155547 -0.223058 -0.002410 -0.087397 0.116106 0.002412 0.103326 0.204377 -0.028650 0.146378 -0.433152 -0.479285 -0.233068 0.317442 -0.016806 0.007084 0.151113 -0.012482 0.054777 -0.059476 -0.080631 -0.038881 0.027165 0.391655 -0.032887 0.070552 -0.204658 0.132137 -0.123158 0.169700 0.143118 0.079143 -0.353795 -0.226227 0.251215 -0.097420 0.337640 0.063400 -0.042961 0.494922 -0.035556 -0.062614 0.047843 1.111125 -0.236251 0.101222 0.001103 -0.041018 0.326810 0.091903 0.125785 -0.070821 -0.235675 0.121403 0.091815 0.070430 -0.063931 -0.213264 -0.171391 -0.250087 0.044212 0.033642 -0.171978 0.186318 0.180257 0.093291 0.001192 0.132944 0.161716 -0.078787 0.078740 -0.087386 0.155985 -0.111715 0.238254 0.170243 
有 0.398179 0.503200 0.083041 0.302329 -0.123849 -0.041424 0.305531 0.010584 -0.001518 -0.214428 -0.287415 0.166372 0.554250 0.058030 -0.013882 0.090273 0.171526 -0.940537 0.022537 0.193410 0.108172 0.007353 -0.106048 0.018838 0.061622 -0.067592 0.321296 -0.159090 0.015153 0.186540 0.121612 -0.278333 0.203310 -0.069980 0.295576 -0.402238 0.034804 0.120209 0.241638 -0.183836 0.184773 0.144711 0.083013 -0.081819 0.394504 -0.286136 0.086033 -0.101532 0.001410 -0.032272 -0.001351 0.041252 0.210865 0.052782 -0.003637 -0.008747 0.035103 -0.280512 -0.150588 0.171426 -0.104310 -0.256958 0.273826 0.219881 -0.229830 0.055691 0.116095 -0.236750 -0.275022 0.465370 -0.256563 0.187449 0.172812 -0.018860 -0.183915 0.163446 -0.055446 -0.127602 0.225714 0.257971 0.014201 0.073456 0.007099 0.097897 0.019398 -0.131375 -0.113365 -0.132671 -0.059067 0.162887 -0.147677 0.085110 0.148603 -0.098561 -0.157361 -0.009608 -0.330143 -0.076437 -0.153800 0.106248 -0.120829 -0.042855 -0.251948 -0.041014 0.188471 -0.058691 0.097022 -0.002746 0.109790 0.083669 0.017470 -0.246220 -0.248506 0.331141 -0.072698 0.013668 -0.054753 0.194844 0.113954 -0.304055 0.289941 0.043235 -0.159069 -0.190710 -0.042196 0.127470 -0.196184 0.083955 0.294260 0.289902 -0.083775 -0.105352 -0.148666 -0.041578 0.250907 0.379984 -0.044545 -0.414517 0.130645 0.206797 -0.176661 0.340558 0.169259 -0.090322 0.158870 -0.067629 0.163138 0.326452 -0.032875 0.199975 -0.059148 -0.140700 -0.139715 0.186426 -0.049797 0.018078 0.070877 -0.070740 0.270692 -0.063823 -0.372040 -0.028774 -0.098139 -0.013401 0.041095 0.036568 -0.148569 1.301808 0.042137 0.226822 0.117557 0.154939 0.219982 -0.070365 0.026495 -0.074930 0.139109 -0.177215 -0.036761 0.253166 -0.189030 0.306222 0.153610 -0.163375 -0.435320 0.074977 -0.170933 -0.037641 -0.312173 -0.369480 -0.089220 -0.205120 0.079827 -0.030147 0.322766 0.445064 0.401158 0.572758 0.008623 0.143264 
你 3.102360 0.194421 1.143956 0.091924 -0.009958 -0.158011 0.476941 -0.278808 0.296442 -0.030609 -0.248443 0.494062 -0.479301 -0.104848 0.089747 -0.301525 0.581831 -0.119772 0.559587 0.213422 0.054723 0.381330 0.314993 -0.037562 0.256622 0.044198 -0.147158 0.019545 -0.020615 0.082392 0.211286 0.236330 -0.208384 -0.402207 -0.007880 -0.162576 -0.015340 0.368793 0.104921 -0.289941 -0.342684 -0.178976 0.405570 -0.045310 0.073241 -0.117285 -0.084505 0.091690 -0.048373 -0.272173 -0.000587 -0.161714 -0.025607 -0.350897 0.309985 0.284189 -0.174182 -0.571389 0.136018 -0.005465 -0.452358 -0.083077 0.522476 -0.331052 -0.363515 -0.140488 0.128426 -0.147590 0.084965 0.437959 -0.158794 0.001243 -0.105870 0.296629 0.184492 0.017022 0.009149 -0.089438 0.256082 0.251019 -0.158416 -0.167516 -0.024233 0.227422 -0.017740 0.273630 0.267469 -0.035425 -0.542967 0.413766 -0.383636 0.059963 -0.014106 0.132481 0.141649 -0.126238 -0.105546 -0.223780 0.048729 -0.024367 0.326060 0.470237 -0.361850 -0.108620 -0.037787 0.318974 0.253188 -0.290308 0.140797 0.050718 -0.087676 0.168200 0.103718 0.312869 0.061392 0.135947 0.113543 -0.080714 -0.008983 0.108069 -0.007256 0.250018 0.140140 -0.192821 -0.123254 0.164364 -0.387366 0.071281 0.199094 0.088996 -0.316104 -0.050743 0.016947 0.319579 -0.288291 -0.168434 0.289030 0.129803 0.066428 -0.153003 -0.056489 0.182528 -0.026730 -0.058373 -0.406019 0.423348 0.293672 -0.118704 0.143693 0.413482 -0.130381 -0.204525 -0.112855 0.246045 0.072931 -0.063860 0.323632 -0.231777 0.153453 0.117126 0.064319 0.117231 -0.008572 0.092800 0.156184 0.128998 0.253440 1.474024 0.130615 -0.326356 -0.093761 0.068235 0.171057 -0.126833 -0.006929 0.290513 0.238103 -0.014783 0.134628 0.196241 -0.269002 -0.028290 0.103544 0.268766 -0.231455 0.020016 0.057095 0.012488 0.008309 0.142876 -0.308210 0.049243 0.286060 -0.448590 0.092927 -0.290334 -0.035020 0.321907 0.420359 -0.069677 
也 2.089934 0.403588 0.069810 0.130820 -0.357007 0.026316 0.475111 -0.263239 0.365122 0.322656 -0.254156 0.189125 0.093777 -0.438202 -0.015821 -0.173139 0.663924 -0.042284 -0.007745 0.192357 -0.078640 0.180469 -0.041604 -0.129090 -0.328378 -0.056392 -0.164739 0.029934 -0.259604 -0.005480 -0.245544 0.164359 -0.020508 -0.003341 0.134376 -0.294552 -0.351264 -0.078461 0.284559 0.042169 -0.167779 -0.163946 0.024207 -0.115776 0.072168 -0.230689 0.158460 0.088751 -0.129334 -0.037899 -0.118684 -0.037184 -0.188641 0.135273 0.312811 0.093569 -0.034797 -0.211519 0.142004 0.254744 0.320604 0.289221 0.133324 -0.088769 0.176022 -0.026745 0.006130 0.144783 -0.221102 -0.137286 0.081997 -0.144086 -0.100114 -0.227893 0.079384 0.161913 -0.421882 -0.259546 0.027991 0.306748 0.274234 -0.107419 0.147961 -0.050268 -0.240648 -0.320456 -0.063119 0.175879 -0.133153 0.156675 -0.057342 -0.152163 -0.078747 -0.118626 -0.085882 0.036478 -0.245547 -0.160913 -0.133725 0.017773 -0.165775 -0.178712 -0.192930 -0.056966 -0.144975 0.184722 0.219993 -0.094305 -0.136984 0.022009 0.209840 -0.062985 -0.010938 -0.216838 0.099572 0.022424 0.320497 0.038646 -0.379220 0.187175 0.128372 0.088314 0.153061 -0.052442 -0.109136 0.067497 -0.099930 -0.169360 -0.174638 -0.142192 0.055411 0.169547 0.082256 0.179466 0.261736 -0.175063 -0.033064 0.005838 0.052258 -0.252689 -0.186089 -0.040414 0.112719 -0.383020 0.014604 0.062389 0.093495 -0.054712 0.056393 0.344637 0.241424 -0.070866 -0.141556 0.042351 0.248913 -0.105540 0.150951 -0.127434 0.123344 0.193943 -0.015092 -0.152325 -0.157662 -0.131294 -0.070701 -0.112746 0.120880 1.165063 0.250055 -0.154064 0.060065 0.059985 -0.023321 0.027923 -0.218742 -0.127284 -0.095799 -0.061751 0.162760 -0.254519 -0.126968 0.213081 -0.035789 0.098838 -0.125057 -0.386132 0.129496 -0.076738 -0.326942 -0.173262 0.050546 -0.111771 0.160943 0.029810 0.002451 -0.193331 0.182520 0.029021 0.411029 -0.136414 
就 1.874759 0.026138 0.207728 -0.392722 -0.023071 -0.043181 0.934660 -0.242351 0.103726 0.044581 0.104112 0.103488 -0.188006 0.283007 -0.309890 0.274137 0.474492 -0.112585 -0.095836 0.428498 0.085147 0.408554 -0.136639 -0.395588 -0.003832 -0.240271 -0.190346 0.140345 -0.496981 -0.277473 -0.500255 0.192890 -0.276548 -0.213398 0.316152 -0.484047 -0.069602 0.110471 0.332402 0.133283 0.144882 0.082954 0.140996 0.240524 0.239339 0.111818 0.375573 0.266711 -0.328199 -0.288423 -0.315061 -0.255250 -0.163545 -0.092958 -0.055804 0.592601 -0.300045 -0.091664 -0.076676 0.308128 -0.497715 0.331407 0.317682 -0.118564 0.017609 -0.148632 -0.022590 -0.213630 0.142266 0.368226 -0.322661 0.082631 0.048357 0.116725 0.123740 -0.414128 -0.051111 0.107776 0.043452 0.112097 0.295644 0.169590 -0.247065 0.167177 0.039463 -0.426107 0.052491 -0.247843 0.026710 0.126547 -0.377689 0.403623 -0.072303 -0.357611 0.025063 0.065269 -0.460024 -0.055146 -0.230666 -0.053744 0.573338 0.223676 -0.141783 0.409115 -0.122787 -0.180529 0.085505 0.124293 -0.040974 0.184605 0.009364 -0.006315 -0.138217 -0.301285 -0.142027 -0.055734 0.045834 0.020740 -0.421453 0.185635 0.099307 -0.010783 -0.026820 -0.138772 0.223928 -0.017168 -0.543244 -0.100751 0.030587 0.043524 0.364978 0.210738 0.326665 0.590756 -0.263579 -0.405750 0.314735 -0.323308 0.272958 0.227967 -0.285922 -0.264403 0.020621 -0.533616 -0.250384 0.092190 0.155313 0.115196 -0.493975 0.317952 -0.088917 -0.021739 -0.017718 0.518189 0.030785 -0.199007 0.264545 0.092871 -0.407778 0.074229 0.174092 0.189235 -0.204739 0.222470 -0.393020 0.038702 -0.572002 1.338571 0.487951 0.042485 -0.269368 -0.061768 0.314073 -0.117003 0.076061 0.235031 0.451587 -0.219691 0.350425 -0.210302 -0.255113 -0.044511 -0.104448 -0.136430 0.074824 0.004263 -0.092789 0.044955 -0.305476 0.143362 0.222630 0.103016 0.231451 -0.628546 0.434596 -0.135283 0.298019 -0.272048 0.414680 -0.244673 
人 1.284172 -0.123812 0.341492 0.101502 0.244760 -0.041372 0.281836 0.014344 0.015151 0.247155 -0.538338 0.169000 0.566027 0.229122 -0.142772 -0.293036 0.230800 -0.037673 0.005362 -0.068478 -0.435657 0.109791 -0.025022 0.025923 0.108509 -0.100032 -0.146566 -0.004632 -0.199069 0.189933 -0.022574 -0.021810 0.001639 0.117141 -0.264066 0.489558 -0.123578 -0.256918 0.194021 -0.023474 -0.368084 0.087004 -0.045593 0.189988 -0.029147 -0.178031 -0.058406 0.294008 0.288190 0.197872 -0.195682 0.199643 0.053373 0.182712 -0.363465 -0.067779 0.183479 -0.135824 0.101207 0.283420 0.654268 0.280950 0.182186 -0.251072 -0.475192 -0.077646 -0.280273 -0.162875 0.087202 -0.047050 0.137607 0.513909 0.109149 0.233803 -0.084734 -0.115313 0.188207 -0.014098 -0.030074 -0.092052 0.339940 -0.037763 0.127583 0.075406 0.028404 -0.199800 0.097404 0.035235 -0.185464 0.082834 0.115627 0.306364 0.470182 0.162325 0.110400 -0.469760 0.069657 -0.369881 0.073638 -0.215889 0.224519 -0.014034 -0.072290 -0.014016 0.037243 -0.095217 -0.220096 -0.329388 -0.218296 -0.302574 -0.147451 -0.248195 -0.089701 0.215194 -0.247087 -0.027285 -0.070324 0.175320 -0.200136 0.079568 0.327706 -0.051131 -0.175321 -0.026228 0.149062 0.266141 -0.134164 -0.098775 0.065591 0.389731 0.222542 -0.085634 0.324728 -0.219634 -0.061213 0.021423 -0.090559 0.271536 0.113051 0.060310 0.098482 0.213151 0.279053 0.006963 0.505765 -0.388517 -0.195089 0.162736 -0.195146 0.403140 0.314566 0.193543 0.204180 -0.024788 -0.009323 0.046042 0.278212 -0.166850 0.453860 0.333509 -0.051212 0.245968 0.025484 -0.038012 -0.005359 -0.164174 -0.083194 0.822420 -0.070973 0.633239 -0.080774 0.068157 0.415280 0.010824 -0.136264 -0.143534 0.154188 -0.015603 -0.081126 -0.114436 0.404028 0.002768 -0.026609 0.278869 -0.025585 0.180856 -0.162902 0.141813 -0.236247 0.133045 -0.114153 -0.097464 0.091167 -0.124203 0.410785 0.179728 0.494436 0.085439 -0.060046 -0.137180 
上 0.810088 0.249769 -0.075612 -0.174284 0.423739 -0.116483 0.419827 -0.676832 -0.351797 0.333818 -0.076615 0.309015 -0.004284 0.182686 0.009946 -0.146435 0.399601 -0.509043 0.105954 0.345483 -0.063766 -0.017798 -0.183650 0.171527 0.122593 0.492383 -0.496969 -0.176074 0.006685 0.047595 -0.043356 -0.078368 0.118304 0.043723 -0.117255 -0.297893 0.406589 0.124661 -0.389161 0.003574 -0.053593 -0.159805 -0.163972 -0.058872 0.298627 0.300717 0.000973 -0.324788 -0.148933 0.009542 0.330492 -0.073215 0.104617 -0.156288 -0.239048 0.080052 0.105075 -0.155901 0.010445 0.032047 -0.017910 -0.133666 -0.099550 0.319407 0.071316 0.206287 -0.079677 0.180438 -0.209539 -0.208893 0.298261 -0.262978 0.097496 -0.296696 -0.293208 -0.327435 -0.138801 0.352354 -0.154458 -0.137105 0.146381 -0.049610 0.010973 -0.168593 -0.152001 -0.022446 0.120873 0.043509 0.435820 0.067142 -0.196232 -0.174004 0.211938 -0.308413 0.215838 0.009623 0.074985 0.016435 -0.220154 -0.020537 -0.008334 0.032001 0.374768 0.380604 0.264944 -0.261155 -0.273196 0.203418 0.156865 -0.115310 -0.046318 -0.176829 -0.038008 0.200684 0.108244 0.045213 -0.036803 -0.029204 0.063523 0.079802 -0.108755 0.112983 0.071115 -0.037438 -0.315482 -0.030585 0.095378 -0.071459 0.471175 0.083840 0.304613 -0.277642 0.184076 0.285078 0.049560 -0.077569 0.122226 -0.204934 0.153485 -0.007020 -0.008186 0.153044 0.164972 -0.151632 0.445626 -0.040339 0.117081 0.281060 0.138555 0.094852 0.183596 0.295666 -0.199486 0.009567 -0.047040 -0.222145 0.225978 0.053460 0.165136 -0.024886 0.204339 -0.105625 -0.013917 -0.039992 -0.040786 -0.062923 -0.030781 1.138364 0.030111 -0.133564 -0.132742 0.520327 0.221414 0.174019 -0.235744 -0.128611 0.114679 0.036894 0.114373 0.368213 0.028131 0.182883 0.358412 0.073698 -0.035840 -0.179079 0.276177 0.341287 0.344131 -0.223533 -0.138309 0.146228 -0.039613 0.284662 -0.172144 -0.181619 -0.280460 -0.004425 0.279887 0.174347 
着 3.537408 0.485174 -0.404236 0.317554 0.117883 -0.051318 0.817037 -0.125369 -0.208096 0.653105 0.106420 0.511676 -0.324086 0.299681 0.271792 -0.415076 0.716973 -0.929126 -0.255094 0.477516 0.001843 0.268274 -0.075578 0.288315 0.213029 0.128127 -0.204027 -0.010906 -0.043652 -0.161324 -0.122759 -0.081490 0.456332 0.049104 0.214528 -0.337061 -0.262502 0.193066 -0.344137 -0.053121 0.023082 -0.247287 0.045189 0.020166 -0.081787 0.027323 0.202422 0.201944 -0.109165 -0.215189 0.025107 -0.264518 -0.020072 -0.158866 0.276094 -0.244333 0.190644 0.194971 0.070893 -0.064417 0.074559 0.089655 -0.223153 0.061559 -0.350414 0.234900 0.232895 -0.290501 0.062755 0.024318 0.290120 0.043137 -0.127307 0.138218 0.485084 0.121186 -0.146328 0.120535 -0.241810 -0.189169 -0.009016 -0.223398 0.158855 -0.055776 -0.193139 -0.106483 0.246240 -0.062292 0.470599 0.155288 -0.357541 -0.097922 0.338907 -0.298449 0.266221 -0.149812 -0.025134 -0.222466 -0.274645 -0.137334 0.116949 0.326237 -0.158105 -0.469492 0.183696 -0.131046 -0.126352 0.273417 -0.168357 -0.050929 -0.003042 -0.085857 0.186206 -0.046889 -0.036530 0.000710 -0.223315 -0.294434 -0.079194 0.306620 -0.114786 0.162507 -0.102353 -0.250250 -0.171894 -0.081019 -0.171268 -0.094131 -0.044940 0.123475 0.183223 0.103017 0.442836 0.224323 0.025443 0.055398 -0.413440 0.087054 -0.024125 -0.298491 -0.308327 0.059361 -0.117823 -0.087090 0.213912 0.118885 -0.158603 0.119324 0.362708 -0.004763 0.196510 -0.133589 -0.123690 0.193313 -0.316701 -0.169212 0.164277 -0.238468 0.629948 0.366112 -0.325906 0.000664 0.042441 -0.015577 0.263325 -0.048527 0.023370 1.321777 0.427862 -0.020894 -0.102799 0.491917 0.152433 0.037127 -0.277734 0.086430 0.111733 -0.136580 0.175101 0.101607 0.239970 0.012674 0.231698 -0.212745 -0.079742 -0.601123 0.110253 0.133283 -0.113441 0.292941 -0.198570 0.254503 -0.239127 0.034659 0.202645 -0.272961 0.264689 -0.465186 0.454374 0.092377 
都 1.009729 0.281665 0.343143 -0.258606 0.445836 0.007717 0.362021 -0.164864 0.020092 0.212380 -0.351110 0.066992 0.397803 -0.229322 -0.550729 0.075814 -0.150282 -0.164011 0.135815 0.022763 -0.027747 -0.206244 0.095295 0.037409 -0.057687 -0.264690 0.073565 0.077374 -0.109271 0.251869 -0.227451 0.206710 -0.177560 0.266013 -0.200271 -0.206358 -0.049919 0.260308 0.163430 0.029072 -0.122412 -0.074127 0.079734 -0.009168 0.158248 0.114476 0.435891 -0.182623 -0.362239 -0.179445 0.135620 0.248421 -0.110198 -0.025814 -0.293928 0.267297 -0.013039 0.021121 -0.085567 0.251074 -0.126620 0.173278 0.120354 -0.149178 0.235576 -0.313278 -0.116178 -0.118920 0.138251 0.071102 0.023419 -0.077030 0.123787 -0.046670 -0.043578 0.026280 -0.047598 0.096376 -0.179212 -0.105447 0.472842 0.142145 -0.243609 -0.091889 -0.121989 0.081938 0.398205 0.026141 -0.262752 0.064182 0.051442 -0.174484 0.409601 -0.322299 -0.082181 0.113639 0.170178 0.060047 -0.120784 -0.384357 -0.024328 -0.284138 0.455857 -0.015604 0.445950 -0.235001 0.099848 -0.005709 0.236331 -0.162141 0.287136 -0.396383 0.455440 -0.134857 0.285099 0.318889 0.181172 -0.027776 -0.073489 -0.017773 0.048763 -0.230385 -0.064389 -0.325773 -0.088269 -0.059704 -0.077675 0.172887 -0.180128 -0.114355 0.083430 0.068021 -0.129155 -0.078174 -0.221690 -0.002939 -0.152079 -0.207776 -0.070560 0.152105 -0.256278 -0.063478 0.110760 0.021494 0.232488 0.059301 -0.073665 -0.042206 0.355796 0.258182 -0.144804 0.307311 0.288992 -0.204258 0.123275 0.265539 0.125137 0.034756 0.152422 0.513512 0.044460 0.013024 0.271540 -0.278372 0.332162 0.300492 0.190925 0.900176 -0.182508 -0.029791 -0.050946 0.125477 0.338196 0.296411 0.265151 -0.117371 0.158867 0.145387 0.019399 -0.140044 -0.286958 0.229180 0.006539 0.285782 -0.125372 -0.285450 -0.217941 0.350691 0.096124 0.200648 -0.545754 0.034766 0.247436 0.029040 0.047898 0.310150 -0.047072 -0.136259 0.518678 -0.295132 
