142623 200
</s> 0.000565 0.000444 -0.000356 -0.000276 -0.000377 0.000999 0.001839 -0.000937 0.000015 0.000076 0.001511 0.000720 -0.000787 0.001559 -0.000470 0.000843 0.000216 0.001041 0.000784 -0.000107 -0.001505 0.000530 0.000343 0.001650 0.000275 0.000431 -0.000658 -0.001930 0.000837 0.001249 -0.002102 -0.000931 -0.001184 -0.001338 0.001014 -0.000902 -0.001206 -0.000908 0.000448 -0.001033 -0.001118 -0.000122 0.000480 -0.001188 0.000984 0.000482 0.000614 0.000650 -0.002077 0.000045 0.000158 0.001628 -0.000009 0.000398 0.000589 0.001940 -0.000877 -0.001172 0.001109 -0.000435 0.001608 -0.000541 -0.000954 -0.001252 0.000143 -0.000127 0.001385 -0.000988 -0.000444 -0.001040 0.001291 0.000473 -0.000556 0.000511 0.000538 0.000751 0.000166 -0.000048 -0.000050 -0.000017 -0.000677 -0.000265 0.000719 0.000760 -0.000020 0.000909 -0.000590 0.001241 -0.000675 0.000718 -0.000857 -0.000216 -0.000804 -0.001986 0.000000 0.000883 0.000443 -0.000283 -0.002264 -0.001967 0.000829 -0.000447 0.001912 0.000248 0.000575 0.001528 -0.000322 0.001738 -0.001483 -0.001111 0.000958 0.000123 0.000006 -0.001909 -0.000800 -0.000987 -0.000698 -0.000864 0.000049 0.001069 0.000739 0.000162 0.000001 0.000370 0.000270 -0.000519 -0.001053 0.000762 -0.000382 -0.001352 0.001349 0.000550 0.001133 0.001731 -0.000917 0.000792 -0.000452 -0.001995 0.002104 -0.000748 0.002430 -0.000395 0.000399 -0.001981 0.000091 -0.000298 0.001916 0.002342 0.000155 -0.000636 0.000831 -0.000773 0.000941 -0.001285 -0.001730 -0.001857 -0.000828 0.001800 0.000606 -0.002261 -0.000966 -0.000402 -0.000469 0.000602 -0.000279 0.001576 -0.000535 -0.000487 0.001258 0.000980 -0.000854 0.000846 -0.000480 0.000041 -0.001518 -0.001191 -0.000637 -0.000315 -0.000200 0.000259 -0.002082 -0.000189 -0.000947 -0.001809 -0.000209 0.000512 0.001671 -0.000025 0.000023 -0.000185 0.000144 0.000520 0.001406 -0.000308 -0.000027 -0.001713 -0.000066 0.000190 -0.000702 0.001738 
the 0.062923 -0.113016 -0.381614 -0.681233 0.277916 0.008184 0.085500 -0.626661 0.513532 -0.114060 0.376576 0.291574 0.005235 0.344596 -0.329850 -0.317181 0.147495 0.010453 -0.203744 0.202434 -0.136873 0.003308 0.172195 0.083590 0.411818 0.078343 0.015758 -0.025111 -0.036468 -0.250258 0.106656 -0.298906 -0.164360 0.157270 -0.220278 -0.195645 0.095976 -0.252578 0.169104 -0.014264 -0.225381 -0.225773 0.063503 -0.061207 -0.061391 -0.132565 0.060092 0.204623 -0.152662 0.070241 -0.306230 -0.101301 0.067222 -0.328192 -0.168213 0.223156 0.013378 -0.257555 0.173044 0.020412 0.184383 0.171684 -0.024470 -0.046422 -0.034325 0.038215 -0.017609 -0.016297 -0.094515 0.127919 0.021835 0.027546 0.018502 -0.162514 0.025503 -0.244159 -0.053149 0.208069 -0.051053 0.030680 -0.152066 -0.209174 -0.039721 -0.198168 0.227310 -0.086124 0.122755 0.031435 -0.026114 -0.132328 -0.081667 -0.190842 -0.108480 0.041864 0.061804 -0.127200 0.282158 0.286164 0.249605 0.186395 -0.138676 0.138746 0.251811 0.042851 0.226273 0.101943 -0.030507 0.201777 0.040472 0.041212 0.037805 -0.267638 -0.081796 0.087309 -0.170642 0.125586 -0.235466 0.066960 0.249219 -0.242517 0.370681 0.192780 0.288489 -0.297591 -0.057776 -0.034833 -0.180568 0.054086 0.298507 0.402845 -0.307737 0.345664 -0.089260 0.212611 0.074198 0.063543 -0.135231 0.130903 0.282275 -0.198831 -0.122230 -0.063902 0.030574 -0.213303 0.016006 -0.073503 0.217916 0.197883 -0.088909 0.140364 -0.217711 -0.312413 -0.074928 0.410963 -0.076294 -0.179859 0.210049 0.155398 -0.211529 -0.094134 -0.003543 -0.096653 0.120822 0.252305 -0.088486 0.053746 -0.017566 1.431005 0.180514 0.075236 0.087886 -0.154376 0.002902 0.065843 -0.113226 0.084625 -0.087616 -0.255010 -0.059301 0.049188 0.244566 -0.220644 0.306614 -0.058016 -0.086281 0.104817 0.325149 0.115622 -0.010080 0.046320 -0.062282 -0.056729 -0.447133 0.096020 0.426807 0.110302 -0.094062 0.102678 -0.319597 -0.224006 
of 0.314411 0.167484 0.172377 0.139716 0.082223 0.068055 0.105598 -0.193235 0.107926 0.374953 0.029327 0.169697 0.068270 0.075895 -0.113794 -0.034866 0.138333 -0.074074 0.018601 0.422981 -0.055186 0.031579 0.014215 0.057459 0.080280 0.006169 -0.211378 -0.209055 0.168939 0.008510 0.019964 -0.003608 -0.012246 0.227461 0.013179 -0.094818 -0.050066 -0.055423 -0.054872 0.102264 0.031595 -0.023954 0.173185 -0.045569 -0.015977 0.026108 0.012329 -0.094925 0.008105 0.101083 -0.010629 0.057329 -0.018948 -0.009111 -0.005429 0.082910 0.092397 0.131194 0.005309 -0.038700 0.025514 0.108120 -0.057341 -0.000734 -0.004002 -0.002801 -0.055819 0.008068 -0.028463 -0.070948 0.119206 0.064214 -0.027618 0.046772 -0.130159 0.148075 -0.113066 0.020893 -0.104020 -0.120694 0.070143 -0.181626 -0.045415 -0.102190 0.079116 -0.154470 0.057084 0.042130 0.093998 -0.009418 -0.147282 -0.069996 0.015196 -0.162950 -0.032727 -0.055531 0.119993 -0.044596 -0.069823 0.031160 -0.009277 0.007226 0.167514 0.035237 0.086019 0.028225 0.027834 0.035932 0.037068 -0.039718 -0.077276 -0.135263 0.059191 0.028465 -0.072070 0.054506 -0.087627 -0.074754 0.051601 -0.013974 0.208928 -0.091369 0.083987 -0.053029 -0.073065 0.059307 0.004386 -0.177467 0.039979 0.092341 0.020490 0.073124 0.058350 -0.024528 -0.201456 0.058800 -0.098026 0.027120 -0.044497 -0.093936 -0.050046 0.187878 0.147857 -0.083781 0.046279 -0.034347 -0.042657 0.045577 0.080604 0.200990 -0.054209 0.061715 -0.046957 -0.069664 0.058597 -0.029245 0.162787 -0.161314 0.055724 0.111667 -0.014173 0.016980 0.085632 0.015246 -0.009480 0.056142 0.047233 1.427129 -0.020229 0.066976 0.063238 -0.008079 0.094530 -0.099603 0.043524 -0.042902 -0.020825 0.029260 -0.004595 0.063250 0.085391 -0.100334 0.127464 -0.080206 -0.010332 0.044106 0.033839 0.089183 -0.071645 -0.058877 -0.112498 -0.170373 -0.201701 0.030261 0.081527 0.152529 0.010926 -0.130596 0.044530 -0.067343 
and 0.134623 0.001305 -0.114393 -0.395304 -0.267755 0.351665 -0.267261 -0.056079 0.616179 -0.039944 0.660258 0.358283 0.118070 0.334964 0.090523 0.072122 -0.127324 0.071437 -0.086071 0.377608 0.029625 -0.076398 -0.153549 -0.027952 0.225033 -0.057712 -0.084687 0.044485 0.076097 -0.051090 -0.478985 0.024202 0.002910 0.376020 -0.131472 0.502114 0.059911 0.382275 0.077627 0.154856 -0.024767 -0.000090 0.028901 0.133333 0.068746 -0.149674 -0.290071 -0.061126 -0.060977 0.192345 0.050340 -0.059614 0.128604 0.269450 -0.027812 0.395468 -0.035469 0.009246 -0.179968 -0.122735 0.129265 -0.261501 -0.181256 0.192266 0.060132 -0.101365 -0.077903 -0.139273 -0.275171 0.109749 -0.172428 -0.135231 -0.204842 -0.024396 0.039792 0.057326 -0.127844 0.027465 0.099579 0.182372 -0.186544 -0.079917 -0.254337 -0.286870 0.212277 -0.066616 -0.133923 -0.089261 0.100692 -0.015067 -0.112073 -0.017251 0.168848 0.067476 0.093492 0.350174 0.133111 0.079233 0.114510 -0.183721 -0.143170 -0.051196 -0.060507 0.093803 -0.032771 -0.060803 0.128460 -0.143628 -0.068261 -0.209418 -0.112097 -0.050639 -0.210396 -0.026125 0.158034 0.220089 -0.078603 0.056036 0.189157 -0.046383 0.119031 0.213746 0.430522 -0.193207 0.210007 -0.285728 -0.145827 0.180848 -0.172526 -0.020250 -0.428007 0.027458 -0.008712 0.183830 -0.094900 0.215070 -0.008209 -0.082139 0.064073 -0.161716 -0.297665 -0.119258 0.056884 0.066628 0.030141 0.056335 0.233172 -0.036751 0.299237 0.025927 0.061690 -0.083203 -0.188118 0.190591 0.067552 0.223542 0.125335 -0.370429 0.215171 0.410199 -0.087712 -0.184975 0.131981 0.331701 -0.027132 -0.154139 0.209541 2.008315 0.189147 -0.154772 0.010269 -0.181902 0.356270 0.153359 0.100962 -0.046250 0.464442 -0.053429 -0.350005 -0.021146 0.071831 -0.079059 -0.098771 -0.028694 0.277989 -0.175451 -0.107119 -0.053179 -0.159647 0.198422 0.177602 -0.007928 -0.014615 0.049253 0.043602 0.060757 0.092195 0.124310 -0.244530 -0.292918 
in 0.282757 -0.012039 -0.415265 0.162934 0.136320 0.050614 0.245658 -0.223213 0.283932 -0.082541 -0.044258 0.395428 0.016049 0.136389 0.126879 -0.050754 0.134204 -0.229415 -0.088498 0.187534 0.104883 -0.251360 -0.044339 0.035719 -0.152282 0.122879 -0.254359 -0.128908 -0.002103 -0.041176 -0.027520 -0.027562 0.093605 0.191683 -0.180585 -0.094591 -0.036746 0.130801 -0.189533 -0.007533 -0.069434 -0.071192 -0.056444 -0.026028 -0.190257 0.109570 -0.065834 -0.131827 -0.058926 0.073880 0.084441 0.084122 -0.042126 -0.199800 -0.038707 0.079283 -0.033123 -0.022679 0.074248 -0.162626 -0.163106 0.087675 -0.160463 -0.031809 0.050340 0.004702 -0.114140 0.000535 -0.083606 -0.088619 0.021740 0.019401 -0.003237 0.041538 -0.232253 0.018941 -0.000544 0.214714 -0.216034 -0.115114 -0.013906 -0.065710 0.029901 -0.087250 -0.040408 -0.187807 0.030147 -0.029752 0.102593 0.086605 -0.017940 -0.185573 0.037332 -0.068488 0.107115 -0.009194 0.147003 -0.071432 -0.244400 0.082716 0.077525 -0.071854 0.197279 0.117540 -0.004587 -0.061460 -0.010192 0.101720 -0.010074 -0.119287 0.083835 -0.109930 0.062067 -0.008262 0.049539 -0.154535 0.016370 0.044406 -0.003103 -0.071627 0.355002 0.024528 0.100703 0.084730 -0.113156 0.037092 0.028787 -0.041816 0.070792 0.015065 -0.037057 0.105792 0.122304 0.078726 -0.130548 0.159109 0.067740 0.109624 0.010561 -0.259522 -0.134602 0.042594 0.077737 0.090909 0.264232 0.035819 0.074614 0.229919 0.243469 0.094693 0.021978 0.006682 0.118990 -0.163563 -0.025290 0.021814 0.108554 -0.023496 0.105481 0.143924 -0.032392 -0.010593 -0.076460 -0.035171 0.003673 0.144510 -0.022445 1.181323 -0.022625 0.051648 0.004579 0.071278 0.000661 0.008371 0.012070 -0.116726 -0.056884 -0.026147 0.134159 0.028440 0.056272 0.110742 0.022001 -0.203071 -0.046785 0.159973 -0.004896 -0.032409 -0.072471 -0.080378 -0.098596 -0.234121 -0.422420 0.179085 -0.169605 -0.063745 -0.077402 0.049116 -0.081682 0.061701 
to -0.898808 0.639629 -1.029189 0.008391 0.021671 -0.321805 0.400924 0.073767 -0.148675 -0.261178 0.193259 0.231336 0.768565 0.020690 0.358127 0.046952 0.047243 0.163971 0.127244 0.466935 0.068666 0.098996 -0.353570 -0.332109 0.004708 0.386906 -0.224611 0.336250 -0.161666 -0.002018 -0.056914 0.043720 0.401309 0.040473 -0.285771 0.444610 0.241205 -0.088629 0.341799 0.231945 -0.184885 -0.040525 -0.222685 0.012260 0.002694 0.267178 0.068614 0.058628 -0.380998 0.399281 -0.118637 -0.117712 0.391755 -0.142045 0.032685 0.059047 -0.027217 -0.232489 0.002519 -0.163617 -0.133036 -0.148021 -0.376022 -0.085664 -0.190212 -0.232234 -0.028087 -0.012829 -0.290200 -0.049073 -0.181381 0.356847 -0.249651 0.101920 -0.067967 -0.511443 0.286074 -0.150029 -0.027092 -0.165642 -0.248309 0.356483 -0.507471 0.073600 0.063223 -0.182628 -0.227884 -0.170859 0.007681 -0.113673 0.296472 0.264970 0.080610 0.576726 -0.123110 0.053272 0.139838 0.103066 -0.415751 -0.025281 -0.061270 0.039538 -0.130463 -0.377598 -0.356471 -0.118869 0.021865 -0.057069 -0.205335 0.437887 -0.239663 0.114537 -0.242693 0.102748 0.178302 -0.122378 -0.229754 0.336458 0.406172 0.091738 -0.023048 -0.044047 -0.183797 0.138249 -0.230446 0.334294 -0.017469 -0.049748 0.219413 0.386934 -0.102623 -0.053791 -0.046870 0.199920 -0.074222 0.225254 -0.213189 0.255985 -0.120216 -0.092970 0.048655 -0.030519 0.007172 0.189065 -0.108959 -0.233954 0.109970 0.145090 0.057377 -0.095741 0.150447 -0.188132 0.235334 0.113747 0.030574 -0.263553 0.256768 0.101468 -0.307519 -0.564344 0.497041 0.055304 0.092642 -0.147864 -0.169178 -0.008532 0.124358 1.028999 0.171496 0.002731 0.038766 -0.112808 -0.040242 0.210058 0.016978 -0.111848 -0.126300 -0.136075 0.035476 -0.201274 0.117916 -0.102249 0.125280 -0.134614 -0.008521 0.444884 -0.137237 -0.368981 0.144864 0.353851 0.191108 0.235694 -0.362304 -0.023284 0.015933 -0.280260 0.179483 0.305047 -0.385971 0.450317 
was -0.132644 -0.456055 -0.698458 -0.473109 -0.255737 -0.183465 0.019030 -0.220380 0.187678 -0.321886 0.320984 0.467029 0.301398 0.452099 -0.151362 -0.293813 -0.426099 -0.029620 0.298499 0.058821 -0.011925 -0.128718 -0.095101 -0.028465 0.436093 0.614043 -0.544174 -0.164199 0.038496 0.021757 -0.291628 -0.021334 -0.008080 0.379070 0.084656 -0.056509 -0.125739 -0.103905 0.199374 -0.083301 -0.304017 -0.241992 0.235439 -0.280398 0.159565 -0.095456 0.296603 0.181867 0.110137 -0.023267 0.180279 0.311605 0.057430 -0.243838 0.625404 -0.146733 0.344990 0.370997 0.116893 0.115274 -0.333441 -0.457634 0.197787 0.068170 -0.102683 0.187125 -0.151459 0.302546 0.001249 0.140438 -0.012488 0.365690 -0.195254 -0.161061 -0.474184 -0.110368 -0.053077 -0.176527 0.131852 0.171983 0.276188 -0.044068 0.230820 0.426770 0.053269 -0.450388 -0.101598 -0.152028 0.126346 -0.570465 0.015624 -0.228702 -0.204713 -0.285837 0.179577 -0.126227 0.037262 -0.107205 0.179198 0.211083 0.083730 0.287093 0.065060 0.150749 0.011676 0.055907 -0.202700 0.323794 0.262032 0.097702 -0.503574 -0.105230 0.005922 -0.506980 -0.072323 -0.166674 -0.086404 -0.270010 0.321302 -0.293964 0.315589 -0.025783 0.067631 -0.080368 -0.075732 -0.101650 -0.065143 -0.321913 -0.105363 0.152960 -0.006215 0.121844 -0.112622 0.079826 0.033482 -0.329463 -0.195895 0.124247 0.223707 0.007266 -0.141017 -0.133429 -0.020961 -0.104202 -0.017972 -0.138219 0.246101 0.399161 0.353906 0.276265 -0.308351 -0.173017 0.215365 -0.137496 -0.069921 -0.001763 0.038971 0.297097 0.060397 -0.320455 0.253495 -0.185968 -0.050381 -0.261169 0.028357 0.026159 -0.209048 1.441777 0.199429 -0.035903 -0.045200 0.353359 0.429579 0.070196 0.136010 -0.051419 -0.106848 -0.023059 -0.057352 -0.195459 0.192898 0.518569 0.053208 -0.071421 -0.191230 0.172687 0.236577 -0.049013 -0.610439 -0.045127 0.160850 0.055358 -0.224466 0.083178 0.059444 0.063605 0.031501 0.369252 -0.377505 -0.050228 
is 0.199622 0.717098 -0.401650 -0.539128 0.268458 0.261300 -0.539523 -0.233981 0.335285 0.141111 -0.276029 0.277991 0.054527 0.257153 -0.237747 0.120768 -0.472041 -0.441520 0.216200 0.385848 -0.075369 -0.159267 -0.484326 0.145698 0.189709 0.238013 0.312078 -0.218023 -0.167063 0.247138 0.038652 -0.224123 0.175893 0.085864 -0.270627 -0.135918 0.359711 0.173597 -0.394569 0.091284 -0.549522 -0.174824 -0.240881 -0.296201 -0.219252 -0.208016 -0.067408 0.248748 -0.255568 -0.104630 -0.356006 0.232329 -0.047841 0.018877 -0.086711 0.237900 0.435105 0.153509 0.191680 0.179471 0.222991 0.057834 -0.064951 0.161952 -0.006351 -0.202200 0.084734 0.618276 -0.207631 0.105563 -0.059471 0.212822 0.100745 0.098094 -0.481892 -0.131013 0.164628 0.154072 0.266883 0.048886 -0.146046 -0.010135 -0.224644 0.015901 0.025665 -0.235701 0.078173 -0.229114 0.356041 -0.377809 -0.220752 0.119201 0.197359 0.012323 0.224510 -0.284915 0.174544 0.158680 -0.128503 0.284076 -0.070843 0.170726 -0.185610 -0.018762 0.309323 -0.009255 0.153050 -0.271073 -0.191759 -0.234993 0.048449 -0.152108 0.098009 0.066247 0.143639 -0.188571 -0.229046 0.042935 -0.178167 -0.522631 -0.136367 -0.113378 -0.159801 -0.193972 0.289845 -0.070053 -0.337112 -0.220177 -0.143221 -0.029964 0.044230 -0.117784 0.100345 -0.020211 -0.093726 0.233816 -0.068381 0.083383 0.094805 0.245184 0.480338 0.058831 0.200760 -0.437632 0.404984 -0.112837 0.230498 0.053853 0.229718 0.297475 0.020149 0.097570 -0.045376 0.153986 -0.268121 0.337005 -0.182388 -0.015042 -0.157742 0.024839 -0.031244 0.193590 -0.132703 0.215603 -0.027883 0.289413 -0.150210 1.492946 -0.231327 0.055899 -0.044945 -0.115330 0.147660 -0.164958 -0.026478 -0.116870 -0.290185 0.221879 -0.117296 0.583559 -0.242917 -0.170349 -0.281815 -0.253271 -0.121254 0.393667 0.293349 0.091939 0.088715 -0.024052 -0.103202 -0.192265 0.097411 0.125714 0.027620 0.067343 0.103223 -0.304059 0.141251 -0.233368 
for -0.631974 0.217912 0.339573 0.135115 -0.229605 -0.180177 -0.125016 -0.156501 0.327225 0.139182 0.012914 0.257014 0.268672 0.132771 -0.362100 0.167894 -0.291947 0.284870 0.058593 -0.291308 -0.040711 0.234510 0.329370 0.522637 0.244616 -0.574174 -0.242720 -0.180321 0.232422 0.370757 0.059049 -0.104100 -0.100854 0.152253 -0.262711 -0.196879 -0.087390 -0.078332 -0.004168 0.104980 0.002536 -0.160299 0.052387 0.390010 0.100024 -0.112270 0.188993 0.006665 0.116244 0.084872 0.067679 0.009070 -0.021409 0.233074 0.015800 -0.044325 -0.184197 -0.089606 -0.122498 0.297958 -0.175002 0.032136 0.063941 0.391926 0.386345 -0.196136 -0.274489 0.068386 -0.002855 -0.116604 0.102701 -0.063219 0.267416 0.139394 -0.111109 0.007575 -0.023289 -0.090955 0.210547 0.272725 0.065528 0.030921 0.099210 0.049064 0.057207 -0.246785 0.190366 -0.103293 -0.348419 -0.199045 -0.215592 -0.155982 -0.118320 -0.125786 -0.058899 -0.272742 0.139450 0.262317 0.005746 0.088141 -0.066650 0.090889 0.242484 0.108116 0.113328 0.375603 0.164883 0.010155 -0.104214 -0.304552 0.014490 -0.219023 0.178496 -0.188874 -0.128909 0.009192 0.204187 -0.000738 -0.184910 -0.222276 0.445743 -0.400364 -0.150092 -0.198611 0.065019 0.212997 -0.354208 -0.133469 -0.028559 0.103128 0.099953 -0.137884 0.300317 -0.340009 -0.285064 -0.169850 0.146645 -0.031512 -0.230554 -0.177586 -0.032272 0.058604 0.400931 0.008444 0.016490 -0.107420 -0.097732 -0.051206 -0.100115 0.384383 0.146759 -0.054796 -0.005468 0.115407 0.113463 -0.037816 0.354407 -0.103668 -0.389247 0.371993 -0.042773 0.021919 0.056348 -0.222713 -0.177716 0.280764 0.142008 0.832557 0.276307 -0.028794 -0.118373 0.197623 0.132869 -0.144914 -0.015900 -0.043519 0.021442 0.140471 0.107003 0.035037 0.180038 0.001197 0.135978 0.000009 -0.004677 0.035360 0.147182 0.161830 -0.369778 -0.027441 -0.066147 -0.006389 0.042744 0.024781 0.033721 0.187038 0.051521 -0.176067 -0.001555 -0.130350 
on 0.756034 0.213265 -0.291048 -0.056317 0.443466 -0.008859 0.365570 -0.482962 0.051212 0.181124 0.120920 0.349616 -0.100448 0.062016 0.044817 0.089106 0.327140 -0.392614 0.041758 0.254941 -0.017435 -0.069013 -0.111588 0.095409 0.146798 0.314809 -0.270887 -0.123079 -0.128737 -0.031072 0.019521 0.070869 0.158646 0.062880 -0.043779 -0.348720 0.150212 0.076735 -0.292639 0.015841 -0.253349 -0.049118 0.100513 -0.048055 0.164986 0.174265 -0.064570 -0.271366 0.051313 -0.058393 0.240503 0.045614 -0.099701 -0.165584 -0.004839 0.084421 0.131450 -0.031790 -0.001960 -0.124282 -0.061073 -0.048600 -0.128530 0.040597 0.042387 0.285745 -0.083030 0.142241 -0.091088 -0.117488 0.123098 -0.040880 -0.018234 -0.320439 -0.224274 -0.211143 0.002120 0.335550 -0.042941 -0.287802 -0.031287 0.012763 0.052448 -0.098616 0.022924 -0.230963 0.204328 -0.090406 0.394741 0.080830 -0.149233 -0.265016 0.290106 -0.257167 0.182234 -0.104460 0.122385 -0.016894 -0.217876 0.087978 -0.020629 -0.075505 0.186658 0.270034 0.164336 -0.288951 -0.273274 0.215258 0.118938 0.051116 -0.109387 -0.064712 0.189908 0.113968 0.145942 0.036101 -0.073041 -0.218549 0.174769 0.187104 0.087173 0.245870 0.021801 -0.015137 -0.190309 0.186618 0.012182 -0.042061 0.212330 -0.152395 0.050446 0.053994 0.195570 0.191723 -0.054924 -0.105477 -0.146848 -0.062641 0.171275 -0.032964 0.061767 -0.060743 0.202202 -0.015498 0.144053 0.030110 -0.029458 0.186115 0.193510 0.001593 0.063177 0.174005 0.026262 0.122576 -0.018705 -0.217971 0.203670 -0.128175 0.023199 0.059031 0.113782 -0.028423 -0.028560 -0.138799 -0.000509 0.038863 0.037949 1.073826 0.025743 -0.081115 0.029202 0.255568 0.214292 -0.031442 -0.088828 -0.082775 0.048331 0.126129 0.161291 0.096593 0.005173 0.239959 0.281974 0.188712 -0.069163 -0.104449 0.196655 0.302598 0.212366 -0.011626 0.020539 -0.099008 -0.259937 -0.045632 -0.188102 -0.100942 -0.208426 0.146676 0.070664 -0.012620 
as 0.448739 0.027019 -0.067979 -0.276596 0.291895 0.214680 0.031869 -0.004293 0.897272 0.061186 0.085123 0.255896 0.132201 -0.141201 -0.394255 0.638802 0.006519 -0.168680 0.605233 0.261608 -0.375873 -0.335977 -0.419040 0.280111 -0.168520 0.100026 0.390905 -0.273534 0.048018 0.125832 0.000878 -0.171302 -0.455535 -0.025336 -0.019420 0.266066 0.047812 0.046857 0.005113 -0.263800 -0.163857 -0.177756 -0.485643 0.277984 0.135410 -0.015325 0.007517 -0.097457 -0.137188 0.113164 0.204264 0.388973 -0.233707 -0.181154 0.022617 -0.241770 0.011540 0.027789 0.297514 0.192700 0.125318 0.148467 -0.463377 0.046707 0.403693 -0.367725 -0.226817 0.216483 0.224877 -0.172442 -0.083602 0.170125 -0.328908 0.218930 -0.227726 -0.112381 0.268780 -0.247170 0.198377 0.353488 0.322813 -0.012246 -0.118417 0.220742 0.188950 -0.045715 -0.210040 0.046639 0.140337 -0.133768 0.077194 -0.201230 -0.481349 0.285393 -0.341316 -0.108988 0.119738 -0.264673 -0.127761 -0.323817 -0.100505 -0.127498 -0.091839 0.041339 -0.021281 0.066859 0.149314 0.048713 0.164880 -0.130769 0.154231 -0.111092 0.215092 -0.237740 0.082772 -0.147159 0.268456 -0.272010 -0.291043 -0.552750 0.175441 -0.210155 -0.021247 0.302893 -0.012986 -0.087008 -0.036314 -0.005728 0.005940 -0.140547 -0.013971 -0.350243 -0.123333 -0.356267 -0.094078 -0.201790 0.028188 -0.361969 -0.118435 -0.148616 0.051074 -0.183055 0.320925 -0.064816 0.087378 -0.186267 0.057710 -0.116030 0.238886 0.275624 0.043371 -0.184965 0.113602 0.341145 -0.176121 -0.059904 0.224016 0.240798 -0.203680 0.170750 0.557000 0.285502 0.147361 -0.169941 -0.253252 0.185682 -0.074004 1.339101 -0.089357 -0.052543 -0.119098 0.273624 0.122427 0.092098 0.187346 -0.188739 0.177177 -0.289634 0.053414 0.424081 -0.125120 -0.177273 0.293343 0.023971 -0.109464 -0.131909 0.017188 0.264483 -0.304597 -0.005881 0.187306 -0.285842 0.426119 0.169028 0.024378 -0.141464 0.067734 0.084477 0.026414 -0.272444 
by -1.859041 -0.197840 0.247903 -0.067643 0.246691 -0.349476 -0.139213 0.312411 0.181048 -0.125909 0.549302 0.204625 0.003320 0.207146 -0.274780 -0.055812 -0.030596 0.094051 -0.104327 0.549412 -0.129955 0.258815 0.029469 0.051361 -0.152662 0.138787 -0.102568 -0.343809 0.141328 0.292544 -0.215280 -0.245713 0.266632 0.209904 -0.078261 0.080435 -0.245335 -0.413241 0.250473 -0.058216 -0.045142 -0.251081 0.143056 -0.059597 -0.239555 0.062901 -0.301462 -0.093529 -0.151011 -0.156059 -0.051969 0.094885 -0.142248 -0.707482 0.084199 0.082160 0.137493 0.199447 0.206113 -0.244954 -0.313862 -0.179770 -0.129809 -0.348855 -0.063759 -0.050998 0.181561 0.004225 -0.210492 0.053051 -0.288977 0.050170 -0.191699 0.040912 -0.341464 -0.024272 -0.119453 0.414924 -0.146380 -0.178363 0.078168 -0.160531 0.020281 -0.259363 0.345137 0.293598 -0.203384 0.012959 -0.025405 -0.288059 -0.147895 -0.035587 0.232996 -0.127479 -0.099233 0.050425 -0.099635 0.366717 0.352166 -0.071013 -0.101619 -0.256309 0.181454 -0.214352 -0.151803 -0.165940 0.114465 0.361429 0.095216 -0.210476 0.091874 -0.188396 0.005866 -0.401114 0.150273 0.091342 -0.019817 0.126092 0.004654 -0.141153 0.018193 -0.047506 0.003613 -0.133952 -0.143971 -0.220872 0.131037 -0.083682 0.048225 -0.213547 -0.198834 0.171387 0.030422 -0.025501 0.019933 -0.245426 0.132120 0.135830 -0.144311 0.116354 -0.105505 0.010304 0.271946 0.114308 0.024199 -0.296416 0.071572 0.316273 0.091555 0.197451 0.007207 0.124223 0.021149 -0.146353 0.100991 0.237874 0.078043 0.016004 -0.031535 0.153377 -0.039796 0.055135 -0.062882 0.320637 -0.396151 -0.039958 0.120521 0.758869 -0.255395 0.152275 -0.022424 0.015987 0.435622 -0.283168 0.082778 0.029792 0.102671 0.024146 -0.034625 -0.255079 0.125034 0.090016 -0.283730 -0.329214 0.547816 -0.177615 0.206282 0.050274 -0.135244 -0.121020 -0.030463 -0.051679 -0.227809 0.133980 -0.201617 0.033432 -0.033890 0.146671 -0.335865 0.051309 
with -0.055735 0.073160 -0.039834 -0.179505 -0.013017 -0.317678 0.105407 0.170419 -0.005207 -0.181409 -0.044721 0.003858 0.749278 0.005533 -0.175302 0.182211 0.038225 0.028691 0.075728 0.261517 -0.268539 -0.669088 -0.035267 0.207413 0.120393 0.181722 0.052832 -0.136011 0.008661 -0.075490 0.227684 -0.231862 -0.057197 0.101541 -0.208968 0.011829 -0.058830 0.135701 0.106203 -0.243040 -0.758810 -0.021584 -0.040758 0.119920 -0.015185 0.076220 -0.079961 0.111461 -0.044304 0.077840 -0.083742 0.381640 0.016099 -0.261217 -0.264503 -0.009510 -0.108776 -0.197962 -0.410522 -0.047085 -0.085403 -0.122007 -0.061445 0.048021 -0.080749 0.230461 0.465127 -0.328179 0.211685 -0.392864 -0.110289 -0.165474 -0.104123 -0.370738 0.051939 -0.283937 -0.161001 0.262978 -0.190016 -0.096359 -0.079913 0.319629 0.115052 -0.189153 -0.135346 0.045844 -0.384690 0.129580 0.258715 -0.065193 0.224905 -0.066755 0.122689 0.461560 0.041626 0.161661 -0.211824 -0.043290 -0.053931 0.037269 0.234310 0.062883 0.044126 0.050113 -0.251144 0.035899 -0.250400 -0.379677 -0.137455 -0.169246 -0.263343 0.205644 0.458178 -0.053143 0.223213 0.024572 0.144788 0.207216 0.262068 -0.083382 0.163414 -0.163601 0.428883 -0.096254 0.361786 0.174465 -0.144557 -0.226252 0.017116 0.423022 0.005479 0.002964 0.253434 -0.349895 -0.263617 -0.097144 -0.175139 -0.295736 -0.134407 0.041497 0.134139 -0.224696 -0.125299 -0.233505 -0.035877 0.153205 0.357370 0.260752 0.003450 -0.047164 -0.230380 -0.044688 -0.151812 0.129649 0.071810 -0.214288 0.078719 0.195989 0.243548 0.244175 -0.235429 0.238598 0.044786 0.233496 0.127978 0.057232 -0.359106 0.748368 0.071890 0.130575 -0.116014 -0.062194 0.145691 0.342749 -0.091930 -0.037803 -0.202507 -0.023470 -0.127812 -0.194593 0.141887 -0.261813 -0.357880 0.000033 -0.356646 0.236617 -0.183648 0.114524 0.216364 -0.046969 0.050584 0.322167 0.115049 -0.120839 0.075852 -0.163055 -0.124567 -0.101725 -0.118804 -0.040045 
he 2.667221 -0.169929 0.023341 -0.132124 -0.157800 -0.102621 0.394362 -0.120583 0.596233 -0.044934 -0.025865 0.304276 -0.078806 0.061399 0.089902 -0.366640 0.274631 0.090837 0.401277 0.017210 -0.298541 -0.115691 -0.050128 -0.152119 0.019436 -0.039907 -0.204007 -0.207595 0.039096 0.001208 0.055263 -0.053179 0.068634 0.227628 -0.147053 -0.076138 -0.100163 -0.039029 0.064107 -0.157010 0.099015 -0.173902 0.027616 -0.092686 0.045554 0.170259 0.173145 -0.161585 -0.074220 0.136085 0.022358 -0.018283 -0.004003 -0.148328 0.201282 -0.185312 0.032842 -0.287105 0.006456 -0.089743 -0.153133 0.072865 0.223591 0.111981 -0.160027 0.109881 -0.087384 0.099317 0.014017 -0.073475 -0.062961 0.241947 0.053075 0.001233 -0.010153 0.053409 -0.100011 -0.188404 -0.106425 0.054318 0.079508 0.122641 0.032069 0.045035 0.037646 -0.187272 0.131793 0.021727 -0.047806 0.139964 0.044941 0.041496 0.035254 0.018075 0.169677 0.037800 -0.017506 -0.058254 0.023651 0.205044 -0.076868 0.037843 0.103676 0.079187 0.190757 -0.010134 0.023731 0.139678 0.078016 0.029264 0.022239 0.004972 0.000613 0.110355 -0.238865 -0.116495 0.375506 -0.145276 0.069891 -0.033888 0.004132 0.088039 0.229038 -0.016113 0.002402 0.139041 -0.149773 0.091792 -0.018061 -0.159015 -0.011962 -0.071751 -0.006701 -0.026906 -0.158771 -0.013905 0.033479 0.023378 -0.006633 -0.178514 -0.020248 -0.033536 0.094862 -0.163171 0.097552 -0.030107 0.261926 0.188108 0.047587 0.163253 0.173858 -0.043700 0.226000 -0.030215 -0.019034 -0.110290 0.427859 -0.247033 0.029337 0.233232 -0.073453 -0.013775 0.084387 0.008341 -0.145027 -0.198945 0.017811 1.222840 0.189974 0.004816 -0.034544 0.184471 -0.018214 0.041072 -0.058666 0.052733 0.125987 -0.034649 0.130880 -0.098610 -0.048862 -0.001131 0.372199 0.100954 -0.127538 -0.061623 0.086284 -0.088157 -0.062655 -0.119032 -0.041846 -0.143223 -0.201632 -0.069389 -0.081243 -0.141264 0.069762 0.184404 0.027688 -0.151927 
at 0.112513 -0.244010 -0.449062 -0.281152 -0.010368 -0.308374 -0.240286 -0.295144 -0.068343 -0.634763 -0.239556 0.565362 0.479155 0.504131 0.248392 -0.059296 -0.591921 -0.072848 -0.078586 -0.423174 0.097273 -0.266198 0.355011 -0.277481 0.152777 0.943763 -0.552132 0.082937 -0.389746 0.132792 0.017788 -0.094717 -0.006289 0.506286 -0.027721 -0.048477 0.062525 0.242064 -0.208779 0.352228 -0.036367 -0.035087 -0.282725 0.183901 0.067813 0.027111 0.220129 0.081157 -0.355601 0.011595 0.079343 0.436990 0.391506 -0.143400 -0.123364 0.082061 -0.061002 0.026352 0.044915 -0.180563 -0.047711 -0.159284 0.040813 0.033939 0.060993 0.396232 -0.046114 -0.113866 -0.139612 0.001415 -0.172099 -0.115495 -0.152981 -0.066010 -0.334360 -0.259453 -0.120256 0.147809 -0.111697 0.421326 0.262986 0.119021 0.166119 0.214298 0.153795 -0.460471 0.008537 -0.224770 -0.195030 -0.360946 -0.191320 -0.017690 0.110641 0.320429 -0.140329 -0.340934 0.093440 -0.133509 0.006615 0.442669 0.392123 0.146079 0.395447 -0.108299 0.029878 0.099565 0.451377 -0.189297 -0.462585 0.068093 -0.014266 0.028501 -0.088267 0.148621 -0.372697 -0.002873 -0.083187 -0.151856 0.143160 -0.310431 -0.074438 0.104385 0.164473 0.081880 -0.009434 -0.294212 0.167241 -0.286123 -0.102944 0.213468 0.086832 -0.016189 0.126670 0.082262 0.055041 0.155328 -0.141306 -0.238787 0.038946 -0.340006 -0.168277 -0.377203 0.002088 -0.412770 0.363901 0.173359 0.381058 0.190445 0.267794 -0.013785 0.098198 -0.072983 0.135069 -0.079546 0.170394 -0.467064 -0.141613 -0.183156 -0.296482 0.202539 0.115709 -0.051031 -0.038183 -0.337720 -0.034941 0.154747 0.236618 1.116542 0.188831 -0.030581 0.031873 -0.130884 0.245385 -0.330927 -0.009603 -0.101005 0.123492 0.023182 0.075934 -0.058289 0.176730 0.083788 -0.190553 0.203980 -0.088744 0.409996 0.137736 -0.149280 -0.450429 -0.082402 -0.141070 -0.103824 -0.208162 0.133725 -0.240120 0.193731 0.171055 -0.032317 0.216015 0.317109 
from -0.188834 0.065688 -0.660898 -0.436108 -0.003714 0.174813 -0.104772 -0.287659 0.494003 -0.513212 -0.134939 0.345541 0.423242 0.467703 -0.005425 0.071501 0.172549 0.093485 -0.038411 0.199287 -0.204194 -0.279907 -0.006118 -0.043499 -0.062493 -0.175669 -0.337752 0.056226 -0.698064 0.112038 -0.305031 -0.135404 0.195093 0.065581 -0.007579 0.475458 0.074494 0.006797 0.142132 0.197208 -0.065161 -0.592437 -0.169769 0.042412 0.036308 -0.012588 -0.055873 0.062365 -0.447272 0.094865 -0.129674 -0.220756 -0.289457 -0.218797 0.107258 0.051198 -0.173212 0.214500 0.021302 -0.012961 0.026728 -0.082888 0.091855 -0.003709 0.230412 -0.274910 -0.297471 -0.172711 0.042736 -0.307553 -0.128063 0.465418 0.260826 -0.150680 -0.232600 -0.486539 0.007262 -0.064304 -0.605952 0.181743 -0.178406 0.002721 0.101989 0.059060 -0.317689 -0.289256 -0.055948 -0.387489 0.156220 0.077057 0.347289 0.058545 -0.005382 0.264564 -0.123125 0.203227 0.073379 -0.077470 0.124180 -0.006874 -0.189576 0.090521 0.232057 -0.101956 -0.022193 -0.321186 -0.468550 0.266347 -0.266413 -0.347929 -0.062930 0.112713 -0.276681 0.455097 0.039370 -0.090309 0.247302 -0.064022 0.168735 0.281667 0.129752 -0.327380 -0.010531 0.173377 0.072020 0.272925 0.102707 -0.019553 -0.189866 0.005124 0.002867 0.174854 -0.005654 -0.132816 -0.019739 0.085238 -0.156542 0.074319 0.071024 -0.175055 -0.394578 -0.009057 -0.149953 0.110390 0.148257 0.432378 0.070575 0.232287 0.630097 0.001450 -0.086695 -0.122587 -0.220199 -0.228667 -0.246287 0.048360 0.223715 0.509616 -0.045899 0.084820 -0.031371 -0.160602 -0.213050 0.139292 0.140493 0.166848 0.235169 1.141532 -0.372133 -0.104322 0.132069 0.119520 -0.041697 0.029459 0.137968 -0.293726 -0.016238 0.045782 0.307460 0.034967 -0.101932 -0.081558 -0.196032 -0.013079 0.000559 0.172632 -0.369477 -0.376843 0.155789 0.278140 0.526271 0.388955 0.354307 0.011697 -0.242076 0.274693 -0.100815 -0.002342 0.201896 0.123214 
that 2.662804 0.573479 0.211399 0.136137 0.392497 0.222051 0.444012 0.029514 0.101683 0.395096 -0.226722 0.086759 -0.190140 0.047079 0.020937 -0.504252 0.633987 -0.232424 0.274240 0.342301 -0.077844 0.196223 -0.166057 -0.015281 0.024606 0.068983 -0.347304 -0.166286 -0.136486 -0.313275 0.242619 0.095437 0.122139 -0.090709 0.088430 -0.128974 -0.180636 0.005267 -0.084058 -0.058393 -0.189129 0.025096 0.089270 0.255085 0.002841 -0.178534 0.028399 0.198703 0.004402 0.062300 0.054651 -0.051938 -0.020251 -0.099272 0.167575 -0.149545 0.104732 -0.306700 0.032146 0.094149 0.137510 0.211785 -0.013235 0.073318 -0.209745 0.423682 -0.231034 -0.198838 0.147239 -0.175445 -0.303541 0.130265 0.051081 -0.057933 -0.100974 0.020822 -0.150839 -0.106914 -0.137266 0.008007 0.100348 -0.131835 0.058249 -0.026316 0.073964 0.051130 0.099737 0.059781 -0.073794 0.237107 -0.205529 0.129506 0.083931 0.057786 0.089573 -0.055274 0.046114 -0.011725 0.052872 0.075033 -0.066812 0.174345 0.024216 0.149394 -0.071431 0.029852 -0.145524 0.112055 -0.054980 0.062177 -0.106702 0.012886 -0.064406 0.315681 -0.133962 -0.005657 0.303019 -0.066680 0.128607 0.043573 0.013872 -0.044557 0.050698 -0.005240 0.048953 -0.013851 -0.302140 -0.137649 -0.074277 0.115404 -0.069640 0.086996 -0.050376 -0.052486 -0.146557 0.032772 -0.114492 0.071524 -0.045419 -0.013651 -0.083149 0.084759 0.125161 -0.466698 0.006174 -0.197318 -0.030572 -0.061065 0.108145 0.267533 0.078007 0.056500 0.104656 0.109580 0.173895 -0.072461 0.121460 -0.289265 0.147859 0.020095 0.125420 0.043096 -0.082880 -0.060969 -0.273617 0.056805 0.148207 0.935909 0.075345 0.101987 -0.139752 -0.110697 0.045240 0.024606 0.197510 0.060790 0.189002 0.034394 0.020497 0.177168 0.043484 0.159464 0.145015 0.049338 -0.121442 0.201656 0.050402 -0.077755 -0.161682 -0.125130 0.138168 -0.137242 -0.292228 0.042074 0.017566 0.076175 0.006329 0.055529 0.146172 -0.242061 
his 1.208023 -0.602262 -0.037079 0.210788 -0.350727 -0.009210 -0.298395 -0.134834 0.481808 -0.922961 0.394374 0.093742 0.173978 0.658183 0.417716 -0.339434 -0.116708 0.183756 -0.023303 -0.031015 -0.130402 -0.242274 -0.221126 0.293733 -0.258458 -0.205751 0.134947 -0.152491 0.057153 0.041172 -0.128178 0.058167 -0.041831 0.339663 -0.122103 0.073622 -0.001573 -0.184003 0.316640 0.010126 0.127208 -0.413670 -0.007527 -0.141395 0.160312 -0.001619 0.299278 -0.172609 0.552068 0.123339 0.024108 0.223074 -0.307631 -0.501175 0.153519 -0.206272 0.073900 -0.112994 0.050290 -0.032415 0.050890 0.101803 -0.058475 0.190909 0.098141 0.090011 -0.118437 0.309782 0.357182 0.034189 -0.037730 0.028141 0.279994 -0.144941 -0.129454 -0.139475 0.235828 0.428680 0.375035 0.090826 0.272358 -0.017657 0.157014 0.523019 0.050138 0.025616 0.411877 0.028783 -0.284153 -0.145373 0.036223 -0.060369 0.132813 0.186486 -0.044355 -0.010654 0.388905 -0.044213 0.284358 0.284993 0.596661 -0.159488 0.704448 0.106684 -0.203279 -0.201706 0.042282 0.235251 0.112844 0.309425 0.044689 0.153467 -0.285028 -0.013946 -0.533331 -0.431763 0.201130 -0.274725 0.401491 -0.592430 0.234160 -0.289362 0.320179 -0.240232 -0.083702 0.433045 0.077776 -0.247222 -0.082013 -0.095615 -0.322411 -0.369903 0.373574 0.275474 -0.487849 -0.279035 -0.127022 -0.064297 0.113454 0.010292 -0.015691 0.092743 0.008399 0.219823 0.067035 0.067556 0.132851 0.194562 -0.182827 -0.101927 -0.245603 -0.217014 0.079465 -0.017474 -0.017467 -0.312271 0.345466 0.040118 -0.000856 0.033226 0.020565 -0.477215 -0.244141 0.050352 0.076705 -0.202208 -0.188958 0.982234 0.210028 -0.065800 0.323460 0.239205 0.461930 -0.114212 -0.150020 -0.306067 0.222589 -0.012533 0.234105 -0.025639 -0.146178 -0.272806 0.268998 0.245861 -0.357621 -0.272513 0.460855 0.053084 -0.106210 0.286931 -0.029599 -0.128302 -0.130904 -0.051848 -0.007352 0.092777 0.449294 0.460290 -0.269732 -0.334943 
it 0.654601 0.774803 0.224675 0.294493 0.640388 0.105884 -0.248557 0.057605 0.009646 0.371205 -0.144208 -0.165057 -0.147045 0.045425 -0.416825 0.220393 -0.011706 0.103805 -0.073327 -0.066310 0.267293 -0.171011 0.164736 0.024694 0.107878 -0.128319 -0.064039 -0.266607 -0.079412 -0.279621 0.007757 0.066141 -0.032854 0.380224 -0.114930 0.024374 -0.030567 -0.031360 -0.109130 0.137569 -0.100587 -0.192669 0.048014 -0.464865 0.164475 -0.195390 -0.234702 0.121156 -0.242179 -0.094962 -0.228422 -0.008396 -0.090278 0.502814 0.060588 0.121742 -0.023069 0.102977 0.108181 -0.016276 -0.179186 0.104621 -0.218555 -0.049607 0.014223 0.041524 -0.179876 0.129826 0.126429 0.282183 0.308824 0.223215 -0.191937 -0.168041 -0.039035 -0.367049 -0.091219 -0.015330 -0.094740 0.056180 0.237952 -0.289462 -0.146009 0.254243 0.087388 -0.175309 0.234717 -0.241579 0.108101 -0.291002 -0.335029 -0.056594 0.015045 -0.229127 0.236016 -0.037880 0.016123 0.103920 0.015741 -0.384729 0.101968 0.068650 0.297882 0.169290 0.021388 -0.361795 -0.050710 -0.178162 0.223872 -0.109073 0.177653 -0.112360 -0.229216 -0.020957 -0.092287 -0.097982 0.031019 -0.367211 0.132393 -0.190414 0.204524 -0.366413 -0.273749 -0.157269 -0.236339 -0.146696 -0.164895 -0.164391 0.053247 0.191257 -0.094410 -0.183645 -0.088834 -0.203852 0.103423 0.200015 -0.186922 0.211229 0.038905 -0.146950 -0.117754 0.389203 0.391824 -0.634399 0.232289 0.128971 -0.015152 0.157997 -0.214600 0.343764 0.187962 0.013378 0.148129 -0.125771 -0.168089 0.226122 -0.048665 0.172931 -0.000041 -0.392789 -0.118994 0.309491 -0.087720 0.027615 -0.153813 0.081017 0.309440 0.777129 0.237785 0.032542 0.223933 -0.380031 0.256430 -0.055143 0.127671 -0.239531 0.092198 0.370579 -0.049615 0.086979 -0.037781 0.231699 0.297540 -0.034333 -0.299134 0.396792 0.043658 0.073450 -0.049312 0.002650 -0.251256 0.238566 -0.223058 0.069888 0.162830 0.065755 -0.253559 0.275994 0.072670 -0.144247 
an 0.294301 -0.217564 0.029024 -0.360723 0.293741 0.069132 -0.407665 -0.624188 -0.222993 -0.089987 0.227018 0.508303 -0.040097 0.156036 -0.050159 0.041488 -0.225301 -0.347575 -0.074187 0.144167 -0.169627 -0.110023 0.122687 0.041043 -0.002433 0.035579 -0.019871 -0.018938 -0.245544 0.202145 0.141638 -0.358218 0.348748 0.198409 -0.172145 -0.052509 0.015912 -0.018245 -0.375012 0.172026 -0.442141 -0.350289 -0.220054 -0.059604 0.098721 -0.097766 -0.008821 0.076387 0.265105 -0.232902 0.085503 0.099777 -0.270852 -0.142924 0.002126 0.265172 0.324041 0.052899 0.051811 -0.132650 -0.142413 -0.075410 -0.007327 0.298569 0.059986 -0.126486 -0.173730 0.315876 -0.181935 -0.180065 0.144964 0.056579 -0.172107 0.189737 -0.432714 -0.095165 0.018067 0.116765 0.064996 0.108286 0.165118 0.126766 0.099376 -0.090160 0.271065 -0.625368 0.281001 0.244971 0.409283 -0.157398 -0.590298 0.232713 -0.162541 -0.192045 -0.062634 -0.021125 0.241480 -0.074119 0.275527 0.019974 -0.123233 0.012370 0.085941 0.042632 -0.214106 0.099413 -0.325226 0.123553 -0.238859 0.021897 -0.040586 -0.274712 0.032524 -0.013440 -0.061357 -0.360480 -0.089584 -0.457332 0.026730 -0.009406 0.278881 -0.099962 0.015579 -0.233583 0.189539 0.003298 -0.104070 -0.257357 0.029664 -0.084953 -0.071364 0.138948 0.146862 -0.228600 0.222334 0.102200 0.221568 -0.239291 0.474728 0.313330 -0.075509 -0.039457 -0.028895 0.091563 0.239866 -0.172004 0.126681 0.131322 0.179951 0.039078 -0.027288 -0.032515 0.312870 0.200761 -0.113853 -0.268190 0.007057 -0.119697 -0.492492 -0.015956 0.503121 0.005233 -0.446641 -0.010013 -0.306057 -0.316964 -0.014694 0.758511 -0.051752 0.062808 -0.465022 -0.365716 0.506817 -0.442672 -0.056707 -0.174710 -0.058588 -0.256209 0.027575 -0.218358 0.322059 0.073569 0.342031 -0.346509 -0.132115 -0.292043 0.307841 0.430253 -0.384961 -0.346997 -0.086460 -0.321192 -0.068764 -0.040979 0.115387 0.192222 0.169576 0.271630 -0.126158 -0.024149 
were -0.395591 0.479104 -0.838086 -0.313624 -0.542094 0.485515 0.546889 0.345292 -0.150711 -0.242378 0.197123 -0.003204 0.235944 -0.128614 -0.007125 -0.301187 -0.225147 -0.005607 -0.233940 0.324049 -0.059636 -0.486120 -0.198636 0.160445 -0.030400 0.470988 -0.341065 0.059110 -0.609230 -0.180807 -0.417884 -0.204934 -0.122007 0.097100 -0.282007 -0.014243 -0.106662 -0.228485 0.527133 -0.052279 -0.322248 -0.009919 -0.266724 0.157051 0.175588 -0.200317 0.364480 0.136230 0.374930 -0.015876 -0.138676 0.401164 -0.150122 -0.032961 -0.084880 0.196495 -0.129291 0.233966 -0.028673 0.434696 0.261433 -0.148305 0.157637 -0.090867 -0.063685 0.386335 0.249103 -0.249427 0.294584 0.117297 0.171075 -0.110570 0.247847 -0.025180 0.043563 0.052300 -0.088999 -0.387385 0.009488 0.163193 0.044338 -0.083496 0.120123 0.205725 0.314905 -0.077511 -0.207493 -0.155491 -0.204321 0.007761 0.622473 0.020618 -0.047089 -0.104742 0.163829 -0.200716 -0.338065 -0.523809 -0.409089 -0.077267 -0.234533 0.240312 0.200207 -0.123150 -0.158728 0.299317 0.005439 -0.051083 0.190741 -0.428168 -0.387044 0.147916 -0.229211 -0.078784 -0.190501 0.146363 -0.043547 0.153767 -0.151983 0.011461 0.520611 0.197323 0.063983 0.339719 -0.106118 0.133784 -0.001282 -0.435216 -0.111955 0.202425 0.001682 0.310609 -0.403550 -0.060777 0.150470 -0.167317 -0.290026 -0.159687 -0.271756 0.041117 -0.414039 0.171126 0.239414 -0.253776 -0.020331 -0.505434 -0.246849 0.152360 0.633820 0.384961 0.096343 0.270827 -0.228593 0.031285 0.486939 0.044101 0.538038 0.202628 0.505746 0.608971 -0.035799 -0.448844 0.158796 0.027232 0.062180 0.133243 -0.184543 0.757663 0.691754 0.170192 0.001659 0.296590 -0.061072 -0.069888 0.082486 0.005252 -0.144545 -0.297982 0.175793 -0.049520 0.443437 -0.021850 0.160279 0.353731 -0.291853 -0.240045 -0.168666 0.262754 -0.175688 -0.266507 0.285094 0.105949 -0.007090 -0.209810 0.264989 0.249329 0.110262 0.328179 -0.444021 -0.019278 
are -0.272017 1.476630 -0.209876 0.380952 -0.051753 0.096497 0.184907 0.049978 -0.510907 0.641863 -0.365225 -0.005539 0.414040 -0.282083 -0.062019 0.082448 -0.263660 -0.445868 -0.023141 0.480873 -0.240694 -0.354815 0.306005 0.109400 0.103456 -0.004813 -0.018990 -0.527080 0.254487 -0.047615 -0.279755 -0.185296 0.273357 -0.020639 0.406271 -0.163854 0.199720 0.231736 0.142639 0.137534 -0.025301 0.055822 -0.101696 0.144081 -0.148609 -0.129687 0.136686 -0.007793 0.084864 -0.073121 0.200563 0.238391 0.007596 0.112289 -0.140000 0.202736 0.285937 0.190999 0.066525 0.057230 0.119785 0.152647 0.054222 -0.193759 -0.421670 -0.077514 0.036224 -0.347544 -0.028721 -0.417372 -0.032695 -0.274531 0.053923 -0.044315 -0.417016 -0.033701 -0.493969 -0.062148 0.035646 -0.241123 -0.567348 0.202475 -0.002066 0.010383 -0.016606 -0.102086 -0.062409 -0.218848 0.116942 0.134435 0.091865 0.217351 0.623688 -0.049460 0.248767 -0.312329 -0.285752 -0.131793 -0.240458 0.171686 -0.255757 0.190765 0.038215 -0.197010 -0.163191 0.183669 0.055839 -0.368936 -0.053850 -0.543681 0.301172 -0.105037 0.236879 0.125405 0.241660 0.003153 0.421644 -0.172152 -0.099505 -0.146567 0.412156 -0.019952 0.116052 0.064097 0.114409 -0.010283 0.373525 0.094430 -0.096292 0.047421 0.038017 -0.400952 0.099863 0.205059 -0.010368 0.248627 -0.229069 0.377873 -0.123841 -0.211747 0.300820 0.129447 0.416843 -0.167877 -0.160763 -0.212799 0.026166 -0.374154 0.023892 0.217387 -0.031691 0.133649 -0.069440 0.003737 0.023349 0.165168 0.149604 0.125021 -0.013068 0.403163 -0.571599 -0.253392 0.084234 0.232568 0.151328 0.086866 -0.208332 1.047025 0.062794 -0.264006 -0.121949 0.047146 0.134126 0.161522 0.044791 -0.219057 0.202483 -0.047907 -0.073281 0.179347 -0.128086 -0.049848 0.087660 0.271713 -0.153129 -0.290371 0.005930 -0.017358 -0.092470 -0.471778 0.190733 -0.119405 0.271549 0.121363 0.297866 -0.021299 0.053399 0.035072 0.310310 -0.066557 
